<?xml version="1.0"?>
<opencv_storage>
<cascade>
  <stageType>BOOST</stageType>
  <featureType>HAAR</featureType>
  <height>48</height>
  <width>48</width>
  <stageParams>
    <boostType>GAB</boostType>
    <minHitRate>9.9500000476837158e-01</minHitRate>
    <maxFalseAlarm>5.0000000000000000e-01</maxFalseAlarm>
    <weightTrimRate>9.4999999999999996e-01</weightTrimRate>
    <maxDepth>1</maxDepth>
    <maxWeakCount>100</maxWeakCount></stageParams>
  <featureParams>
    <maxCatCount>0</maxCatCount>
    <featSize>1</featSize>
    <mode>ALL</mode></featureParams>
  <stageNum>10</stageNum>
  <stages>
    <!-- stage 0 -->
    <_>
      <maxWeakCount>5</maxWeakCount>
      <stageThreshold>-1.6576294898986816e+00</stageThreshold>
      <weakClassifiers>
        <_>
          <internalNodes>
            0 -1 47 3.1401282176375389e-03</internalNodes>
          <leafValues>
            -8.8396281003952026e-01 5.2429670095443726e-01</leafValues></_>
        <_>
          <internalNodes>
            0 -1 102 7.8206311445683241e-04</internalNodes>
          <leafValues>
            -8.0473136901855469e-01 4.6147972345352173e-01</leafValues></_>
        <_>
          <internalNodes>
            0 -1 104 -7.3515553958714008e-04</internalNodes>
          <leafValues>
            4.9177831411361694e-01 -6.4988803863525391e-01</leafValues></_>
        <_>
          <internalNodes>
            0 -1 30 2.3819226771593094e-03</internalNodes>
          <leafValues>
            -5.8214813470840454e-01 3.3797031641006470e-01</leafValues></_>
        <_>
          <internalNodes>
            0 -1 24 8.3132505416870117e-02</internalNodes>
          <leafValues>
            3.4298235177993774e-01 -6.5918070077896118e-01</leafValues></_></weakClassifiers></_>
    <!-- stage 1 -->
    <_>
      <maxWeakCount>7</maxWeakCount>
      <stageThreshold>-2.0339505672454834e+00</stageThreshold>
      <weakClassifiers>
        <_>
          <internalNodes>
            0 -1 89 -1.1127764359116554e-02</internalNodes>
          <leafValues>
            3.1726282835006714e-01 -8.2147026062011719e-01</leafValues></_>
        <_>
          <internalNodes>
            0 -1 97 -3.1967731192708015e-03</internalNodes>
          <leafValues>
            3.6819195747375488e-01 -7.0891600847244263e-01</leafValues></_>
        <_>
          <internalNodes>
            0 -1 43 4.9414555542171001e-04</internalNodes>
          <leafValues>
            -7.3988127708435059e-01 2.9074338078498840e-01</leafValues></_>
        <_>
          <internalNodes>
            0 -1 128 -2.1494071930646896e-02</internalNodes>
          <leafValues>
            6.7698425054550171e-01 -3.7114882469177246e-01</leafValues></_>
        <_>
          <internalNodes>
            0 -1 52 -6.4848074689507484e-03</internalNodes>
          <leafValues>
            3.9547240734100342e-01 -5.6527286767959595e-01</leafValues></_>
        <_>
          <internalNodes>
            0 -1 49 -2.5568983983248472e-04</internalNodes>
          <leafValues>
            3.7478649616241455e-01 -5.1343435049057007e-01</leafValues></_>
        <_>
          <internalNodes>
            0 -1 87 3.2902350649237633e-03</internalNodes>
          <leafValues>
            -4.2155948281288147e-01 4.5616883039474487e-01</leafValues></_></weakClassifiers></_>
    <!-- stage 2 -->
    <_>
      <maxWeakCount>11</maxWeakCount>
      <stageThreshold>-1.8688961267471313e+00</stageThreshold>
      <weakClassifiers>
        <_>
          <internalNodes>
            0 -1 4 8.1564836204051971e-02</internalNodes>
          <leafValues>
            -6.1321163177490234e-01 5.8798283338546753e-01</leafValues></_>
        <_>
          <internalNodes>
            0 -1 22 5.8701774105429649e-03</internalNodes>
          <leafValues>
            -7.0599710941314697e-01 4.4219622015953064e-01</leafValues></_>
        <_>
          <internalNodes>
            0 -1 72 7.8490038868039846e-04</internalNodes>
          <leafValues>
            -6.3520205020904541e-01 2.6858425140380859e-01</leafValues></_>
        <_>
          <internalNodes>
            0 -1 112 -1.1725639924407005e-02</internalNodes>
          <leafValues>
            3.7132436037063599e-01 -4.6907186508178711e-01</leafValues></_>
        <_>
          <internalNodes>
            0 -1 60 -1.6250272165052593e-04</internalNodes>
          <leafValues>
            3.9413160085678101e-01 -3.6337101459503174e-01</leafValues></_>
        <_>
          <internalNodes>
            0 -1 73 -1.7682150937616825e-03</internalNodes>
          <leafValues>
            2.5989884138107300e-01 -4.7331172227859497e-01</leafValues></_>
        <_>
          <internalNodes>
            0 -1 12 1.8577583134174347e-02</internalNodes>
          <leafValues>
            -2.1593178808689117e-01 5.1231348514556885e-01</leafValues></_>
        <_>
          <internalNodes>
            0 -1 41 6.5943819936364889e-04</internalNodes>
          <leafValues>
            -5.7844984531402588e-01 1.9682036340236664e-01</leafValues></_>
        <_>
          <internalNodes>
            0 -1 50 4.8032117774710059e-04</internalNodes>
          <leafValues>
            1.4401209354400635e-01 -7.8504288196563721e-01</leafValues></_>
        <_>
          <internalNodes>
            0 -1 105 -9.6385489450767636e-04</internalNodes>
          <leafValues>
            2.4042665958404541e-01 -4.4905504584312439e-01</leafValues></_>
        <_>
          <internalNodes>
            0 -1 82 1.1151164071634412e-03</internalNodes>
          <leafValues>
            -2.5076743960380554e-01 4.5715650916099548e-01</leafValues></_></weakClassifiers></_>
    <!-- stage 3 -->
    <_>
      <maxWeakCount>14</maxWeakCount>
      <stageThreshold>-1.7327375411987305e+00</stageThreshold>
      <weakClassifiers>
        <_>
          <internalNodes>
            0 -1 4 9.5758341252803802e-02</internalNodes>
          <leafValues>
            -5.6499576568603516e-01 5.1083588600158691e-01</leafValues></_>
        <_>
          <internalNodes>
            0 -1 55 1.5436352696269751e-03</internalNodes>
          <leafValues>
            -6.1862206459045410e-01 3.1716579198837280e-01</leafValues></_>
        <_>
          <internalNodes>
            0 -1 98 -1.0096641490235925e-03</internalNodes>
          <leafValues>
            2.5429144501686096e-01 -6.9438409805297852e-01</leafValues></_>
        <_>
          <internalNodes>
            0 -1 68 -1.1030902154743671e-02</internalNodes>
          <leafValues>
            2.9226413369178772e-01 -5.7338142395019531e-01</leafValues></_>
        <_>
          <internalNodes>
            0 -1 46 -2.1812047634739429e-04</internalNodes>
          <leafValues>
            4.7035065293312073e-01 -2.9892030358314514e-01</leafValues></_>
        <_>
          <internalNodes>
            0 -1 34 1.2988505885004997e-02</internalNodes>
          <leafValues>
            -6.2540638446807861e-01 1.9722451269626617e-01</leafValues></_>
        <_>
          <internalNodes>
            0 -1 83 1.3301912695169449e-03</internalNodes>
          <leafValues>
            -4.4002529978752136e-01 2.3535166680812836e-01</leafValues></_>
        <_>
          <internalNodes>
            0 -1 125 -5.7251192629337311e-02</internalNodes>
          <leafValues>
            6.1888676881790161e-01 -1.8094098567962646e-01</leafValues></_>
        <_>
          <internalNodes>
            0 -1 95 -3.5393153666518629e-04</internalNodes>
          <leafValues>
            -8.0248957872390747e-01 1.6440002620220184e-01</leafValues></_>
        <_>
          <internalNodes>
            0 -1 38 1.5319640806410462e-04</internalNodes>
          <leafValues>
            -4.5156806707382202e-01 1.7987574636936188e-01</leafValues></_>
        <_>
          <internalNodes>
            0 -1 11 -1.0016065835952759e-01</internalNodes>
          <leafValues>
            6.6628295183181763e-01 -1.5969604253768921e-01</leafValues></_>
        <_>
          <internalNodes>
            0 -1 15 4.3004326522350311e-02</internalNodes>
          <leafValues>
            -1.9059674441814423e-01 4.6920582652091980e-01</leafValues></_>
        <_>
          <internalNodes>
            0 -1 131 3.4852590761147439e-04</internalNodes>
          <leafValues>
            -2.5603088736534119e-01 3.7335306406021118e-01</leafValues></_>
        <_>
          <internalNodes>
            0 -1 106 -1.3069937995169312e-04</internalNodes>
          <leafValues>
            -7.1992331743240356e-01 1.4823754131793976e-01</leafValues></_></weakClassifiers></_>
    <!-- stage 4 -->
    <_>
      <maxWeakCount>14</maxWeakCount>
      <stageThreshold>-1.6502271890640259e+00</stageThreshold>
      <weakClassifiers>
        <_>
          <internalNodes>
            0 -1 26 1.3886978849768639e-02</internalNodes>
          <leafValues>
            -6.6123092174530029e-01 2.3384895920753479e-01</leafValues></_>
        <_>
          <internalNodes>
            0 -1 0 6.2219873070716858e-02</internalNodes>
          <leafValues>
            -3.3845216035842896e-01 5.7015562057495117e-01</leafValues></_>
        <_>
          <internalNodes>
            0 -1 29 -1.0461201891303062e-02</internalNodes>
          <leafValues>
            3.4878474473953247e-01 -5.0481325387954712e-01</leafValues></_>
        <_>
          <internalNodes>
            0 -1 93 7.4262311682105064e-03</internalNodes>
          <leafValues>
            -4.1404387354850769e-01 3.4532722830772400e-01</leafValues></_>
        <_>
          <internalNodes>
            0 -1 16 6.1130025424063206e-03</internalNodes>
          <leafValues>
            -5.6861162185668945e-01 2.1913184225559235e-01</leafValues></_>
        <_>
          <internalNodes>
            0 -1 86 6.0605402104556561e-03</internalNodes>
          <leafValues>
            -3.5612764954566956e-01 3.0991113185882568e-01</leafValues></_>
        <_>
          <internalNodes>
            0 -1 70 -8.5686217062175274e-05</internalNodes>
          <leafValues>
            -7.5557744503021240e-01 1.2040233612060547e-01</leafValues></_>
        <_>
          <internalNodes>
            0 -1 133 -1.5837959945201874e-03</internalNodes>
          <leafValues>
            3.4653151035308838e-01 -2.8951689600944519e-01</leafValues></_>
        <_>
          <internalNodes>
            0 -1 66 -7.6381379039958119e-04</internalNodes>
          <leafValues>
            -7.7994167804718018e-01 1.1139364540576935e-01</leafValues></_>
        <_>
          <internalNodes>
            0 -1 53 5.0313726067543030e-02</internalNodes>
          <leafValues>
            1.3177233934402466e-01 -6.3141608238220215e-01</leafValues></_>
        <_>
          <internalNodes>
            0 -1 63 -7.8700308222323656e-04</internalNodes>
          <leafValues>
            1.8002505600452423e-01 -4.4902217388153076e-01</leafValues></_>
        <_>
          <internalNodes>
            0 -1 129 2.3743435740470886e-03</internalNodes>
          <leafValues>
            -3.6255070567131042e-01 2.3946703970432281e-01</leafValues></_>
        <_>
          <internalNodes>
            0 -1 130 7.5292941182851791e-03</internalNodes>
          <leafValues>
            -2.2359663248062134e-01 3.8956215977668762e-01</leafValues></_>
        <_>
          <internalNodes>
            0 -1 44 2.7177971787750721e-04</internalNodes>
          <leafValues>
            1.3536199927330017e-01 -6.9048094749450684e-01</leafValues></_></weakClassifiers></_>
    <!-- stage 5 -->
    <_>
      <maxWeakCount>13</maxWeakCount>
      <stageThreshold>-1.4162368774414062e+00</stageThreshold>
      <weakClassifiers>
        <_>
          <internalNodes>
            0 -1 13 -1.5954267233610153e-02</internalNodes>
          <leafValues>
            1.6748768091201782e-01 -6.7564535140991211e-01</leafValues></_>
        <_>
          <internalNodes>
            0 -1 120 3.6156573332846165e-03</internalNodes>
          <leafValues>
            -4.4804105162620544e-01 3.1393513083457947e-01</leafValues></_>
        <_>
          <internalNodes>
            0 -1 36 -1.3322597369551659e-03</internalNodes>
          <leafValues>
            3.8774770498275757e-01 -3.6618745326995850e-01</leafValues></_>
        <_>
          <internalNodes>
            0 -1 1 2.6132357120513916e-01</internalNodes>
          <leafValues>
            -2.2974586486816406e-01 5.5393558740615845e-01</leafValues></_>
        <_>
          <internalNodes>
            0 -1 85 1.2045914772897959e-03</internalNodes>
          <leafValues>
            -3.4158220887184143e-01 3.2428374886512756e-01</leafValues></_>
        <_>
          <internalNodes>
            0 -1 10 7.3722889646887779e-03</internalNodes>
          <leafValues>
            -4.9070298671722412e-01 1.7271324992179871e-01</leafValues></_>
        <_>
          <internalNodes>
            0 -1 39 3.4030745737254620e-03</internalNodes>
          <leafValues>
            -5.8068388700485229e-01 1.6935509443283081e-01</leafValues></_>
        <_>
          <internalNodes>
            0 -1 45 -4.9576757010072470e-04</internalNodes>
          <leafValues>
            -7.7912658452987671e-01 9.8527483642101288e-02</leafValues></_>
        <_>
          <internalNodes>
            0 -1 7 -2.5848500430583954e-02</internalNodes>
          <leafValues>
            5.3502953052520752e-01 -1.8676999211311340e-01</leafValues></_>
        <_>
          <internalNodes>
            0 -1 64 -1.6743333253543824e-04</internalNodes>
          <leafValues>
            -8.3300846815109253e-01 8.9651420712471008e-02</leafValues></_>
        <_>
          <internalNodes>
            0 -1 122 -3.6357603967189789e-03</internalNodes>
          <leafValues>
            1.8208573758602142e-01 -4.0381151437759399e-01</leafValues></_>
        <_>
          <internalNodes>
            0 -1 9 6.4156077802181244e-02</internalNodes>
          <leafValues>
            1.0307596623897552e-01 -7.4885731935501099e-01</leafValues></_>
        <_>
          <internalNodes>
            0 -1 32 -3.2112188637256622e-02</internalNodes>
          <leafValues>
            -9.0433222055435181e-01 6.9944903254508972e-02</leafValues></_></weakClassifiers></_>
    <!-- stage 6 -->
    <_>
      <maxWeakCount>15</maxWeakCount>
      <stageThreshold>-1.6312043666839600e+00</stageThreshold>
      <weakClassifiers>
        <_>
          <internalNodes>
            0 -1 2 2.1774509921669960e-02</internalNodes>
          <leafValues>
            -5.9520238637924194e-01 1.9119119644165039e-01</leafValues></_>
        <_>
          <internalNodes>
            0 -1 61 -6.1596499290317297e-04</internalNodes>
          <leafValues>
            3.9391654729843140e-01 -3.7569430470466614e-01</leafValues></_>
        <_>
          <internalNodes>
            0 -1 96 2.0215394906699657e-03</internalNodes>
          <leafValues>
            -5.2494907379150391e-01 2.2192631661891937e-01</leafValues></_>
        <_>
          <internalNodes>
            0 -1 76 5.0770370289683342e-03</internalNodes>
          <leafValues>
            1.2892541289329529e-01 -7.3584502935409546e-01</leafValues></_>
        <_>
          <internalNodes>
            0 -1 80 -2.1773923072032630e-04</internalNodes>
          <leafValues>
            1.9736406207084656e-01 -5.7274591922760010e-01</leafValues></_>
        <_>
          <internalNodes>
            0 -1 132 -3.3428102731704712e-02</internalNodes>
          <leafValues>
            6.1114764213562012e-01 -1.8041688203811646e-01</leafValues></_>
        <_>
          <internalNodes>
            0 -1 100 3.0439142137765884e-03</internalNodes>
          <leafValues>
            1.2974211573600769e-01 -6.3619363307952881e-01</leafValues></_>
        <_>
          <internalNodes>
            0 -1 127 -7.5662473682314157e-04</internalNodes>
          <leafValues>
            2.3213717341423035e-01 -4.0705418586730957e-01</leafValues></_>
        <_>
          <internalNodes>
            0 -1 88 -7.6197771704755723e-05</internalNodes>
          <leafValues>
            -6.9719904661178589e-01 1.2618237733840942e-01</leafValues></_>
        <_>
          <internalNodes>
            0 -1 88 7.4848416261374950e-05</internalNodes>
          <leafValues>
            1.3471063971519470e-01 -5.9332072734832764e-01</leafValues></_>
        <_>
          <internalNodes>
            0 -1 42 -1.1324521154165268e-02</internalNodes>
          <leafValues>
            -7.9493498802185059e-01 6.9451093673706055e-02</leafValues></_>
        <_>
          <internalNodes>
            0 -1 77 -2.5914062280207872e-03</internalNodes>
          <leafValues>
            4.3701586127281189e-01 -1.7589037120342255e-01</leafValues></_>
        <_>
          <internalNodes>
            0 -1 103 -1.4631489757448435e-03</internalNodes>
          <leafValues>
            2.7289158105850220e-01 -2.8340795636177063e-01</leafValues></_>
        <_>
          <internalNodes>
            0 -1 59 -4.0756305679678917e-04</internalNodes>
          <leafValues>
            -7.1007525920867920e-01 1.1614223569631577e-01</leafValues></_>
        <_>
          <internalNodes>
            0 -1 58 5.3300411673262715e-04</internalNodes>
          <leafValues>
            1.2401794642210007e-01 -6.4286684989929199e-01</leafValues></_></weakClassifiers></_>
    <!-- stage 7 -->
    <_>
      <maxWeakCount>17</maxWeakCount>
      <stageThreshold>-1.5342447757720947e+00</stageThreshold>
      <weakClassifiers>
        <_>
          <internalNodes>
            0 -1 3 4.8187255859375000e-02</internalNodes>
          <leafValues>
            -5.8509564399719238e-01 1.5976330637931824e-01</leafValues></_>
        <_>
          <internalNodes>
            0 -1 25 2.5125013198703527e-03</internalNodes>
          <leafValues>
            -5.0340771675109863e-01 2.2603794932365417e-01</leafValues></_>
        <_>
          <internalNodes>
            0 -1 71 2.5461693294346333e-03</internalNodes>
          <leafValues>
            -5.3724449872970581e-01 1.8321448564529419e-01</leafValues></_>
        <_>
          <internalNodes>
            0 -1 117 5.7692620903253555e-03</internalNodes>
          <leafValues>
            -4.3782052397727966e-01 2.5213018059730530e-01</leafValues></_>
        <_>
          <internalNodes>
            0 -1 54 1.8680469656828791e-04</internalNodes>
          <leafValues>
            -2.9697057604789734e-01 2.9575163125991821e-01</leafValues></_>
        <_>
          <internalNodes>
            0 -1 79 9.4353337772190571e-04</internalNodes>
          <leafValues>
            1.3925264775753021e-01 -6.7804265022277832e-01</leafValues></_>
        <_>
          <internalNodes>
            0 -1 75 -3.1456918804906309e-04</internalNodes>
          <leafValues>
            -8.1110817193984985e-01 8.4654197096824646e-02</leafValues></_>
        <_>
          <internalNodes>
            0 -1 78 9.1497730463743210e-03</internalNodes>
          <leafValues>
            -2.7656295895576477e-01 2.5722408294677734e-01</leafValues></_>
        <_>
          <internalNodes>
            0 -1 28 -1.4039772795513272e-03</internalNodes>
          <leafValues>
            3.4588509798049927e-01 -2.2486968338489532e-01</leafValues></_>
        <_>
          <internalNodes>
            0 -1 81 -6.2072096625342965e-04</internalNodes>
          <leafValues>
            -7.8182983398437500e-01 8.9866928756237030e-02</leafValues></_>
        <_>
          <internalNodes>
            0 -1 14 9.3511790037155151e-03</internalNodes>
          <leafValues>
            -2.2368773818016052e-01 3.3849692344665527e-01</leafValues></_>
        <_>
          <internalNodes>
            0 -1 113 3.5579217365011573e-04</internalNodes>
          <leafValues>
            7.7733732759952545e-02 -7.4474638700485229e-01</leafValues></_>
        <_>
          <internalNodes>
            0 -1 107 -1.9645286374725401e-04</internalNodes>
          <leafValues>
            -7.5301343202590942e-01 7.9915523529052734e-02</leafValues></_>
        <_>
          <internalNodes>
            0 -1 126 2.5323890440631658e-05</internalNodes>
          <leafValues>
            -2.9656898975372314e-01 2.1922761201858521e-01</leafValues></_>
        <_>
          <internalNodes>
            0 -1 108 4.3563044164329767e-04</internalNodes>
          <leafValues>
            1.0319356620311737e-01 -6.9899082183837891e-01</leafValues></_>
        <_>
          <internalNodes>
            0 -1 67 3.2057652715593576e-03</internalNodes>
          <leafValues>
            -1.9734366238117218e-01 3.5663959383964539e-01</leafValues></_>
        <_>
          <internalNodes>
            0 -1 124 2.8914019931107759e-03</internalNodes>
          <leafValues>
            -1.8223574757575989e-01 3.8294038176536560e-01</leafValues></_></weakClassifiers></_>
    <!-- stage 8 -->
    <_>
      <maxWeakCount>21</maxWeakCount>
      <stageThreshold>-1.5267614126205444e+00</stageThreshold>
      <weakClassifiers>
        <_>
          <internalNodes>
            0 -1 35 -1.6872340347617865e-03</internalNodes>
          <leafValues>
            2.4889868497848511e-01 -5.8604204654693604e-01</leafValues></_>
        <_>
          <internalNodes>
            0 -1 69 -2.3026797920465469e-02</internalNodes>
          <leafValues>
            2.5118142366409302e-01 -4.7284942865371704e-01</leafValues></_>
        <_>
          <internalNodes>
            0 -1 5 1.8572565913200378e-01</internalNodes>
          <leafValues>
            -2.4879784882068634e-01 3.7931510806083679e-01</leafValues></_>
        <_>
          <internalNodes>
            0 -1 48 9.0999028179794550e-04</internalNodes>
          <leafValues>
            -4.0869432687759399e-01 2.1963897347450256e-01</leafValues></_>
        <_>
          <internalNodes>
            0 -1 33 1.0849402751773596e-03</internalNodes>
          <leafValues>
            -6.2117934226989746e-01 1.3853240013122559e-01</leafValues></_>
        <_>
          <internalNodes>
            0 -1 94 -6.7545712227001786e-04</internalNodes>
          <leafValues>
            1.7879408597946167e-01 -3.6506295204162598e-01</leafValues></_>
        <_>
          <internalNodes>
            0 -1 116 -8.3167329430580139e-03</internalNodes>
          <leafValues>
            -5.1868301630020142e-01 9.6470437943935394e-02</leafValues></_>
        <_>
          <internalNodes>
            0 -1 62 -7.6009839540347457e-04</internalNodes>
          <leafValues>
            -5.8626842498779297e-01 1.1205901950597763e-01</leafValues></_>
        <_>
          <internalNodes>
            0 -1 40 -7.8108592424541712e-04</internalNodes>
          <leafValues>
            4.8770666122436523e-01 -1.2868638336658478e-01</leafValues></_>
        <_>
          <internalNodes>
            0 -1 90 2.3268814402399585e-05</internalNodes>
          <leafValues>
            -4.2745313048362732e-01 1.4523217082023621e-01</leafValues></_>
        <_>
          <internalNodes>
            0 -1 118 -9.3216225504875183e-03</internalNodes>
          <leafValues>
            -5.1481419801712036e-01 1.5082986652851105e-01</leafValues></_>
        <_>
          <internalNodes>
            0 -1 51 6.2130775302648544e-02</internalNodes>
          <leafValues>
            7.7158302068710327e-02 -6.3784569501876831e-01</leafValues></_>
        <_>
          <internalNodes>
            0 -1 115 2.6444968534633517e-04</internalNodes>
          <leafValues>
            8.9727178215980530e-02 -7.3576331138610840e-01</leafValues></_>
        <_>
          <internalNodes>
            0 -1 115 -2.0686845527961850e-04</internalNodes>
          <leafValues>
            -5.6800776720046997e-01 1.0276997089385986e-01</leafValues></_>
        <_>
          <internalNodes>
            0 -1 20 -4.2530568316578865e-03</internalNodes>
          <leafValues>
            -5.7758641242980957e-01 1.1407712101936340e-01</leafValues></_>
        <_>
          <internalNodes>
            0 -1 123 1.0739322751760483e-03</internalNodes>
          <leafValues>
            -1.2973448634147644e-01 5.6090444326400757e-01</leafValues></_>
        <_>
          <internalNodes>
            0 -1 65 -7.3227039538323879e-03</internalNodes>
          <leafValues>
            -6.0493654012680054e-01 1.1706110835075378e-01</leafValues></_>
        <_>
          <internalNodes>
            0 -1 8 1.6664367169141769e-02</internalNodes>
          <leafValues>
            -4.1358613967895508e-01 1.5308637917041779e-01</leafValues></_>
        <_>
          <internalNodes>
            0 -1 23 -2.9422098398208618e-01</internalNodes>
          <leafValues>
            5.9968632459640503e-01 -1.1050573736429214e-01</leafValues></_>
        <_>
          <internalNodes>
            0 -1 121 9.3985125422477722e-03</internalNodes>
          <leafValues>
            -2.4601551890373230e-01 2.7364364266395569e-01</leafValues></_>
        <_>
          <internalNodes>
            0 -1 111 -1.2253252789378166e-02</internalNodes>
          <leafValues>
            -7.3289448022842407e-01 9.5304816961288452e-02</leafValues></_></weakClassifiers></_>
    <!-- stage 9 -->
    <_>
      <maxWeakCount>20</maxWeakCount>
      <stageThreshold>-1.5755259990692139e+00</stageThreshold>
      <weakClassifiers>
        <_>
          <internalNodes>
            0 -1 6 6.7607291042804718e-02</internalNodes>
          <leafValues>
            -5.2679741382598877e-01 2.9645389318466187e-01</leafValues></_>
        <_>
          <internalNodes>
            0 -1 101 -5.0705852918326855e-03</internalNodes>
          <leafValues>
            1.8416009843349457e-01 -5.5941355228424072e-01</leafValues></_>
        <_>
          <internalNodes>
            0 -1 57 1.7129499465227127e-03</internalNodes>
          <leafValues>
            -4.0694400668144226e-01 1.8573157489299774e-01</leafValues></_>
        <_>
          <internalNodes>
            0 -1 37 -4.2187573853880167e-04</internalNodes>
          <leafValues>
            2.8877142071723938e-01 -2.7754211425781250e-01</leafValues></_>
        <_>
          <internalNodes>
            0 -1 31 2.4772281904006377e-05</internalNodes>
          <leafValues>
            -5.4192757606506348e-01 1.4559312164783478e-01</leafValues></_>
        <_>
          <internalNodes>
            0 -1 110 8.5486099123954773e-03</internalNodes>
          <leafValues>
            -3.7368789315223694e-01 1.9661323726177216e-01</leafValues></_>
        <_>
          <internalNodes>
            0 -1 119 4.5936607057228684e-04</internalNodes>
          <leafValues>
            1.3856761157512665e-01 -6.0147905349731445e-01</leafValues></_>
        <_>
          <internalNodes>
            0 -1 18 -1.1206425260752439e-03</internalNodes>
          <leafValues>
            -5.8337950706481934e-01 1.0111095011234283e-01</leafValues></_>
        <_>
          <internalNodes>
            0 -1 56 6.9377850741147995e-04</internalNodes>
          <leafValues>
            8.3935998380184174e-02 -7.9340094327926636e-01</leafValues></_>
        <_>
          <internalNodes>
            0 -1 17 1.2901971116662025e-02</internalNodes>
          <leafValues>
            1.2244091182947159e-01 -6.0606801509857178e-01</leafValues></_>
        <_>
          <internalNodes>
            0 -1 109 -4.1221856372430921e-04</internalNodes>
          <leafValues>
            -7.1441942453384399e-01 5.3327538073062897e-02</leafValues></_>
        <_>
          <internalNodes>
            0 -1 84 -7.8511409810744226e-05</internalNodes>
          <leafValues>
            1.7605957388877869e-01 -3.5296976566314697e-01</leafValues></_>
        <_>
          <internalNodes>
            0 -1 19 -6.2099716160446405e-04</internalNodes>
          <leafValues>
            -6.8125879764556885e-01 9.3353904783725739e-02</leafValues></_>
        <_>
          <internalNodes>
            0 -1 99 -1.0207446757704020e-03</internalNodes>
          <leafValues>
            2.8815177083015442e-01 -2.2037470340728760e-01</leafValues></_>
        <_>
          <internalNodes>
            0 -1 74 2.0888801373075694e-04</internalNodes>
          <leafValues>
            9.4423927366733551e-02 -6.4256936311721802e-01</leafValues></_>
        <_>
          <internalNodes>
            0 -1 91 3.5620102426037192e-04</internalNodes>
          <leafValues>
            -2.3499166965484619e-01 2.6519444584846497e-01</leafValues></_>
        <_>
          <internalNodes>
            0 -1 92 2.0504887215793133e-03</internalNodes>
          <leafValues>
            -3.2748776674270630e-01 1.8590816855430603e-01</leafValues></_>
        <_>
          <internalNodes>
            0 -1 21 -1.0906057432293892e-02</internalNodes>
          <leafValues>
            1.6222226619720459e-01 -3.9120841026306152e-01</leafValues></_>
        <_>
          <internalNodes>
            0 -1 114 1.3154389336705208e-02</internalNodes>
          <leafValues>
            1.4700424671173096e-01 -4.0755990147590637e-01</leafValues></_>
        <_>
          <internalNodes>
            0 -1 27 1.4270253013819456e-03</internalNodes>
          <leafValues>
            6.9002658128738403e-02 -8.0190807580947876e-01</leafValues></_></weakClassifiers></_></stages>
  <features>
    <_>
      <rects>
        <_>
          0 0 14 37 -1.</_>
        <_>
          7 0 7 37 2.</_></rects>
      <tilted>0</tilted></_>
    <_>
      <rects>
        <_>
          0 0 48 48 -1.</_>
        <_>
          12 0 24 48 2.</_></rects>
      <tilted>0</tilted></_>
    <_>
      <rects>
        <_>
          0 1 16 9 -1.</_>
        <_>
          8 1 8 9 2.</_></rects>
      <tilted>0</tilted></_>
    <_>
      <rects>
        <_>
          0 1 48 5 -1.</_>
        <_>
          12 1 24 5 2.</_></rects>
      <tilted>0</tilted></_>
    <_>
      <rects>
        <_>
          0 1 48 8 -1.</_>
        <_>
          12 1 24 8 2.</_></rects>
      <tilted>0</tilted></_>
    <_>
      <rects>
        <_>
          0 2 48 35 -1.</_>
        <_>
          12 2 24 35 2.</_></rects>
      <tilted>0</tilted></_>
    <_>
      <rects>
        <_>
          0 3 48 5 -1.</_>
        <_>
          12 3 24 5 2.</_></rects>
      <tilted>0</tilted></_>
    <_>
      <rects>
        <_>
          0 7 10 38 -1.</_>
        <_>
          0 7 5 19 2.</_>
        <_>
          5 26 5 19 2.</_></rects>
      <tilted>0</tilted></_>
    <_>
      <rects>
        <_>
          0 12 16 21 -1.</_>
        <_>
          0 19 16 7 3.</_></rects>
      <tilted>0</tilted></_>
    <_>
      <rects>
        <_>
          0 13 42 6 -1.</_>
        <_>
          14 15 14 2 9.</_></rects>
      <tilted>0</tilted></_>
    <_>
      <rects>
        <_>
          0 15 42 6 -1.</_>
        <_>
          0 18 42 3 2.</_></rects>
      <tilted>0</tilted></_>
    <_>
      <rects>
        <_>
          0 30 48 16 -1.</_>
        <_>
          12 30 24 16 2.</_></rects>
      <tilted>0</tilted></_>
    <_>
      <rects>
        <_>
          1 0 12 21 -1.</_>
        <_>
          7 0 6 21 2.</_></rects>
      <tilted>0</tilted></_>
    <_>
      <rects>
        <_>
          1 4 20 12 -1.</_>
        <_>
          1 4 10 6 2.</_>
        <_>
          11 10 10 6 2.</_></rects>
      <tilted>0</tilted></_>
    <_>
      <rects>
        <_>
          1 18 10 10 -1.</_>
        <_>
          6 18 5 10 2.</_></rects>
      <tilted>0</tilted></_>
    <_>
      <rects>
        <_>
          1 31 44 15 -1.</_>
        <_>
          12 31 22 15 2.</_></rects>
      <tilted>0</tilted></_>
    <_>
      <rects>
        <_>
          2 11 15 12 -1.</_>
        <_>
          2 17 15 6 2.</_></rects>
      <tilted>0</tilted></_>
    <_>
      <rects>
        <_>
          2 13 8 8 -1.</_>
        <_>
          2 17 8 4 2.</_></rects>
      <tilted>0</tilted></_>
    <_>
      <rects>
        <_>
          2 15 8 8 -1.</_>
        <_>
          2 17 8 4 2.</_></rects>
      <tilted>0</tilted></_>
    <_>
      <rects>
        <_>
          3 4 6 3 -1.</_>
        <_>
          3 5 6 1 3.</_></rects>
      <tilted>0</tilted></_>
    <_>
      <rects>
        <_>
          3 10 4 12 -1.</_>
        <_>
          3 13 4 6 2.</_></rects>
      <tilted>0</tilted></_>
    <_>
      <rects>
        <_>
          3 19 41 22 -1.</_>
        <_>
          3 30 41 11 2.</_></rects>
      <tilted>0</tilted></_>
    <_>
      <rects>
        <_>
          5 14 16 6 -1.</_>
        <_>
          5 17 16 3 2.</_></rects>
      <tilted>0</tilted></_>
    <_>
      <rects>
        <_>
          6 5 40 43 -1.</_>
        <_>
          26 5 20 43 2.</_></rects>
      <tilted>0</tilted></_>
    <_>
      <rects>
        <_>
          6 8 34 38 -1.</_>
        <_>
          6 27 34 19 2.</_></rects>
      <tilted>0</tilted></_>
    <_>
      <rects>
        <_>
          6 14 10 4 -1.</_>
        <_>
          6 16 10 2 2.</_></rects>
      <tilted>0</tilted></_>
    <_>
      <rects>
        <_>
          8 0 27 12 -1.</_>
        <_>
          8 3 27 6 2.</_></rects>
      <tilted>0</tilted></_>
    <_>
      <rects>
        <_>
          9 0 6 3 -1.</_>
        <_>
          8 1 6 1 3.</_></rects>
      <tilted>1</tilted></_>
    <_>
      <rects>
        <_>
          9 9 20 2 -1.</_>
        <_>
          9 10 20 1 2.</_></rects>
      <tilted>0</tilted></_>
    <_>
      <rects>
        <_>
          9 10 22 9 -1.</_>
        <_>
          9 13 22 3 3.</_></rects>
      <tilted>0</tilted></_>
    <_>
      <rects>
        <_>
          9 14 5 10 -1.</_>
        <_>
          9 19 5 5 2.</_></rects>
      <tilted>0</tilted></_>
    <_>
      <rects>
        <_>
          9 14 26 1 -1.</_>
        <_>
          22 14 13 1 2.</_></rects>
      <tilted>0</tilted></_>
    <_>
      <rects>
        <_>
          10 5 12 20 -1.</_>
        <_>
          10 15 12 10 2.</_></rects>
      <tilted>0</tilted></_>
    <_>
      <rects>
        <_>
          10 8 16 12 -1.</_>
        <_>
          18 8 8 12 2.</_></rects>
      <tilted>0</tilted></_>
    <_>
      <rects>
        <_>
          10 11 30 21 -1.</_>
        <_>
          10 18 30 7 3.</_></rects>
      <tilted>0</tilted></_>
    <_>
      <rects>
        <_>
          10 12 6 4 -1.</_>
        <_>
          10 13 6 2 2.</_></rects>
      <tilted>0</tilted></_>
    <_>
      <rects>
        <_>
          10 12 8 4 -1.</_>
        <_>
          10 13 8 2 2.</_></rects>
      <tilted>0</tilted></_>
    <_>
      <rects>
        <_>
          10 14 9 1 -1.</_>
        <_>
          13 14 3 1 3.</_></rects>
      <tilted>0</tilted></_>
    <_>
      <rects>
        <_>
          10 15 2 4 -1.</_>
        <_>
          10 17 2 2 2.</_></rects>
      <tilted>0</tilted></_>
    <_>
      <rects>
        <_>
          11 8 24 10 -1.</_>
        <_>
          17 8 12 10 2.</_></rects>
      <tilted>0</tilted></_>
    <_>
      <rects>
        <_>
          11 9 5 4 -1.</_>
        <_>
          11 10 5 2 2.</_></rects>
      <tilted>0</tilted></_>
    <_>
      <rects>
        <_>
          11 11 3 16 -1.</_>
        <_>
          11 19 3 8 2.</_></rects>
      <tilted>0</tilted></_>
    <_>
      <rects>
        <_>
          11 12 32 7 -1.</_>
        <_>
          19 12 16 7 2.</_></rects>
      <tilted>0</tilted></_>
    <_>
      <rects>
        <_>
          11 14 16 1 -1.</_>
        <_>
          19 14 8 1 2.</_></rects>
      <tilted>0</tilted></_>
    <_>
      <rects>
        <_>
          12 5 3 5 -1.</_>
        <_>
          13 5 1 5 3.</_></rects>
      <tilted>0</tilted></_>
    <_>
      <rects>
        <_>
          12 7 4 4 -1.</_>
        <_>
          13 7 2 4 2.</_></rects>
      <tilted>0</tilted></_>
    <_>
      <rects>
        <_>
          12 12 2 2 -1.</_>
        <_>
          12 13 2 1 2.</_></rects>
      <tilted>0</tilted></_>
    <_>
      <rects>
        <_>
          12 13 4 8 -1.</_>
        <_>
          12 17 4 4 2.</_></rects>
      <tilted>0</tilted></_>
    <_>
      <rects>
        <_>
          12 17 12 3 -1.</_>
        <_>
          12 17 6 3 2.</_></rects>
      <tilted>1</tilted></_>
    <_>
      <rects>
        <_>
          12 22 4 10 -1.</_>
        <_>
          12 27 4 5 2.</_></rects>
      <tilted>0</tilted></_>
    <_>
      <rects>
        <_>
          13 3 3 9 -1.</_>
        <_>
          14 3 1 9 3.</_></rects>
      <tilted>0</tilted></_>
    <_>
      <rects>
        <_>
          13 6 30 26 -1.</_>
        <_>
          13 6 15 13 2.</_>
        <_>
          28 19 15 13 2.</_></rects>
      <tilted>0</tilted></_>
    <_>
      <rects>
        <_>
          13 8 17 12 -1.</_>
        <_>
          13 12 17 4 3.</_></rects>
      <tilted>0</tilted></_>
    <_>
      <rects>
        <_>
          13 10 19 34 -1.</_>
        <_>
          13 27 19 17 2.</_></rects>
      <tilted>0</tilted></_>
    <_>
      <rects>
        <_>
          13 12 2 1 -1.</_>
        <_>
          13 12 1 1 2.</_></rects>
      <tilted>1</tilted></_>
    <_>
      <rects>
        <_>
          13 14 10 4 -1.</_>
        <_>
          13 16 10 2 2.</_></rects>
      <tilted>0</tilted></_>
    <_>
      <rects>
        <_>
          13 16 3 8 -1.</_>
        <_>
          14 16 1 8 3.</_></rects>
      <tilted>0</tilted></_>
    <_>
      <rects>
        <_>
          13 18 10 4 -1.</_>
        <_>
          13 18 5 4 2.</_></rects>
      <tilted>1</tilted></_>
    <_>
      <rects>
        <_>
          14 1 4 12 -1.</_>
        <_>
          15 1 2 12 2.</_></rects>
      <tilted>0</tilted></_>
    <_>
      <rects>
        <_>
          14 3 4 5 -1.</_>
        <_>
          15 3 2 5 2.</_></rects>
      <tilted>0</tilted></_>
    <_>
      <rects>
        <_>
          14 11 1 4 -1.</_>
        <_>
          14 13 1 2 2.</_></rects>
      <tilted>0</tilted></_>
    <_>
      <rects>
        <_>
          14 12 4 1 -1.</_>
        <_>
          15 13 2 1 2.</_></rects>
      <tilted>1</tilted></_>
    <_>
      <rects>
        <_>
          15 6 2 16 -1.</_>
        <_>
          15 6 1 8 2.</_>
        <_>
          16 14 1 8 2.</_></rects>
      <tilted>0</tilted></_>
    <_>
      <rects>
        <_>
          15 7 8 10 -1.</_>
        <_>
          17 9 4 10 2.</_></rects>
      <tilted>1</tilted></_>
    <_>
      <rects>
        <_>
          15 8 3 1 -1.</_>
        <_>
          16 8 1 1 3.</_></rects>
      <tilted>0</tilted></_>
    <_>
      <rects>
        <_>
          15 10 10 4 -1.</_>
        <_>
          15 10 10 2 2.</_></rects>
      <tilted>1</tilted></_>
    <_>
      <rects>
        <_>
          16 7 9 1 -1.</_>
        <_>
          19 7 3 1 3.</_></rects>
      <tilted>0</tilted></_>
    <_>
      <rects>
        <_>
          16 35 18 8 -1.</_>
        <_>
          16 37 18 4 2.</_></rects>
      <tilted>0</tilted></_>
    <_>
      <rects>
        <_>
          17 4 11 12 -1.</_>
        <_>
          13 8 11 4 3.</_></rects>
      <tilted>1</tilted></_>
    <_>
      <rects>
        <_>
          17 6 22 15 -1.</_>
        <_>
          17 11 22 5 3.</_></rects>
      <tilted>0</tilted></_>
    <_>
      <rects>
        <_>
          17 7 3 1 -1.</_>
        <_>
          18 7 1 1 3.</_></rects>
      <tilted>0</tilted></_>
    <_>
      <rects>
        <_>
          17 8 8 7 -1.</_>
        <_>
          21 8 4 7 2.</_></rects>
      <tilted>0</tilted></_>
    <_>
      <rects>
        <_>
          17 11 8 3 -1.</_>
        <_>
          21 11 4 3 2.</_></rects>
      <tilted>0</tilted></_>
    <_>
      <rects>
        <_>
          17 19 27 12 -1.</_>
        <_>
          17 25 27 6 2.</_></rects>
      <tilted>0</tilted></_>
    <_>
      <rects>
        <_>
          18 7 3 2 -1.</_>
        <_>
          19 7 1 2 3.</_></rects>
      <tilted>0</tilted></_>
    <_>
      <rects>
        <_>
          18 7 3 3 -1.</_>
        <_>
          19 7 1 3 3.</_></rects>
      <tilted>0</tilted></_>
    <_>
      <rects>
        <_>
          18 11 18 4 -1.</_>
        <_>
          27 11 9 4 2.</_></rects>
      <tilted>0</tilted></_>
    <_>
      <rects>
        <_>
          18 12 8 11 -1.</_>
        <_>
          20 12 4 11 2.</_></rects>
      <tilted>0</tilted></_>
    <_>
      <rects>
        <_>
          18 13 12 11 -1.</_>
        <_>
          22 13 4 11 3.</_></rects>
      <tilted>0</tilted></_>
    <_>
      <rects>
        <_>
          18 15 2 4 -1.</_>
        <_>
          17 16 2 2 2.</_></rects>
      <tilted>1</tilted></_>
    <_>
      <rects>
        <_>
          18 15 3 4 -1.</_>
        <_>
          18 15 3 2 2.</_></rects>
      <tilted>1</tilted></_>
    <_>
      <rects>
        <_>
          18 17 2 3 -1.</_>
        <_>
          17 18 2 1 3.</_></rects>
      <tilted>1</tilted></_>
    <_>
      <rects>
        <_>
          18 31 6 6 -1.</_>
        <_>
          18 33 6 2 3.</_></rects>
      <tilted>0</tilted></_>
    <_>
      <rects>
        <_>
          19 11 6 8 -1.</_>
        <_>
          22 11 3 8 2.</_></rects>
      <tilted>0</tilted></_>
    <_>
      <rects>
        <_>
          19 16 2 2 -1.</_>
        <_>
          19 16 2 1 2.</_></rects>
      <tilted>1</tilted></_>
    <_>
      <rects>
        <_>
          20 8 4 11 -1.</_>
        <_>
          22 8 2 11 2.</_></rects>
      <tilted>0</tilted></_>
    <_>
      <rects>
        <_>
          20 9 9 16 -1.</_>
        <_>
          23 9 3 16 3.</_></rects>
      <tilted>0</tilted></_>
    <_>
      <rects>
        <_>
          20 12 9 9 -1.</_>
        <_>
          23 12 3 9 3.</_></rects>
      <tilted>0</tilted></_>
    <_>
      <rects>
        <_>
          21 4 3 1 -1.</_>
        <_>
          22 4 1 1 3.</_></rects>
      <tilted>0</tilted></_>
    <_>
      <rects>
        <_>
          21 5 5 12 -1.</_>
        <_>
          18 8 5 6 2.</_></rects>
      <tilted>1</tilted></_>
    <_>
      <rects>
        <_>
          21 11 2 2 -1.</_>
        <_>
          22 11 1 2 2.</_></rects>
      <tilted>0</tilted></_>
    <_>
      <rects>
        <_>
          21 17 4 3 -1.</_>
        <_>
          23 17 2 3 2.</_></rects>
      <tilted>0</tilted></_>
    <_>
      <rects>
        <_>
          22 1 5 8 -1.</_>
        <_>
          20 3 5 4 2.</_></rects>
      <tilted>1</tilted></_>
    <_>
      <rects>
        <_>
          22 11 16 16 -1.</_>
        <_>
          22 11 8 8 2.</_>
        <_>
          30 19 8 8 2.</_></rects>
      <tilted>0</tilted></_>
    <_>
      <rects>
        <_>
          22 12 4 6 -1.</_>
        <_>
          20 14 4 2 3.</_></rects>
      <tilted>1</tilted></_>
    <_>
      <rects>
        <_>
          23 1 3 7 -1.</_>
        <_>
          24 1 1 7 3.</_></rects>
      <tilted>0</tilted></_>
    <_>
      <rects>
        <_>
          23 8 2 6 -1.</_>
        <_>
          23 8 2 3 2.</_></rects>
      <tilted>1</tilted></_>
    <_>
      <rects>
        <_>
          23 8 12 7 -1.</_>
        <_>
          29 8 6 7 2.</_></rects>
      <tilted>0</tilted></_>
    <_>
      <rects>
        <_>
          23 10 10 6 -1.</_>
        <_>
          28 10 5 6 2.</_></rects>
      <tilted>0</tilted></_>
    <_>
      <rects>
        <_>
          23 11 4 6 -1.</_>
        <_>
          25 11 2 6 2.</_></rects>
      <tilted>0</tilted></_>
    <_>
      <rects>
        <_>
          23 12 2 18 -1.</_>
        <_>
          23 21 2 9 2.</_></rects>
      <tilted>0</tilted></_>
    <_>
      <rects>
        <_>
          24 4 10 14 -1.</_>
        <_>
          29 4 5 14 2.</_></rects>
      <tilted>0</tilted></_>
    <_>
      <rects>
        <_>
          24 8 1 6 -1.</_>
        <_>
          24 8 1 3 2.</_></rects>
      <tilted>1</tilted></_>
    <_>
      <rects>
        <_>
          24 9 4 12 -1.</_>
        <_>
          26 9 2 12 2.</_></rects>
      <tilted>0</tilted></_>
    <_>
      <rects>
        <_>
          24 11 6 5 -1.</_>
        <_>
          27 11 3 5 2.</_></rects>
      <tilted>0</tilted></_>
    <_>
      <rects>
        <_>
          24 11 6 6 -1.</_>
        <_>
          27 11 3 6 2.</_></rects>
      <tilted>0</tilted></_>
    <_>
      <rects>
        <_>
          25 5 3 2 -1.</_>
        <_>
          26 5 1 2 3.</_></rects>
      <tilted>0</tilted></_>
    <_>
      <rects>
        <_>
          25 15 1 3 -1.</_>
        <_>
          25 16 1 1 3.</_></rects>
      <tilted>0</tilted></_>
    <_>
      <rects>
        <_>
          25 15 2 4 -1.</_>
        <_>
          25 16 2 2 2.</_></rects>
      <tilted>0</tilted></_>
    <_>
      <rects>
        <_>
          26 36 3 6 -1.</_>
        <_>
          27 36 1 6 3.</_></rects>
      <tilted>0</tilted></_>
    <_>
      <rects>
        <_>
          27 0 18 22 -1.</_>
        <_>
          27 0 9 11 2.</_>
        <_>
          36 11 9 11 2.</_></rects>
      <tilted>0</tilted></_>
    <_>
      <rects>
        <_>
          27 9 3 36 -1.</_>
        <_>
          27 18 3 18 2.</_></rects>
      <tilted>0</tilted></_>
    <_>
      <rects>
        <_>
          28 2 16 7 -1.</_>
        <_>
          32 6 8 7 2.</_></rects>
      <tilted>1</tilted></_>
    <_>
      <rects>
        <_>
          28 8 4 3 -1.</_>
        <_>
          29 8 2 3 2.</_></rects>
      <tilted>0</tilted></_>
    <_>
      <rects>
        <_>
          28 9 15 14 -1.</_>
        <_>
          33 14 5 14 3.</_></rects>
      <tilted>1</tilted></_>
    <_>
      <rects>
        <_>
          29 0 3 4 -1.</_>
        <_>
          30 0 1 4 3.</_></rects>
      <tilted>0</tilted></_>
    <_>
      <rects>
        <_>
          29 11 10 17 -1.</_>
        <_>
          34 11 5 17 2.</_></rects>
      <tilted>0</tilted></_>
    <_>
      <rects>
        <_>
          31 12 8 20 -1.</_>
        <_>
          31 17 8 10 2.</_></rects>
      <tilted>0</tilted></_>
    <_>
      <rects>
        <_>
          32 8 15 20 -1.</_>
        <_>
          32 18 15 10 2.</_></rects>
      <tilted>0</tilted></_>
    <_>
      <rects>
        <_>
          33 1 3 10 -1.</_>
        <_>
          34 1 1 10 3.</_></rects>
      <tilted>0</tilted></_>
    <_>
      <rects>
        <_>
          33 1 8 16 -1.</_>
        <_>
          33 1 4 8 2.</_>
        <_>
          37 9 4 8 2.</_></rects>
      <tilted>0</tilted></_>
    <_>
      <rects>
        <_>
          33 2 14 16 -1.</_>
        <_>
          33 2 7 8 2.</_>
        <_>
          40 10 7 8 2.</_></rects>
      <tilted>0</tilted></_>
    <_>
      <rects>
        <_>
          33 3 12 26 -1.</_>
        <_>
          36 6 6 26 2.</_></rects>
      <tilted>1</tilted></_>
    <_>
      <rects>
        <_>
          33 9 5 4 -1.</_>
        <_>
          33 10 5 2 2.</_></rects>
      <tilted>0</tilted></_>
    <_>
      <rects>
        <_>
          33 26 6 7 -1.</_>
        <_>
          35 28 2 7 3.</_></rects>
      <tilted>1</tilted></_>
    <_>
      <rects>
        <_>
          34 1 14 35 -1.</_>
        <_>
          41 1 7 35 2.</_></rects>
      <tilted>0</tilted></_>
    <_>
      <rects>
        <_>
          34 13 2 4 -1.</_>
        <_>
          35 13 1 4 2.</_></rects>
      <tilted>0</tilted></_>
    <_>
      <rects>
        <_>
          35 14 4 6 -1.</_>
        <_>
          35 14 2 6 2.</_></rects>
      <tilted>1</tilted></_>
    <_>
      <rects>
        <_>
          36 5 12 25 -1.</_>
        <_>
          42 5 6 25 2.</_></rects>
      <tilted>0</tilted></_>
    <_>
      <rects>
        <_>
          36 12 10 15 -1.</_>
        <_>
          36 17 10 5 3.</_></rects>
      <tilted>0</tilted></_>
    <_>
      <rects>
        <_>
          36 18 12 10 -1.</_>
        <_>
          39 21 6 10 2.</_></rects>
      <tilted>1</tilted></_>
    <_>
      <rects>
        <_>
          37 12 6 2 -1.</_>
        <_>
          40 12 3 2 2.</_></rects>
      <tilted>0</tilted></_>
    <_>
      <rects>
        <_>
          38 5 10 27 -1.</_>
        <_>
          43 5 5 27 2.</_></rects>
      <tilted>0</tilted></_>
    <_>
      <rects>
        <_>
          46 4 2 8 -1.</_>
        <_>
          46 4 2 4 2.</_></rects>
      <tilted>1</tilted></_></features></cascade>
</opencv_storage>
