<?xml version="1.0"?>
<opencv_storage>
<cascade>
  <stageType>BOOST</stageType>
  <featureType>HAAR</featureType>
  <height>48</height>
  <width>48</width>
  <stageParams>
    <boostType>GAB</boostType>
    <minHitRate>9.9500000476837158e-01</minHitRate>
    <maxFalseAlarm>5.0000000000000000e-01</maxFalseAlarm>
    <weightTrimRate>9.4999999999999996e-01</weightTrimRate>
    <maxDepth>4</maxDepth>
    <maxWeakCount>100</maxWeakCount></stageParams>
  <featureParams>
    <maxCatCount>0</maxCatCount>
    <featSize>1</featSize>
    <mode>BASIC</mode></featureParams>
  <stageNum>10</stageNum>
  <stages>
    <!-- stage 0 -->
    <_>
      <maxWeakCount>2</maxWeakCount>
      <stageThreshold>-1.0984085798263550e+00</stageThreshold>
      <weakClassifiers>
        <_>
          <internalNodes>
            1 2 168 3.1401282176375389e-03 3 4 110
            -5.4532654583454132e-02 5 6 269 -4.6221734955906868e-03 7 8
            154 8.4263328462839127e-03 9 10 18 1.7314010858535767e-01 11
            12 179 2.5159283541142941e-03 13 14 117
            2.2281903773546219e-02 0 -1 64 1.8114337697625160e-02 -2 -3
            219 -4.0460969321429729e-03 -4 -5 127 5.7549457997083664e-02
            -6 -7 81 1.0156152769923210e-02 -8 -9 188
            2.5119855999946594e-03 -10 -11 169 -5.6411512196063995e-04
            -12 -13 47 9.1433655470609665e-03 -14 -15 85
            -2.6132529601454735e-03</internalNodes>
          <leafValues>
            -9.3388432264328003e-01 1. 8.1481480598449707e-01 -1.
            -9.6792817115783691e-01 1. -8.8888889551162720e-01
            7.7777779102325439e-01 9.6034693717956543e-01 -1. 1. -1.
            -3.6633664369583130e-01 7.6271188259124756e-01
            2.0000000298023224e-01 -9.8709678649902344e-01</leafValues></_>
        <_>
          <internalNodes>
            1 2 222 2.6511293835937977e-03 3 4 137
            -3.5495604388415813e-03 5 6 278 -6.2052165158092976e-03 7 8
            74 -1.9444614648818970e-02 9 10 87 -1.7360579222440720e-02
            11 12 153 -1.4693193137645721e-02 13 14 23
            -3.2224308699369431e-02 0 -1 2 4.1710112243890762e-02 -2 -3
            189 1.2306137068662792e-04 -4 -5 39 5.3128805011510849e-03
            -6 -7 195 -2.2389786317944527e-02 -8 -9 61
            1.7938040196895599e-02 -10 -11 214 6.5573642496019602e-04
            -12 -13 158 7.1269706822931767e-03 -14 -15 368
            -2.3699782788753510e-02</internalNodes>
          <leafValues>
            -1. 1. -6.5783447027206421e-01 7.7364891767501831e-01 -1.
            9.5120269060134888e-01 -1.6452433168888092e-01
            -9.5499902963638306e-01 -9.6664100885391235e-01 1.
            9.2249011993408203e-01 -7.6522415876388550e-01
            -9.1936606168746948e-01 6.5519797801971436e-01
            2.9056742787361145e-01 -9.6564769744873047e-01</leafValues></_></weakClassifiers></_>
    <!-- stage 1 -->
    <_>
      <maxWeakCount>2</maxWeakCount>
      <stageThreshold>-1.6005553007125854e+00</stageThreshold>
      <weakClassifiers>
        <_>
          <internalNodes>
            1 2 6 2.8220273554325104e-02 3 4 236 7.6108756475150585e-03
            5 6 180 -7.7193221077322960e-03 7 8 48
            9.9486403167247772e-02 9 10 58 -5.7457141578197479e-02 11 12
            199 4.9432426691055298e-02 13 14 41 3.4581281244754791e-02 0
            -1 252 1.4238068833947182e-02 -2 -3 119
            -1.0492000728845596e-03 -4 -5 33 -6.3048535957932472e-03 -6
            -7 76 7.6044360175728798e-03 -8 -9 212
            -9.1520976275205612e-03 -10 -11 8 1.5538293123245239e-01 -12
            -13 44 -1.0832020640373230e-01 -14 -15 330
            -1.6666457522660494e-03</internalNodes>
          <leafValues>
            -9.3739968538284302e-01 -5.2380955219268799e-01
            8.2608693838119507e-01 -6.3636362552642822e-01
            7.0909088850021362e-01 -7.6190477609634399e-01
            -9.3430656194686890e-01 -2.4444444477558136e-01
            -8.5714286565780640e-01 9.3898302316665649e-01 -1. 1. 1.
            -8.4375000000000000e-01 9.3548387289047241e-01
            -6.8421053886413574e-01</leafValues></_>
        <_>
          <internalNodes>
            1 2 311 -1.4275782741606236e-02 3 4 281
            -1.0491475695744157e-03 5 6 215 -4.2479336261749268e-03 7 8
            134 -9.0686086332425475e-04 9 10 268 -9.1322567313909531e-03
            11 12 282 -2.6986408047378063e-03 13 14 99
            -4.9125000834465027e-02 0 -1 201 6.0698148445226252e-05 -2
            -3 292 4.8028066754341125e-02 -4 -5 84
            -1.7558880150318146e-02 -6 -7 297 -5.6289280764758587e-03 -8
            -9 190 3.1644682167097926e-04 -10 -11 274
            -8.5335373878479004e-03 -12 -13 139 -2.4708607234060764e-03
            -14 -15 100 -2.1283030509948730e-02</internalNodes>
          <leafValues>
            -6.1775249242782593e-01 8.8164693117141724e-01
            -9.5880669355392456e-01 9.2376935482025146e-01 -1. 1.
            7.7798104286193848e-01 -9.0591758489608765e-01
            -6.6315555572509766e-01 4.5929130911827087e-01
            1.7357461154460907e-01 -8.3538675308227539e-01
            3.5447126626968384e-01 -7.7534663677215576e-01
            5.7639080286026001e-01 -9.3177324533462524e-01</leafValues></_></weakClassifiers></_>
    <!-- stage 2 -->
    <_>
      <maxWeakCount>2</maxWeakCount>
      <stageThreshold>-1.7094608545303345e+00</stageThreshold>
      <weakClassifiers>
        <_>
          <internalNodes>
            1 2 147 -3.5818307660520077e-03 3 4 177
            2.2098287940025330e-02 5 6 101 3.2086461782455444e-02 7 8 52
            8.5508465766906738e-02 9 10 182 1.0867520468309522e-03 11 12
            295 -6.4681202173233032e-02 13 14 159 1.6371128149330616e-03
            0 -1 95 -1.8394116312265396e-02 -2 -3 313
            -2.8606064151972532e-03 -4 -5 20 -4.8833854496479034e-02 -6
            -7 57 1.2027944903820753e-03 -8 -9 78 1.0671027703210711e-03
            -10 -11 66 3.3764738589525223e-02 -12 -13 7
            1.6155427694320679e-01 -14 -15 255 7.5932207982987165e-04</internalNodes>
          <leafValues>
            2.2222222387790680e-01 -7.8451180458068848e-01
            -8.4615385532379150e-01 8.3673471212387085e-01 1.
            -8.6956518888473511e-01 9.2907804250717163e-01
            -3.4782609343528748e-01 -1. 1. -8.6539870500564575e-01
            -2.7027027681469917e-02 -9.0909093618392944e-01
            7.1428573131561279e-01 -6.2616825103759766e-01
            5.1091700792312622e-01</leafValues></_>
        <_>
          <internalNodes>
            1 2 345 2.4535863194614649e-03 3 4 343
            7.8872829908505082e-04 5 6 118 5.4949778132140636e-04 7 8
            128 -5.2450466901063919e-03 9 10 200 -2.0916995708830655e-04
            11 12 54 2.3627774789929390e-03 13 14 221
            2.3169538471847773e-03 0 -1 341 -6.9706202484667301e-03 -2
            -3 331 -1.8288493156433105e-02 -4 -5 319
            6.9365909439511597e-05 -6 -7 337 -1.1819809675216675e-02 -8
            -9 251 -6.9179368438199162e-05 -10 -11 30
            -1.5464378520846367e-02 -12 -13 349 -8.7653798982501030e-03
            -14 -15 348 -9.5670018345117569e-04</internalNodes>
          <leafValues>
            8.1152617931365967e-01 -7.8472185134887695e-01
            8.7986069917678833e-01 -8.5908418893814087e-01
            5.8497899770736694e-01 -7.4483489990234375e-01
            2.4221809208393097e-01 -8.6687856912612915e-01
            4.9933552742004395e-01 -5.6677615642547607e-01 1.
            -9.7253930568695068e-01 4.9718633294105530e-01
            -8.4406220912933350e-01 -5.7689291238784790e-01
            7.8280508518218994e-01</leafValues></_></weakClassifiers></_>
    <!-- stage 3 -->
    <_>
      <maxWeakCount>2</maxWeakCount>
      <stageThreshold>-1.4960607290267944e+00</stageThreshold>
      <weakClassifiers>
        <_>
          <internalNodes>
            1 2 16 9.3346551060676575e-02 3 4 163
            -5.9147614985704422e-02 5 6 104 2.8130891732871532e-03 7 8
            186 1.6214508563280106e-02 9 10 205 1.5193265862762928e-03
            11 12 140 1.5367897227406502e-02 13 14 197
            1.5938556753098965e-03 0 -1 86 -4.2114749550819397e-02 -2 -3
            21 -2.0148050971329212e-03 -4 -5 286 -9.6038341522216797e-02
            -6 -7 170 2.3796530440449715e-03 -8 -9 207
            7.7785463072359562e-03 -10 -11 363 9.2024374753236771e-03
            -12 -13 296 4.6486626379191875e-03 -14 -15 107
            2.2847843356430531e-03</internalNodes>
          <leafValues>
            2.0000000298023224e-01 -8.9166665077209473e-01
            6.4485979080200195e-01 -8.0952382087707520e-01
            6.6666668653488159e-01 -9.0980833768844604e-01
            -8.2038837671279907e-01 -3.4586465358734131e-01
            -9.2207789421081543e-01 7.1428573131561279e-01
            -8.1818181276321411e-01 5.0877195596694946e-01
            8.8927334547042847e-01 -4.7826087474822998e-01
            -9.4999998807907104e-01 6.3636362552642822e-01</leafValues></_>
        <_>
          <internalNodes>
            1 2 321 -1.5397728420794010e-02 3 4 176
            -3.9482288062572479e-02 5 6 307 3.8085973937995732e-04 7 8
            335 8.0194724723696709e-03 9 10 367 -1.8533677211962640e-04
            11 12 328 9.4570661894977093e-04 13 14 359
            -3.6817312240600586e-02 0 -1 209 3.1805923208594322e-03 -2
            -3 0 -2.3572660575155169e-04 -4 -5 9 1.4010372757911682e-01
            -6 -7 132 9.8135089501738548e-04 -8 -9 324
            -8.9366719126701355e-02 -10 -11 162 4.7200114931911230e-04
            -12 -13 51 5.3154289722442627e-02 -14 -15 301
            7.2373263537883759e-02</internalNodes>
          <leafValues>
            -9.3710309267044067e-01 8.1398737430572510e-01 -1. 1. -1. 1.
            8.5760873556137085e-01 -4.3555670976638794e-01
            4.6516457200050354e-01 -6.7567241191864014e-01
            2.2453807294368744e-01 -9.3985337018966675e-01 -1. 1.
            -9.5534491539001465e-01 1.</leafValues></_></weakClassifiers></_>
    <!-- stage 4 -->
    <_>
      <maxWeakCount>3</maxWeakCount>
      <stageThreshold>-1.2917079925537109e+00</stageThreshold>
      <weakClassifiers>
        <_>
          <internalNodes>
            1 2 17 2.5760464370250702e-02 3 4 181
            -6.4734350889921188e-03 5 6 249 2.5183099787682295e-03 7 8
            342 7.1127689443528652e-04 9 10 73 -2.4062050506472588e-03
            11 12 308 -2.3936335928738117e-03 13 14 187
            8.0522074131295085e-04 0 -1 67 2.0412486046552658e-02 -2 -3
            280 2.2362845484167337e-03 -4 -5 32 3.0966952443122864e-02
            -6 -7 364 -3.0652064830064774e-02 -8 -9 149
            -8.4502207755576819e-05 -10 -11 121 -3.9630979299545288e-02
            -12 -13 305 1.1686071753501892e-02 -14 -15 287
            -3.6994093097746372e-03</internalNodes>
          <leafValues>
            -7.8125000000000000e-01 7.1428573131561279e-01
            4.1044774651527405e-01 -8.5964912176132202e-01
            -6.5156793594360352e-01 1.9512194395065308e-01
            -7.6923079788684845e-02 -8.9473682641983032e-01
            3.3333334326744080e-01 -7.0491802692413330e-01
            3.3333334326744080e-01 -9.8076921701431274e-01
            -9.6491229534149170e-01 2.2222222387790680e-01
            -7.5000000000000000e-01 9.2132502794265747e-01</leafValues></_>
        <_>
          <internalNodes>
            1 2 183 -8.5529759526252747e-03 3 4 261
            -2.8465487994253635e-03 5 6 272 -2.3169829510152340e-03 7 8
            229 1.6951817087829113e-03 9 10 265 -6.6943042911589146e-03
            11 12 105 5.7024210691452026e-03 13 14 309
            2.3154992610216141e-02 0 -1 111 -1.9109286367893219e-02 -2
            -3 211 4.7762520262040198e-04 -4 -5 60
            -2.9648300260305405e-02 -6 -7 10 1.1856299638748169e-01 -8
            -9 208 -1.9942082464694977e-02 -10 -11 142
            4.3411657679826021e-04 -12 -13 62 2.2740572690963745e-02 -14
            -15 240 2.3889233489171602e-05</internalNodes>
          <leafValues>
            3.8752463459968567e-01 -8.3378928899765015e-01
            6.5647298097610474e-01 -5.2153193950653076e-01
            9.0152096748352051e-01 -7.9369348287582397e-01
            -8.5706841945648193e-01 2.1008068323135376e-01 1.
            -8.5479366779327393e-01 8.3344841003417969e-01
            -7.7827316522598267e-01 -7.4479585886001587e-01
            9.1494733095169067e-01 8.6159890890121460e-01 -1.</leafValues></_>
        <_>
          <internalNodes>
            1 2 29 1.9388905493542552e-03 3 4 315 9.0978145599365234e-02
            5 6 196 -1.0700866550905630e-04 7 8 34
            -1.1022840440273285e-01 0 9 172 -9.9162310361862183e-03 10
            11 365 -4.0121298283338547e-02 12 13 194
            5.1449227612465620e-04 -1 -2 230 -8.6884232587181032e-05 -3
            -4 266 -1.1919942684471607e-02 -5 -6 31
            -4.7256089746952057e-03 -7 -8 5 -1.5232915757223964e-05 -9
            -10 103 -1.6770400106906891e-02 -11 -12 262
            2.9698081314563751e-02 -13 -14 92 3.0771277844905853e-02</internalNodes>
          <leafValues>
            -1. 7.6957339048385620e-01 -6.6907858848571777e-01
            6.2389713525772095e-01 -7.6913440227508545e-01 -1. 1. -1. 1.
            8.5248976945877075e-01 -9.1823601722717285e-01
            5.3549420833587646e-01 -2.9269406199455261e-01
            -7.9798030853271484e-01 4.4020769000053406e-01</leafValues></_></weakClassifiers></_>
    <!-- stage 5 -->
    <_>
      <maxWeakCount>3</maxWeakCount>
      <stageThreshold>-1.2776157855987549e+00</stageThreshold>
      <weakClassifiers>
        <_>
          <internalNodes>
            1 2 14 3.2025098800659180e-02 3 4 347
            -7.6086007058620453e-02 5 6 165 9.0490095317363739e-03 7 8
            166 4.6928385272622108e-03 9 10 72 -2.0178191363811493e-02
            11 12 302 1.7879787832498550e-02 13 14 83
            -2.4023193400353193e-03 0 -1 68 -1.7351609421893954e-03 -2
            -3 125 1.6816977411508560e-02 -4 -5 238
            1.6746895387768745e-02 -6 -7 56 3.5717833042144775e-01 -8 -9
            174 1.6336170956492424e-02 -10 -11 350
            3.8304227928165346e-05 -12 -13 40 -3.0317468568682671e-02
            -14 -15 234 -3.1364659662358463e-05</internalNodes>
          <leafValues>
            1. -1. -1. 6.3636362552642822e-01 -5.1272726058959961e-01
            3.2911393046379089e-01 -8.1310838460922241e-01
            1.5942029654979706e-01 -7.9104477167129517e-01 1. 1. -1.
            7.5000000000000000e-01 -9.4871795177459717e-01
            8.6440676450729370e-01 -5.7575756311416626e-01</leafValues></_>
        <_>
          <internalNodes>
            1 2 204 1.3033563736826181e-03 3 4 37
            -3.9837211370468140e-02 5 6 312 6.6489111632108688e-03 7 8
            246 -5.1414099289104342e-04 9 10 49 -8.6850672960281372e-02
            11 12 157 -1.6749266069382429e-03 13 14 289
            1.3788947835564613e-03 0 -1 120 -1.2898901477456093e-03 -2
            -3 24 -1.3928515836596489e-02 -4 -5 15
            -5.4851166903972626e-02 -6 -7 109 1.2302915751934052e-01 -8
            -9 340 9.3617234379053116e-03 -10 -11 294
            -3.6129902582615614e-03 -12 -13 220 -1.0230469051748514e-03
            -14 -15 145 -4.9190660938620567e-03</internalNodes>
          <leafValues>
            -1. 1. 1. -1. -1. 1. -8.3264684677124023e-01
            6.0808318853378296e-01 -3.2073101401329041e-01
            8.0971056222915649e-01 -5.1395267248153687e-02
            -6.7442488670349121e-01 -4.4758623838424683e-01
            6.9581204652786255e-01 7.9228535294532776e-02
            -9.0687996149063110e-01</leafValues></_>
        <_>
          <internalNodes>
            1 2 173 1.7300641047768295e-04 3 4 171
            -5.1045056898146868e-04 5 6 334 1.4416291378438473e-03 7 0
            113 1.2281499803066254e-02 8 9 300 -1.9852777768392116e-05
            10 11 259 -2.0990669727325439e-03 -1 -2 71
            1.8983548507094383e-02 -3 -4 4 1.6556233167648315e-02 -5 -6
            322 4.0444670594297349e-04 -7 -8 369 -2.3063165135681629e-03
            -9 -10 36 2.6546617969870567e-02 -11 -12 184
            -1.6692969948053360e-03</internalNodes>
          <leafValues>
            1. -1. 1. -9.4571328163146973e-01 1.9467276334762573e-01
            4.7384554147720337e-01 -8.3799839019775391e-01
            4.0157490968704224e-01 -5.4373592138290405e-01 -1. 1.
            8.1157636642456055e-01 -9.1921728849411011e-01</leafValues></_></weakClassifiers></_>
    <!-- stage 6 -->
    <_>
      <maxWeakCount>3</maxWeakCount>
      <stageThreshold>-1.2027420997619629e+00</stageThreshold>
      <weakClassifiers>
        <_>
          <internalNodes>
            1 2 3 4.2724914848804474e-02 3 4 317 -2.1023156121373177e-02
            5 6 203 6.4482307061553001e-04 7 8 141
            1.5826168237254024e-04 9 10 59 -3.4507775306701660e-01 11 12
            245 -4.0560923516750336e-03 13 14 218 6.6581582650542259e-03
            0 -1 55 4.4669687747955322e-02 -2 -3 314
            1.1152114719152451e-02 -4 -5 213 2.2258015815168619e-04 -6
            -7 373 -6.7360270768404007e-03 -8 -9 355
            1.1489918688312173e-03 -10 -11 285 -5.4836226627230644e-03
            -12 -13 260 -1.0669685900211334e-02 -14 -15 164
            1.0658209212124348e-03</internalNodes>
          <leafValues>
            -9.2118227481842041e-01 1.4285714924335480e-01
            -6.9999998807907104e-01 3.6814621090888977e-01
            -8.0952382087707520e-01 4.4615384936332703e-01
            4.4444444775581360e-01 -8.0819797515869141e-01
            -7.4074071645736694e-01 5.3333336114883423e-01
            7.1428573131561279e-01 -8.8405799865722656e-01
            7.7777779102325439e-01 -1. 8.6861312389373779e-01 -1.</leafValues></_>
        <_>
          <internalNodes>
            1 2 148 8.3807145711034536e-04 3 4 288
            -3.6838289815932512e-05 5 6 185 -4.8900418914854527e-04 7 8
            122 -1.0770383477210999e-01 9 10 257 6.7375069484114647e-03
            11 0 28 1.5416401624679565e-01 12 13 242
            7.3957123095169663e-04 -1 -2 13 8.2489411579445004e-04 -3 -4
            193 -2.4678066838532686e-03 -5 -6 293 4.4642211869359016e-03
            -7 -8 146 -8.2969886716455221e-04 -9 -10 267
            -1.2104701995849609e-01 -11 -12 298 3.4096972085535526e-03
            -13 -14 27 3.4234996885061264e-02</internalNodes>
          <leafValues>
            9.0432071685791016e-01 1. -1. 1.5625508129596710e-01
            -8.9885205030441284e-01 -5.5741655826568604e-01
            7.2103299200534821e-02 4.6613764762878418e-01
            -3.7886324524879456e-01 6.9422316551208496e-01
            -8.9962798357009888e-01 7.4588590860366821e-01
            -6.7067700624465942e-01 -1. 6.9912523031234741e-01</leafValues></_>
        <_>
          <internalNodes>
            1 2 232 -4.6162874787114561e-04 0 3 303
            -7.0742473006248474e-02 4 5 247 -4.4269710779190063e-03 -1 6
            151 -1.1268000118434429e-02 7 -2 332 8.5827428847551346e-03
            8 9 25 7.6530035585165024e-03 -3 -4 175
            7.3822117410600185e-03 -5 -6 372 1.2035467661917210e-03 -7
            -8 318 1.0264506563544273e-02 -9 -10 96
            3.7640370428562164e-03</internalNodes>
          <leafValues>
            8.7238442897796631e-01 5.6902843713760376e-01
            8.4290409088134766e-01 -9.6968019008636475e-01
            6.3006842136383057e-01 -8.4715259075164795e-01
            8.9793485403060913e-01 -4.6435329318046570e-01
            1.6419821977615356e-01 -3.4442275762557983e-01
            7.2242575883865356e-01</leafValues></_></weakClassifiers></_>
    <!-- stage 7 -->
    <_>
      <maxWeakCount>3</maxWeakCount>
      <stageThreshold>-1.0805745124816895e+00</stageThreshold>
      <weakClassifiers>
        <_>
          <internalNodes>
            1 2 310 -2.8736371546983719e-02 3 4 156
            2.9119239188730717e-03 5 6 80 2.8285634517669678e-01 7 8 50
            1.4695296064019203e-02 9 10 235 -9.3781953910365701e-04 11
            12 45 -1.1514990031719208e-01 13 14 112
            4.1907690465450287e-03 0 -1 338 -3.7654219195246696e-03 -2
            -3 306 4.5365153346210718e-04 -4 -5 353
            -2.7036196552217007e-03 -6 -7 258 1.2916799169033766e-03 -8
            -9 115 -1.3722332194447517e-02 -10 -11 53
            1.8107779324054718e-02 -12 -13 336 2.5182362645864487e-02
            -14 -15 248 3.0388919636607170e-02</internalNodes>
          <leafValues>
            2.0000000298023224e-01 -8.4946238994598389e-01 -1.
            8.3999997377395630e-01 -4.4186046719551086e-01
            8.2520323991775513e-01 -8.2608693838119507e-01
            5.3846156597137451e-01 6.8253970146179199e-01 -1.
            -7.3891627788543701e-01 -2.0675104856491089e-01
            -8.3870965242385864e-01 1. 7.8217822313308716e-01
            -8.3333331346511841e-01</leafValues></_>
        <_>
          <internalNodes>
            1 2 91 -8.0340430140495300e-03 3 4 136
            -3.8133023772388697e-03 5 6 88 8.1557882949709892e-03 7 8
            126 6.6315187141299248e-03 9 10 102 3.2801933120936155e-03
            11 12 273 2.4968154728412628e-02 13 14 135
            1.2778978561982512e-03 0 -1 253 -4.0516210719943047e-03 -2
            -3 22 5.0976451486349106e-02 -4 -5 35
            -1.0816486924886703e-01 -6 -7 277 3.8928893627598882e-04 -8
            -9 69 1.5543406829237938e-02 -10 -11 290
            -2.3228241479955614e-04 -12 -13 152 -7.8336641192436218e-02
            -14 -15 124 2.7896077372133732e-03</internalNodes>
          <leafValues>
            7.5867944955825806e-01 -1.7624360322952271e-01 -1. 1.
            7.9250150918960571e-01 -7.6298880577087402e-01
            2.6163873076438904e-01 -9.0739101171493530e-01
            -8.4930735826492310e-01 1.2832916341722012e-02
            2.3557852208614349e-01 -8.0815243721008301e-01
            8.5866028070449829e-01 -9.3975973129272461e-01
            5.3687763214111328e-01 -9.1994297504425049e-01</leafValues></_>
        <_>
          <internalNodes>
            1 2 228 -4.9670907901600003e-04 3 4 90
            2.9190788045525551e-02 5 6 239 4.1656766552478075e-04 0 7
            206 -7.3511943221092224e-02 -1 -2 38 -1.3325074687600136e-02
            8 9 283 -3.7901027826592326e-04 10 11 291
            1.5698128845542669e-03 -3 -4 94 1.2768788263201714e-02 -5 -6
            43 -1.7363636288791895e-04 -7 -8 129 -1.1523718014359474e-02
            -9 -10 270 -1.3569719158113003e-04 -11 -12 93
            -1.2102466821670532e-01</internalNodes>
          <leafValues>
            1. -1. 1. -8.8660275936126709e-01 5.2621549367904663e-01
            -7.3700577020645142e-01 2.4688667058944702e-01
            -4.4285804033279419e-02 -8.9803355932235718e-01
            -6.4569747447967529e-01 5.0764906406402588e-01
            3.0723017454147339e-01 -6.3092929124832153e-01</leafValues></_></weakClassifiers></_>
    <!-- stage 8 -->
    <_>
      <maxWeakCount>3</maxWeakCount>
      <stageThreshold>-1.2129069566726685e+00</stageThreshold>
      <weakClassifiers>
        <_>
          <internalNodes>
            1 2 356 -4.1157931089401245e-02 3 4 12
            1.2833327054977417e-01 5 6 198 -2.3072624579071999e-02 7 8
            155 -6.3616493716835976e-03 9 10 279 1.1418266221880913e-03
            11 12 217 1.3254107907414436e-03 13 14 75
            3.0852648615837097e-01 0 -1 323 4.2938522528856993e-04 -2 -3
            271 4.8963585868477821e-03 -4 -5 250 1.0322503745555878e-01
            -6 -7 231 1.4899240806698799e-02 -8 -9 97
            1.5868192911148071e-01 -10 -11 276 -7.7958242036402225e-04
            -12 -13 366 -2.6043988764286041e-02 -14 -15 108
            2.9185030609369278e-02</internalNodes>
          <leafValues>
            -6.2962961196899414e-01 5.0943398475646973e-01
            -7.7777779102325439e-01 3.7500000000000000e-01
            8.6595171689987183e-01 -6.3636362552642822e-01 -1. 1.
            -7.1518987417221069e-01 8.8888889551162720e-01
            2.8851541876792908e-01 -6.7692309617996216e-01
            5.5555558204650879e-01 -7.8814226388931274e-01
            -5.3846156597137451e-01 6.9565218687057495e-01</leafValues></_>
        <_>
          <internalNodes>
            1 2 178 2.9737886507064104e-04 3 4 77 1.6309237107634544e-03
            5 6 46 2.8596658259630203e-02 7 8 42 -6.0125306248664856e-02
            9 10 320 3.3018346875905991e-03 11 12 326
            2.0110516343265772e-03 0 -1 284 -2.7602296322584152e-03 -2
            -3 133 -4.4047649949789047e-02 -4 -5 89
            8.8841002434492111e-04 -6 -7 79 -4.8889423487707973e-04 -8
            -9 65 6.2531694769859314e-02 -10 -11 114
            7.1259081363677979e-02 -12 -13 11 -5.3018508478999138e-03</internalNodes>
          <leafValues>
            1. -1. -1. 9.4173389673233032e-01 -7.8376102447509766e-01
            -1.3107405602931976e-01 -4.4443747401237488e-01
            3.8149914145469666e-01 -9.3912422657012939e-01 1.
            -9.1337740421295166e-01 3.7402397394180298e-01 -1. 1.</leafValues></_>
        <_>
          <internalNodes>
            1 2 299 1.0995120741426945e-02 3 4 361
            8.7409309344366193e-04 5 6 237 1.3609563000500202e-02 7 8
            329 3.3316738903522491e-02 9 10 191 -8.0297017120756209e-05
            11 12 167 3.9947067853063345e-04 13 14 263
            -3.9320456562563777e-04 0 -1 192 -5.7431841269135475e-03 -2
            -3 227 -1.8492058152332902e-03 -4 -5 226
            -1.5735845081508160e-03 -6 -7 223 3.6382623016834259e-02 -8
            -9 264 5.6443610228598118e-03 -10 -11 26
            -1.4632522128522396e-02 -12 -13 63 2.8206570073962212e-02
            -14 -15 243 2.7167052030563354e-02</internalNodes>
          <leafValues>
            2.8751167654991150e-01 -8.0626380443572998e-01
            6.5628820657730103e-01 -4.6617117524147034e-01 1.
            -9.8907965421676636e-01 4.0784400701522827e-01
            -7.4317115545272827e-01 -6.5553468465805054e-01
            1.2746569514274597e-01 -9.1323310136795044e-01
            5.5738323926925659e-01 -9.7667860984802246e-01
            6.3519853353500366e-01 6.6528099775314331e-01
            -8.6911118030548096e-01</leafValues></_></weakClassifiers></_>
    <!-- stage 9 -->
    <_>
      <maxWeakCount>3</maxWeakCount>
      <stageThreshold>-1.2331200838088989e+00</stageThreshold>
      <weakClassifiers>
        <_>
          <internalNodes>
            1 2 150 -1.1077439412474632e-03 3 4 70
            6.7104995250701904e-03 5 6 346 -1.2370412051677704e-01 7 8
            256 4.1546430438756943e-03 9 10 254 6.6330295521765947e-04
            11 12 344 4.9978252500295639e-03 13 14 244
            -4.4432662427425385e-02 0 -1 360 1.4028294011950493e-02 -2
            -3 352 7.4633574113249779e-03 -4 -5 339
            3.6586623173207045e-04 -6 -7 325 1.1300913989543915e-02 -8
            -9 316 -1.1491963639855385e-02 -10 -11 233
            -2.1721077791880816e-04 -12 -13 224 -6.8739755079150200e-03
            -14 -15 19 -3.1369946897029877e-02</internalNodes>
          <leafValues>
            -7.7450978755950928e-01 6.6666668653488159e-01
            -5.9459459781646729e-01 3.6585366725921631e-01
            -6.5957444906234741e-01 3.4693878889083862e-01
            9.8901100456714630e-02 9.1277259588241577e-01
            5.1999998092651367e-01 -8.0281692743301392e-01 -1.
            8.5567009449005127e-01 1.7977528274059296e-01
            -5.7852882146835327e-01 -2.2807016968727112e-01
            -8.2432430982589722e-01</leafValues></_>
        <_>
          <internalNodes>
            1 2 216 3.3240072662010789e-04 3 4 144
            -2.4373782798647881e-03 5 6 161 2.2668000310659409e-03 7 8
            143 -3.0828878516331315e-04 9 10 327 2.0021973177790642e-03
            11 12 202 -2.3220978677272797e-02 13 14 131
            3.4534581005573273e-02 0 -1 304 -2.5778165087103844e-02 -2
            -3 106 2.8836802812293172e-04 -4 -5 130
            3.1765758991241455e-02 -6 -7 160 -3.6202056799083948e-04 -8
            -9 241 1.0890888515859842e-03 -10 -11 123
            1.4494868810288608e-04 -12 -13 225 -1.9567352533340454e-01
            -14 -15 351 2.6423594681546092e-04</internalNodes>
          <leafValues>
            1. -1. 3.5680693387985229e-01 -8.6534947156906128e-01
            -7.3730850219726562e-01 8.2611602544784546e-01
            7.7960056066513062e-01 -8.5830950736999512e-01
            -7.1217471361160278e-01 3.5857632756233215e-01
            -3.2100860029459000e-02 5.7590323686599731e-01 1.
            -9.5977747440338135e-01 -7.4641555547714233e-01
            5.6073784828186035e-01</leafValues></_>
        <_>
          <internalNodes>
            1 2 210 -2.9374967562034726e-04 3 4 275
            -2.9943812638521194e-02 5 6 358 -4.3961306801065803e-04 7 0
            98 -7.9386009019799531e-05 8 9 371 -1.0076869279146194e-02
            10 11 357 -7.4182879179716110e-03 12 13 138
            -1.2254050488991197e-05 -1 -2 1 -1.3516242615878582e-03 -3
            -4 116 -3.1240881071425974e-04 -5 -6 362
            -2.8488717973232269e-02 -7 -8 370 4.0625035762786865e-03 -9
            -10 354 -6.9054360501468182e-03 -11 -12 333
            4.7865923261269927e-04 -13 -14 82 -4.2422384023666382e-02</internalNodes>
          <leafValues>
            -1. -1. 1. 9.6737444400787354e-01 -1. 3.7286689877510071e-01
            -9.2389899492263794e-01 -8.6703783273696899e-01
            4.3622574210166931e-01 -6.4480376243591309e-01
            4.9134519696235657e-01 -5.0312489271163940e-01
            3.5484039783477783e-01 3.1968328356742859e-01
            -6.0642457008361816e-01</leafValues></_></weakClassifiers></_></stages>
  <features>
    <_>
      <rects>
        <_>
          0 0 2 18 -1.</_>
        <_>
          0 0 1 9 2.</_>
        <_>
          1 9 1 9 2.</_></rects>
      <tilted>0</tilted></_>
    <_>
      <rects>
        <_>
          0 0 6 1 -1.</_>
        <_>
          2 0 2 1 3.</_></rects>
      <tilted>0</tilted></_>
    <_>
      <rects>
        <_>
          0 0 12 28 -1.</_>
        <_>
          0 0 6 14 2.</_>
        <_>
          6 14 6 14 2.</_></rects>
      <tilted>0</tilted></_>
    <_>
      <rects>
        <_>
          0 0 12 29 -1.</_>
        <_>
          6 0 6 29 2.</_></rects>
      <tilted>0</tilted></_>
    <_>
      <rects>
        <_>
          0 0 14 4 -1.</_>
        <_>
          7 0 7 4 2.</_></rects>
      <tilted>0</tilted></_>
    <_>
      <rects>
        <_>
          0 0 18 7 -1.</_>
        <_>
          9 0 9 7 2.</_></rects>
      <tilted>0</tilted></_>
    <_>
      <rects>
        <_>
          0 0 18 13 -1.</_>
        <_>
          9 0 9 13 2.</_></rects>
      <tilted>0</tilted></_>
    <_>
      <rects>
        <_>
          0 0 20 38 -1.</_>
        <_>
          10 0 10 38 2.</_></rects>
      <tilted>0</tilted></_>
    <_>
      <rects>
        <_>
          0 0 39 24 -1.</_>
        <_>
          13 0 13 24 3.</_></rects>
      <tilted>0</tilted></_>
    <_>
      <rects>
        <_>
          0 0 39 31 -1.</_>
        <_>
          13 0 13 31 3.</_></rects>
      <tilted>0</tilted></_>
    <_>
      <rects>
        <_>
          0 0 42 16 -1.</_>
        <_>
          14 0 14 16 3.</_></rects>
      <tilted>0</tilted></_>
    <_>
      <rects>
        <_>
          0 0 30 8 -1.</_>
        <_>
          0 0 15 4 2.</_>
        <_>
          15 4 15 4 2.</_></rects>
      <tilted>0</tilted></_>
    <_>
      <rects>
        <_>
          0 0 48 10 -1.</_>
        <_>
          16 0 16 10 3.</_></rects>
      <tilted>0</tilted></_>
    <_>
      <rects>
        <_>
          0 1 12 6 -1.</_>
        <_>
          4 1 4 6 3.</_></rects>
      <tilted>0</tilted></_>
    <_>
      <rects>
        <_>
          0 1 18 8 -1.</_>
        <_>
          9 1 9 8 2.</_></rects>
      <tilted>0</tilted></_>
    <_>
      <rects>
        <_>
          0 1 12 16 -1.</_>
        <_>
          0 9 12 8 2.</_></rects>
      <tilted>0</tilted></_>
    <_>
      <rects>
        <_>
          0 1 48 9 -1.</_>
        <_>
          16 1 16 9 3.</_></rects>
      <tilted>0</tilted></_>
    <_>
      <rects>
        <_>
          0 2 20 6 -1.</_>
        <_>
          10 2 10 6 2.</_></rects>
      <tilted>0</tilted></_>
    <_>
      <rects>
        <_>
          0 2 48 12 -1.</_>
        <_>
          16 2 16 12 3.</_></rects>
      <tilted>0</tilted></_>
    <_>
      <rects>
        <_>
          0 3 12 32 -1.</_>
        <_>
          4 3 4 32 3.</_></rects>
      <tilted>0</tilted></_>
    <_>
      <rects>
        <_>
          0 3 10 40 -1.</_>
        <_>
          0 3 5 20 2.</_>
        <_>
          5 23 5 20 2.</_></rects>
      <tilted>0</tilted></_>
    <_>
      <rects>
        <_>
          0 4 22 12 -1.</_>
        <_>
          0 4 11 6 2.</_>
        <_>
          11 10 11 6 2.</_></rects>
      <tilted>0</tilted></_>
    <_>
      <rects>
        <_>
          0 5 40 8 -1.</_>
        <_>
          0 5 20 4 2.</_>
        <_>
          20 9 20 4 2.</_></rects>
      <tilted>0</tilted></_>
    <_>
      <rects>
        <_>
          0 5 31 18 -1.</_>
        <_>
          0 11 31 6 3.</_></rects>
      <tilted>0</tilted></_>
    <_>
      <rects>
        <_>
          0 6 29 4 -1.</_>
        <_>
          0 8 29 2 2.</_></rects>
      <tilted>0</tilted></_>
    <_>
      <rects>
        <_>
          0 7 8 12 -1.</_>
        <_>
          4 7 4 12 2.</_></rects>
      <tilted>0</tilted></_>
    <_>
      <rects>
        <_>
          0 7 8 15 -1.</_>
        <_>
          0 12 8 5 3.</_></rects>
      <tilted>0</tilted></_>
    <_>
      <rects>
        <_>
          0 7 48 2 -1.</_>
        <_>
          16 7 16 2 3.</_></rects>
      <tilted>0</tilted></_>
    <_>
      <rects>
        <_>
          0 7 46 14 -1.</_>
        <_>
          23 7 23 14 2.</_></rects>
      <tilted>0</tilted></_>
    <_>
      <rects>
        <_>
          0 8 13 24 -1.</_>
        <_>
          0 16 13 8 3.</_></rects>
      <tilted>0</tilted></_>
    <_>
      <rects>
        <_>
          0 9 1 36 -1.</_>
        <_>
          0 27 1 18 2.</_></rects>
      <tilted>0</tilted></_>
    <_>
      <rects>
        <_>
          0 10 30 14 -1.</_>
        <_>
          0 17 30 7 2.</_></rects>
      <tilted>0</tilted></_>
    <_>
      <rects>
        <_>
          0 11 14 15 -1.</_>
        <_>
          7 11 7 15 2.</_></rects>
      <tilted>0</tilted></_>
    <_>
      <rects>
        <_>
          0 11 30 4 -1.</_>
        <_>
          10 11 10 4 3.</_></rects>
      <tilted>0</tilted></_>
    <_>
      <rects>
        <_>
          0 11 22 34 -1.</_>
        <_>
          11 11 11 34 2.</_></rects>
      <tilted>0</tilted></_>
    <_>
      <rects>
        <_>
          0 12 30 8 -1.</_>
        <_>
          10 12 10 8 3.</_></rects>
      <tilted>0</tilted></_>
    <_>
      <rects>
        <_>
          0 14 37 8 -1.</_>
        <_>
          0 18 37 4 2.</_></rects>
      <tilted>0</tilted></_>
    <_>
      <rects>
        <_>
          0 16 14 24 -1.</_>
        <_>
          0 16 7 12 2.</_>
        <_>
          7 28 7 12 2.</_></rects>
      <tilted>0</tilted></_>
    <_>
      <rects>
        <_>
          0 16 24 23 -1.</_>
        <_>
          8 16 8 23 3.</_></rects>
      <tilted>0</tilted></_>
    <_>
      <rects>
        <_>
          0 17 38 8 -1.</_>
        <_>
          0 21 38 4 2.</_></rects>
      <tilted>0</tilted></_>
    <_>
      <rects>
        <_>
          0 18 10 26 -1.</_>
        <_>
          0 18 5 13 2.</_>
        <_>
          5 31 5 13 2.</_></rects>
      <tilted>0</tilted></_>
    <_>
      <rects>
        <_>
          0 18 14 15 -1.</_>
        <_>
          7 18 7 15 2.</_></rects>
      <tilted>0</tilted></_>
    <_>
      <rects>
        <_>
          0 19 16 13 -1.</_>
        <_>
          8 19 8 13 2.</_></rects>
      <tilted>0</tilted></_>
    <_>
      <rects>
        <_>
          0 20 8 3 -1.</_>
        <_>
          0 21 8 1 3.</_></rects>
      <tilted>0</tilted></_>
    <_>
      <rects>
        <_>
          0 23 46 9 -1.</_>
        <_>
          23 23 23 9 2.</_></rects>
      <tilted>0</tilted></_>
    <_>
      <rects>
        <_>
          0 26 20 21 -1.</_>
        <_>
          10 26 10 21 2.</_></rects>
      <tilted>0</tilted></_>
    <_>
      <rects>
        <_>
          0 31 16 5 -1.</_>
        <_>
          8 31 8 5 2.</_></rects>
      <tilted>0</tilted></_>
    <_>
      <rects>
        <_>
          0 32 48 2 -1.</_>
        <_>
          16 32 16 2 3.</_></rects>
      <tilted>0</tilted></_>
    <_>
      <rects>
        <_>
          0 34 48 7 -1.</_>
        <_>
          16 34 16 7 3.</_></rects>
      <tilted>0</tilted></_>
    <_>
      <rects>
        <_>
          1 0 26 15 -1.</_>
        <_>
          14 0 13 15 2.</_></rects>
      <tilted>0</tilted></_>
    <_>
      <rects>
        <_>
          1 2 6 18 -1.</_>
        <_>
          4 2 3 18 2.</_></rects>
      <tilted>0</tilted></_>
    <_>
      <rects>
        <_>
          1 2 14 42 -1.</_>
        <_>
          1 16 14 14 3.</_></rects>
      <tilted>0</tilted></_>
    <_>
      <rects>
        <_>
          1 2 45 10 -1.</_>
        <_>
          16 2 15 10 3.</_></rects>
      <tilted>0</tilted></_>
    <_>
      <rects>
        <_>
          1 3 6 28 -1.</_>
        <_>
          4 3 3 28 2.</_></rects>
      <tilted>0</tilted></_>
    <_>
      <rects>
        <_>
          1 3 28 28 -1.</_>
        <_>
          1 3 14 14 2.</_>
        <_>
          15 17 14 14 2.</_></rects>
      <tilted>0</tilted></_>
    <_>
      <rects>
        <_>
          1 4 15 37 -1.</_>
        <_>
          6 4 5 37 3.</_></rects>
      <tilted>0</tilted></_>
    <_>
      <rects>
        <_>
          1 4 42 36 -1.</_>
        <_>
          22 4 21 36 2.</_></rects>
      <tilted>0</tilted></_>
    <_>
      <rects>
        <_>
          1 6 22 10 -1.</_>
        <_>
          1 6 11 5 2.</_>
        <_>
          12 11 11 5 2.</_></rects>
      <tilted>0</tilted></_>
    <_>
      <rects>
        <_>
          1 6 36 15 -1.</_>
        <_>
          1 11 36 5 3.</_></rects>
      <tilted>0</tilted></_>
    <_>
      <rects>
        <_>
          1 7 44 41 -1.</_>
        <_>
          23 7 22 41 2.</_></rects>
      <tilted>0</tilted></_>
    <_>
      <rects>
        <_>
          1 8 24 37 -1.</_>
        <_>
          9 8 8 37 3.</_></rects>
      <tilted>0</tilted></_>
    <_>
      <rects>
        <_>
          1 10 15 12 -1.</_>
        <_>
          1 16 15 6 2.</_></rects>
      <tilted>0</tilted></_>
    <_>
      <rects>
        <_>
          1 18 2 22 -1.</_>
        <_>
          1 29 2 11 2.</_></rects>
      <tilted>0</tilted></_>
    <_>
      <rects>
        <_>
          1 19 18 17 -1.</_>
        <_>
          7 19 6 17 3.</_></rects>
      <tilted>0</tilted></_>
    <_>
      <rects>
        <_>
          1 22 6 26 -1.</_>
        <_>
          1 22 3 13 2.</_>
        <_>
          4 35 3 13 2.</_></rects>
      <tilted>0</tilted></_>
    <_>
      <rects>
        <_>
          1 27 16 10 -1.</_>
        <_>
          9 27 8 10 2.</_></rects>
      <tilted>0</tilted></_>
    <_>
      <rects>
        <_>
          1 32 10 12 -1.</_>
        <_>
          6 32 5 12 2.</_></rects>
      <tilted>0</tilted></_>
    <_>
      <rects>
        <_>
          1 32 12 16 -1.</_>
        <_>
          1 32 6 8 2.</_>
        <_>
          7 40 6 8 2.</_></rects>
      <tilted>0</tilted></_>
    <_>
      <rects>
        <_>
          1 39 15 1 -1.</_>
        <_>
          6 39 5 1 3.</_></rects>
      <tilted>0</tilted></_>
    <_>
      <rects>
        <_>
          1 43 18 4 -1.</_>
        <_>
          10 43 9 4 2.</_></rects>
      <tilted>0</tilted></_>
    <_>
      <rects>
        <_>
          2 0 10 14 -1.</_>
        <_>
          7 0 5 14 2.</_></rects>
      <tilted>0</tilted></_>
    <_>
      <rects>
        <_>
          2 1 22 8 -1.</_>
        <_>
          13 1 11 8 2.</_></rects>
      <tilted>0</tilted></_>
    <_>
      <rects>
        <_>
          2 2 16 16 -1.</_>
        <_>
          2 2 8 8 2.</_>
        <_>
          10 10 8 8 2.</_></rects>
      <tilted>0</tilted></_>
    <_>
      <rects>
        <_>
          2 9 20 6 -1.</_>
        <_>
          2 9 10 3 2.</_>
        <_>
          12 12 10 3 2.</_></rects>
      <tilted>0</tilted></_>
    <_>
      <rects>
        <_>
          2 9 21 12 -1.</_>
        <_>
          2 15 21 6 2.</_></rects>
      <tilted>0</tilted></_>
    <_>
      <rects>
        <_>
          2 12 44 35 -1.</_>
        <_>
          24 12 22 35 2.</_></rects>
      <tilted>0</tilted></_>
    <_>
      <rects>
        <_>
          2 13 16 8 -1.</_>
        <_>
          2 17 16 4 2.</_></rects>
      <tilted>0</tilted></_>
    <_>
      <rects>
        <_>
          2 14 14 8 -1.</_>
        <_>
          2 14 7 4 2.</_>
        <_>
          9 18 7 4 2.</_></rects>
      <tilted>0</tilted></_>
    <_>
      <rects>
        <_>
          2 14 14 10 -1.</_>
        <_>
          2 14 7 5 2.</_>
        <_>
          9 19 7 5 2.</_></rects>
      <tilted>0</tilted></_>
    <_>
      <rects>
        <_>
          2 15 9 4 -1.</_>
        <_>
          2 17 9 2 2.</_></rects>
      <tilted>0</tilted></_>
    <_>
      <rects>
        <_>
          2 15 42 33 -1.</_>
        <_>
          23 15 21 33 2.</_></rects>
      <tilted>0</tilted></_>
    <_>
      <rects>
        <_>
          2 17 26 20 -1.</_>
        <_>
          2 17 13 10 2.</_>
        <_>
          15 27 13 10 2.</_></rects>
      <tilted>0</tilted></_>
    <_>
      <rects>
        <_>
          2 19 14 26 -1.</_>
        <_>
          2 19 7 13 2.</_>
        <_>
          9 32 7 13 2.</_></rects>
      <tilted>0</tilted></_>
    <_>
      <rects>
        <_>
          3 0 13 4 -1.</_>
        <_>
          3 2 13 2 2.</_></rects>
      <tilted>0</tilted></_>
    <_>
      <rects>
        <_>
          3 8 33 6 -1.</_>
        <_>
          14 8 11 6 3.</_></rects>
      <tilted>0</tilted></_>
    <_>
      <rects>
        <_>
          3 12 4 4 -1.</_>
        <_>
          5 12 2 4 2.</_></rects>
      <tilted>0</tilted></_>
    <_>
      <rects>
        <_>
          3 13 21 21 -1.</_>
        <_>
          10 13 7 21 3.</_></rects>
      <tilted>0</tilted></_>
    <_>
      <rects>
        <_>
          3 17 6 17 -1.</_>
        <_>
          6 17 3 17 2.</_></rects>
      <tilted>0</tilted></_>
    <_>
      <rects>
        <_>
          3 20 21 3 -1.</_>
        <_>
          10 20 7 3 3.</_></rects>
      <tilted>0</tilted></_>
    <_>
      <rects>
        <_>
          3 21 8 2 -1.</_>
        <_>
          7 21 4 2 2.</_></rects>
      <tilted>0</tilted></_>
    <_>
      <rects>
        <_>
          3 41 45 2 -1.</_>
        <_>
          18 41 15 2 3.</_></rects>
      <tilted>0</tilted></_>
    <_>
      <rects>
        <_>
          4 3 16 12 -1.</_>
        <_>
          4 3 8 6 2.</_>
        <_>
          12 9 8 6 2.</_></rects>
      <tilted>0</tilted></_>
    <_>
      <rects>
        <_>
          4 10 8 30 -1.</_>
        <_>
          8 10 4 30 2.</_></rects>
      <tilted>0</tilted></_>
    <_>
      <rects>
        <_>
          4 10 44 28 -1.</_>
        <_>
          26 10 22 28 2.</_></rects>
      <tilted>0</tilted></_>
    <_>
      <rects>
        <_>
          4 11 1 36 -1.</_>
        <_>
          4 29 1 18 2.</_></rects>
      <tilted>0</tilted></_>
    <_>
      <rects>
        <_>
          4 11 12 9 -1.</_>
        <_>
          10 11 6 9 2.</_></rects>
      <tilted>0</tilted></_>
    <_>
      <rects>
        <_>
          4 11 12 14 -1.</_>
        <_>
          4 18 12 7 2.</_></rects>
      <tilted>0</tilted></_>
    <_>
      <rects>
        <_>
          4 22 44 14 -1.</_>
        <_>
          26 22 22 14 2.</_></rects>
      <tilted>0</tilted></_>
    <_>
      <rects>
        <_>
          4 24 3 8 -1.</_>
        <_>
          5 24 1 8 3.</_></rects>
      <tilted>0</tilted></_>
    <_>
      <rects>
        <_>
          4 25 42 18 -1.</_>
        <_>
          4 34 42 9 2.</_></rects>
      <tilted>0</tilted></_>
    <_>
      <rects>
        <_>
          4 35 8 8 -1.</_>
        <_>
          8 35 4 8 2.</_></rects>
      <tilted>0</tilted></_>
    <_>
      <rects>
        <_>
          5 0 32 15 -1.</_>
        <_>
          5 5 32 5 3.</_></rects>
      <tilted>0</tilted></_>
    <_>
      <rects>
        <_>
          5 1 11 12 -1.</_>
        <_>
          5 5 11 4 3.</_></rects>
      <tilted>0</tilted></_>
    <_>
      <rects>
        <_>
          5 3 42 4 -1.</_>
        <_>
          5 3 21 2 2.</_>
        <_>
          26 5 21 2 2.</_></rects>
      <tilted>0</tilted></_>
    <_>
      <rects>
        <_>
          5 14 16 4 -1.</_>
        <_>
          5 16 16 2 2.</_></rects>
      <tilted>0</tilted></_>
    <_>
      <rects>
        <_>
          5 20 8 21 -1.</_>
        <_>
          9 20 4 21 2.</_></rects>
      <tilted>0</tilted></_>
    <_>
      <rects>
        <_>
          5 21 1 6 -1.</_>
        <_>
          5 23 1 2 3.</_></rects>
      <tilted>0</tilted></_>
    <_>
      <rects>
        <_>
          5 22 15 1 -1.</_>
        <_>
          10 22 5 1 3.</_></rects>
      <tilted>0</tilted></_>
    <_>
      <rects>
        <_>
          6 0 8 30 -1.</_>
        <_>
          10 0 4 30 2.</_></rects>
      <tilted>0</tilted></_>
    <_>
      <rects>
        <_>
          6 1 9 44 -1.</_>
        <_>
          6 23 9 22 2.</_></rects>
      <tilted>0</tilted></_>
    <_>
      <rects>
        <_>
          6 5 34 18 -1.</_>
        <_>
          6 11 34 6 3.</_></rects>
      <tilted>0</tilted></_>
    <_>
      <rects>
        <_>
          6 14 18 16 -1.</_>
        <_>
          12 14 6 16 3.</_></rects>
      <tilted>0</tilted></_>
    <_>
      <rects>
        <_>
          6 15 15 14 -1.</_>
        <_>
          11 15 5 14 3.</_></rects>
      <tilted>0</tilted></_>
    <_>
      <rects>
        <_>
          6 31 6 14 -1.</_>
        <_>
          6 31 3 7 2.</_>
        <_>
          9 38 3 7 2.</_></rects>
      <tilted>0</tilted></_>
    <_>
      <rects>
        <_>
          6 41 28 7 -1.</_>
        <_>
          20 41 14 7 2.</_></rects>
      <tilted>0</tilted></_>
    <_>
      <rects>
        <_>
          7 5 13 21 -1.</_>
        <_>
          7 12 13 7 3.</_></rects>
      <tilted>0</tilted></_>
    <_>
      <rects>
        <_>
          7 8 6 8 -1.</_>
        <_>
          7 8 3 4 2.</_>
        <_>
          10 12 3 4 2.</_></rects>
      <tilted>0</tilted></_>
    <_>
      <rects>
        <_>
          7 12 23 30 -1.</_>
        <_>
          7 27 23 15 2.</_></rects>
      <tilted>0</tilted></_>
    <_>
      <rects>
        <_>
          7 15 6 4 -1.</_>
        <_>
          7 17 6 2 2.</_></rects>
      <tilted>0</tilted></_>
    <_>
      <rects>
        <_>
          7 22 33 3 -1.</_>
        <_>
          18 22 11 3 3.</_></rects>
      <tilted>0</tilted></_>
    <_>
      <rects>
        <_>
          7 29 40 2 -1.</_>
        <_>
          7 29 20 1 2.</_>
        <_>
          27 30 20 1 2.</_></rects>
      <tilted>0</tilted></_>
    <_>
      <rects>
        <_>
          8 0 21 25 -1.</_>
        <_>
          15 0 7 25 3.</_></rects>
      <tilted>0</tilted></_>
    <_>
      <rects>
        <_>
          8 1 21 14 -1.</_>
        <_>
          8 8 21 7 2.</_></rects>
      <tilted>0</tilted></_>
    <_>
      <rects>
        <_>
          8 2 8 1 -1.</_>
        <_>
          12 2 4 1 2.</_></rects>
      <tilted>0</tilted></_>
    <_>
      <rects>
        <_>
          8 7 6 12 -1.</_>
        <_>
          8 7 3 6 2.</_>
        <_>
          11 13 3 6 2.</_></rects>
      <tilted>0</tilted></_>
    <_>
      <rects>
        <_>
          8 8 39 15 -1.</_>
        <_>
          21 8 13 15 3.</_></rects>
      <tilted>0</tilted></_>
    <_>
      <rects>
        <_>
          8 10 6 10 -1.</_>
        <_>
          8 10 3 5 2.</_>
        <_>
          11 15 3 5 2.</_></rects>
      <tilted>0</tilted></_>
    <_>
      <rects>
        <_>
          8 12 22 5 -1.</_>
        <_>
          19 12 11 5 2.</_></rects>
      <tilted>0</tilted></_>
    <_>
      <rects>
        <_>
          8 36 3 8 -1.</_>
        <_>
          8 40 3 4 2.</_></rects>
      <tilted>0</tilted></_>
    <_>
      <rects>
        <_>
          8 36 18 12 -1.</_>
        <_>
          8 36 9 6 2.</_>
        <_>
          17 42 9 6 2.</_></rects>
      <tilted>0</tilted></_>
    <_>
      <rects>
        <_>
          8 40 36 2 -1.</_>
        <_>
          26 40 18 2 2.</_></rects>
      <tilted>0</tilted></_>
    <_>
      <rects>
        <_>
          9 3 4 42 -1.</_>
        <_>
          9 17 4 14 3.</_></rects>
      <tilted>0</tilted></_>
    <_>
      <rects>
        <_>
          9 4 2 18 -1.</_>
        <_>
          9 4 1 9 2.</_>
        <_>
          10 13 1 9 2.</_></rects>
      <tilted>0</tilted></_>
    <_>
      <rects>
        <_>
          9 4 16 22 -1.</_>
        <_>
          9 15 16 11 2.</_></rects>
      <tilted>0</tilted></_>
    <_>
      <rects>
        <_>
          9 9 19 12 -1.</_>
        <_>
          9 13 19 4 3.</_></rects>
      <tilted>0</tilted></_>
    <_>
      <rects>
        <_>
          9 10 39 16 -1.</_>
        <_>
          22 10 13 16 3.</_></rects>
      <tilted>0</tilted></_>
    <_>
      <rects>
        <_>
          9 11 7 6 -1.</_>
        <_>
          9 13 7 2 3.</_></rects>
      <tilted>0</tilted></_>
    <_>
      <rects>
        <_>
          9 12 6 6 -1.</_>
        <_>
          9 14 6 2 3.</_></rects>
      <tilted>0</tilted></_>
    <_>
      <rects>
        <_>
          9 13 1 2 -1.</_>
        <_>
          9 14 1 1 2.</_></rects>
      <tilted>0</tilted></_>
    <_>
      <rects>
        <_>
          9 13 12 2 -1.</_>
        <_>
          13 13 4 2 3.</_></rects>
      <tilted>0</tilted></_>
    <_>
      <rects>
        <_>
          9 13 9 21 -1.</_>
        <_>
          9 20 9 7 3.</_></rects>
      <tilted>0</tilted></_>
    <_>
      <rects>
        <_>
          9 14 24 1 -1.</_>
        <_>
          21 14 12 1 2.</_></rects>
      <tilted>0</tilted></_>
    <_>
      <rects>
        <_>
          9 37 2 8 -1.</_>
        <_>
          9 37 1 4 2.</_>
        <_>
          10 41 1 4 2.</_></rects>
      <tilted>0</tilted></_>
    <_>
      <rects>
        <_>
          10 2 3 8 -1.</_>
        <_>
          11 2 1 8 3.</_></rects>
      <tilted>0</tilted></_>
    <_>
      <rects>
        <_>
          10 3 4 9 -1.</_>
        <_>
          10 6 4 3 3.</_></rects>
      <tilted>0</tilted></_>
    <_>
      <rects>
        <_>
          10 6 12 22 -1.</_>
        <_>
          14 6 4 22 3.</_></rects>
      <tilted>0</tilted></_>
    <_>
      <rects>
        <_>
          10 9 1 12 -1.</_>
        <_>
          10 13 1 4 3.</_></rects>
      <tilted>0</tilted></_>
    <_>
      <rects>
        <_>
          10 11 6 6 -1.</_>
        <_>
          10 13 6 2 3.</_></rects>
      <tilted>0</tilted></_>
    <_>
      <rects>
        <_>
          10 11 8 3 -1.</_>
        <_>
          10 12 8 1 3.</_></rects>
      <tilted>0</tilted></_>
    <_>
      <rects>
        <_>
          10 13 12 1 -1.</_>
        <_>
          14 13 4 1 3.</_></rects>
      <tilted>0</tilted></_>
    <_>
      <rects>
        <_>
          10 13 6 3 -1.</_>
        <_>
          10 14 6 1 3.</_></rects>
      <tilted>0</tilted></_>
    <_>
      <rects>
        <_>
          10 31 3 10 -1.</_>
        <_>
          10 36 3 5 2.</_></rects>
      <tilted>0</tilted></_>
    <_>
      <rects>
        <_>
          11 0 18 24 -1.</_>
        <_>
          11 12 18 12 2.</_></rects>
      <tilted>0</tilted></_>
    <_>
      <rects>
        <_>
          11 1 12 10 -1.</_>
        <_>
          15 1 4 10 3.</_></rects>
      <tilted>0</tilted></_>
    <_>
      <rects>
        <_>
          11 10 27 6 -1.</_>
        <_>
          20 10 9 6 3.</_></rects>
      <tilted>0</tilted></_>
    <_>
      <rects>
        <_>
          11 11 37 6 -1.</_>
        <_>
          11 13 37 2 3.</_></rects>
      <tilted>0</tilted></_>
    <_>
      <rects>
        <_>
          11 13 3 8 -1.</_>
        <_>
          11 17 3 4 2.</_></rects>
      <tilted>0</tilted></_>
    <_>
      <rects>
        <_>
          11 13 5 3 -1.</_>
        <_>
          11 14 5 1 3.</_></rects>
      <tilted>0</tilted></_>
    <_>
      <rects>
        <_>
          11 13 16 10 -1.</_>
        <_>
          11 18 16 5 2.</_></rects>
      <tilted>0</tilted></_>
    <_>
      <rects>
        <_>
          11 14 4 8 -1.</_>
        <_>
          11 18 4 4 2.</_></rects>
      <tilted>0</tilted></_>
    <_>
      <rects>
        <_>
          11 15 6 4 -1.</_>
        <_>
          11 15 3 2 2.</_>
        <_>
          14 17 3 2 2.</_></rects>
      <tilted>0</tilted></_>
    <_>
      <rects>
        <_>
          12 5 9 8 -1.</_>
        <_>
          15 5 3 8 3.</_></rects>
      <tilted>0</tilted></_>
    <_>
      <rects>
        <_>
          12 6 3 6 -1.</_>
        <_>
          13 6 1 6 3.</_></rects>
      <tilted>0</tilted></_>
    <_>
      <rects>
        <_>
          12 6 27 15 -1.</_>
        <_>
          12 11 27 5 3.</_></rects>
      <tilted>0</tilted></_>
    <_>
      <rects>
        <_>
          12 7 2 12 -1.</_>
        <_>
          12 7 1 6 2.</_>
        <_>
          13 13 1 6 2.</_></rects>
      <tilted>0</tilted></_>
    <_>
      <rects>
        <_>
          12 8 14 7 -1.</_>
        <_>
          19 8 7 7 2.</_></rects>
      <tilted>0</tilted></_>
    <_>
      <rects>
        <_>
          12 10 4 24 -1.</_>
        <_>
          12 18 4 8 3.</_></rects>
      <tilted>0</tilted></_>
    <_>
      <rects>
        <_>
          12 12 8 2 -1.</_>
        <_>
          12 12 4 1 2.</_>
        <_>
          16 13 4 1 2.</_></rects>
      <tilted>0</tilted></_>
    <_>
      <rects>
        <_>
          12 13 4 8 -1.</_>
        <_>
          12 17 4 4 2.</_></rects>
      <tilted>0</tilted></_>
    <_>
      <rects>
        <_>
          12 13 6 2 -1.</_>
        <_>
          12 14 6 1 2.</_></rects>
      <tilted>0</tilted></_>
    <_>
      <rects>
        <_>
          12 14 14 1 -1.</_>
        <_>
          19 14 7 1 2.</_></rects>
      <tilted>0</tilted></_>
    <_>
      <rects>
        <_>
          12 16 3 5 -1.</_>
        <_>
          13 16 1 5 3.</_></rects>
      <tilted>0</tilted></_>
    <_>
      <rects>
        <_>
          12 17 33 2 -1.</_>
        <_>
          23 17 11 2 3.</_></rects>
      <tilted>0</tilted></_>
    <_>
      <rects>
        <_>
          12 18 3 2 -1.</_>
        <_>
          13 18 1 2 3.</_></rects>
      <tilted>0</tilted></_>
    <_>
      <rects>
        <_>
          12 21 8 22 -1.</_>
        <_>
          12 21 4 11 2.</_>
        <_>
          16 32 4 11 2.</_></rects>
      <tilted>0</tilted></_>
    <_>
      <rects>
        <_>
          12 33 18 1 -1.</_>
        <_>
          21 33 9 1 2.</_></rects>
      <tilted>0</tilted></_>
    <_>
      <rects>
        <_>
          13 1 26 30 -1.</_>
        <_>
          13 1 13 15 2.</_>
        <_>
          26 16 13 15 2.</_></rects>
      <tilted>0</tilted></_>
    <_>
      <rects>
        <_>
          13 2 21 15 -1.</_>
        <_>
          20 2 7 15 3.</_></rects>
      <tilted>0</tilted></_>
    <_>
      <rects>
        <_>
          13 6 3 5 -1.</_>
        <_>
          14 6 1 5 3.</_></rects>
      <tilted>0</tilted></_>
    <_>
      <rects>
        <_>
          13 6 8 18 -1.</_>
        <_>
          13 12 8 6 3.</_></rects>
      <tilted>0</tilted></_>
    <_>
      <rects>
        <_>
          13 8 14 12 -1.</_>
        <_>
          13 12 14 4 3.</_></rects>
      <tilted>0</tilted></_>
    <_>
      <rects>
        <_>
          13 8 22 4 -1.</_>
        <_>
          13 10 22 2 2.</_></rects>
      <tilted>0</tilted></_>
    <_>
      <rects>
        <_>
          13 9 2 14 -1.</_>
        <_>
          13 16 2 7 2.</_></rects>
      <tilted>0</tilted></_>
    <_>
      <rects>
        <_>
          13 9 10 12 -1.</_>
        <_>
          13 13 10 4 3.</_></rects>
      <tilted>0</tilted></_>
    <_>
      <rects>
        <_>
          13 10 2 3 -1.</_>
        <_>
          13 11 2 1 3.</_></rects>
      <tilted>0</tilted></_>
    <_>
      <rects>
        <_>
          13 12 1 6 -1.</_>
        <_>
          13 15 1 3 2.</_></rects>
      <tilted>0</tilted></_>
    <_>
      <rects>
        <_>
          13 12 24 6 -1.</_>
        <_>
          21 12 8 6 3.</_></rects>
      <tilted>0</tilted></_>
    <_>
      <rects>
        <_>
          13 13 1 8 -1.</_>
        <_>
          13 17 1 4 2.</_></rects>
      <tilted>0</tilted></_>
    <_>
      <rects>
        <_>
          13 13 2 16 -1.</_>
        <_>
          13 13 1 8 2.</_>
        <_>
          14 21 1 8 2.</_></rects>
      <tilted>0</tilted></_>
    <_>
      <rects>
        <_>
          13 14 10 1 -1.</_>
        <_>
          18 14 5 1 2.</_></rects>
      <tilted>0</tilted></_>
    <_>
      <rects>
        <_>
          13 15 16 2 -1.</_>
        <_>
          21 15 8 2 2.</_></rects>
      <tilted>0</tilted></_>
    <_>
      <rects>
        <_>
          13 23 3 2 -1.</_>
        <_>
          14 23 1 2 3.</_></rects>
      <tilted>0</tilted></_>
    <_>
      <rects>
        <_>
          13 27 10 6 -1.</_>
        <_>
          13 27 5 3 2.</_>
        <_>
          18 30 5 3 2.</_></rects>
      <tilted>0</tilted></_>
    <_>
      <rects>
        <_>
          13 34 16 3 -1.</_>
        <_>
          13 35 16 1 3.</_></rects>
      <tilted>0</tilted></_>
    <_>
      <rects>
        <_>
          14 0 3 9 -1.</_>
        <_>
          15 0 1 9 3.</_></rects>
      <tilted>0</tilted></_>
    <_>
      <rects>
        <_>
          14 2 4 21 -1.</_>
        <_>
          14 9 4 7 3.</_></rects>
      <tilted>0</tilted></_>
    <_>
      <rects>
        <_>
          14 6 3 1 -1.</_>
        <_>
          15 6 1 1 3.</_></rects>
      <tilted>0</tilted></_>
    <_>
      <rects>
        <_>
          14 6 1 21 -1.</_>
        <_>
          14 13 1 7 3.</_></rects>
      <tilted>0</tilted></_>
    <_>
      <rects>
        <_>
          14 6 29 8 -1.</_>
        <_>
          14 10 29 4 2.</_></rects>
      <tilted>0</tilted></_>
    <_>
      <rects>
        <_>
          14 9 12 32 -1.</_>
        <_>
          14 25 12 16 2.</_></rects>
      <tilted>0</tilted></_>
    <_>
      <rects>
        <_>
          14 10 1 6 -1.</_>
        <_>
          14 13 1 3 2.</_></rects>
      <tilted>0</tilted></_>
    <_>
      <rects>
        <_>
          14 10 2 16 -1.</_>
        <_>
          14 18 2 8 2.</_></rects>
      <tilted>0</tilted></_>
    <_>
      <rects>
        <_>
          14 13 26 20 -1.</_>
        <_>
          14 13 13 10 2.</_>
        <_>
          27 23 13 10 2.</_></rects>
      <tilted>0</tilted></_>
    <_>
      <rects>
        <_>
          14 14 1 4 -1.</_>
        <_>
          14 16 1 2 2.</_></rects>
      <tilted>0</tilted></_>
    <_>
      <rects>
        <_>
          14 14 2 10 -1.</_>
        <_>
          14 19 2 5 2.</_></rects>
      <tilted>0</tilted></_>
    <_>
      <rects>
        <_>
          14 14 15 4 -1.</_>
        <_>
          14 16 15 2 2.</_></rects>
      <tilted>0</tilted></_>
    <_>
      <rects>
        <_>
          14 32 15 14 -1.</_>
        <_>
          14 39 15 7 2.</_></rects>
      <tilted>0</tilted></_>
    <_>
      <rects>
        <_>
          14 40 34 4 -1.</_>
        <_>
          14 40 17 2 2.</_>
        <_>
          31 42 17 2 2.</_></rects>
      <tilted>0</tilted></_>
    <_>
      <rects>
        <_>
          14 42 24 6 -1.</_>
        <_>
          14 42 12 3 2.</_>
        <_>
          26 45 12 3 2.</_></rects>
      <tilted>0</tilted></_>
    <_>
      <rects>
        <_>
          15 1 1 12 -1.</_>
        <_>
          15 5 1 4 3.</_></rects>
      <tilted>0</tilted></_>
    <_>
      <rects>
        <_>
          15 1 3 5 -1.</_>
        <_>
          16 1 1 5 3.</_></rects>
      <tilted>0</tilted></_>
    <_>
      <rects>
        <_>
          15 5 3 5 -1.</_>
        <_>
          16 5 1 5 3.</_></rects>
      <tilted>0</tilted></_>
    <_>
      <rects>
        <_>
          15 7 3 18 -1.</_>
        <_>
          15 16 3 9 2.</_></rects>
      <tilted>0</tilted></_>
    <_>
      <rects>
        <_>
          15 11 10 17 -1.</_>
        <_>
          20 11 5 17 2.</_></rects>
      <tilted>0</tilted></_>
    <_>
      <rects>
        <_>
          15 17 3 3 -1.</_>
        <_>
          16 17 1 3 3.</_></rects>
      <tilted>0</tilted></_>
    <_>
      <rects>
        <_>
          15 19 25 12 -1.</_>
        <_>
          15 25 25 6 2.</_></rects>
      <tilted>0</tilted></_>
    <_>
      <rects>
        <_>
          16 1 1 12 -1.</_>
        <_>
          16 5 1 4 3.</_></rects>
      <tilted>0</tilted></_>
    <_>
      <rects>
        <_>
          16 5 8 8 -1.</_>
        <_>
          16 5 4 4 2.</_>
        <_>
          20 9 4 4 2.</_></rects>
      <tilted>0</tilted></_>
    <_>
      <rects>
        <_>
          16 7 18 8 -1.</_>
        <_>
          22 7 6 8 3.</_></rects>
      <tilted>0</tilted></_>
    <_>
      <rects>
        <_>
          16 7 8 15 -1.</_>
        <_>
          16 12 8 5 3.</_></rects>
      <tilted>0</tilted></_>
    <_>
      <rects>
        <_>
          16 8 12 2 -1.</_>
        <_>
          20 8 4 2 3.</_></rects>
      <tilted>0</tilted></_>
    <_>
      <rects>
        <_>
          16 9 10 9 -1.</_>
        <_>
          21 9 5 9 2.</_></rects>
      <tilted>0</tilted></_>
    <_>
      <rects>
        <_>
          16 10 10 5 -1.</_>
        <_>
          21 10 5 5 2.</_></rects>
      <tilted>0</tilted></_>
    <_>
      <rects>
        <_>
          16 10 31 30 -1.</_>
        <_>
          16 25 31 15 2.</_></rects>
      <tilted>0</tilted></_>
    <_>
      <rects>
        <_>
          16 15 9 11 -1.</_>
        <_>
          19 15 3 11 3.</_></rects>
      <tilted>0</tilted></_>
    <_>
      <rects>
        <_>
          16 19 30 28 -1.</_>
        <_>
          26 19 10 28 3.</_></rects>
      <tilted>0</tilted></_>
    <_>
      <rects>
        <_>
          16 26 10 2 -1.</_>
        <_>
          16 26 5 1 2.</_>
        <_>
          21 27 5 1 2.</_></rects>
      <tilted>0</tilted></_>
    <_>
      <rects>
        <_>
          16 38 3 9 -1.</_>
        <_>
          16 41 3 3 3.</_></rects>
      <tilted>0</tilted></_>
    <_>
      <rects>
        <_>
          17 1 4 4 -1.</_>
        <_>
          17 1 2 2 2.</_>
        <_>
          19 3 2 2 2.</_></rects>
      <tilted>0</tilted></_>
    <_>
      <rects>
        <_>
          17 9 8 6 -1.</_>
        <_>
          21 9 4 6 2.</_></rects>
      <tilted>0</tilted></_>
    <_>
      <rects>
        <_>
          17 25 1 9 -1.</_>
        <_>
          17 28 1 3 3.</_></rects>
      <tilted>0</tilted></_>
    <_>
      <rects>
        <_>
          17 31 18 8 -1.</_>
        <_>
          23 31 6 8 3.</_></rects>
      <tilted>0</tilted></_>
    <_>
      <rects>
        <_>
          18 2 6 1 -1.</_>
        <_>
          20 2 2 1 3.</_></rects>
      <tilted>0</tilted></_>
    <_>
      <rects>
        <_>
          18 4 2 9 -1.</_>
        <_>
          19 4 1 9 2.</_></rects>
      <tilted>0</tilted></_>
    <_>
      <rects>
        <_>
          18 4 2 14 -1.</_>
        <_>
          18 11 2 7 2.</_></rects>
      <tilted>0</tilted></_>
    <_>
      <rects>
        <_>
          18 6 3 8 -1.</_>
        <_>
          18 10 3 4 2.</_></rects>
      <tilted>0</tilted></_>
    <_>
      <rects>
        <_>
          18 10 12 9 -1.</_>
        <_>
          22 10 4 9 3.</_></rects>
      <tilted>0</tilted></_>
    <_>
      <rects>
        <_>
          18 10 12 20 -1.</_>
        <_>
          22 10 4 20 3.</_></rects>
      <tilted>0</tilted></_>
    <_>
      <rects>
        <_>
          18 12 12 11 -1.</_>
        <_>
          22 12 4 11 3.</_></rects>
      <tilted>0</tilted></_>
    <_>
      <rects>
        <_>
          18 13 8 1 -1.</_>
        <_>
          22 13 4 1 2.</_></rects>
      <tilted>0</tilted></_>
    <_>
      <rects>
        <_>
          18 13 4 3 -1.</_>
        <_>
          18 14 4 1 3.</_></rects>
      <tilted>0</tilted></_>
    <_>
      <rects>
        <_>
          18 25 18 3 -1.</_>
        <_>
          18 26 18 1 3.</_></rects>
      <tilted>0</tilted></_>
    <_>
      <rects>
        <_>
          19 0 3 10 -1.</_>
        <_>
          20 0 1 10 3.</_></rects>
      <tilted>0</tilted></_>
    <_>
      <rects>
        <_>
          19 1 15 10 -1.</_>
        <_>
          24 1 5 10 3.</_></rects>
      <tilted>0</tilted></_>
    <_>
      <rects>
        <_>
          19 4 19 18 -1.</_>
        <_>
          19 10 19 6 3.</_></rects>
      <tilted>0</tilted></_>
    <_>
      <rects>
        <_>
          19 5 3 21 -1.</_>
        <_>
          19 12 3 7 3.</_></rects>
      <tilted>0</tilted></_>
    <_>
      <rects>
        <_>
          19 10 4 4 -1.</_>
        <_>
          19 12 4 2 2.</_></rects>
      <tilted>0</tilted></_>
    <_>
      <rects>
        <_>
          20 0 12 5 -1.</_>
        <_>
          24 0 4 5 3.</_></rects>
      <tilted>0</tilted></_>
    <_>
      <rects>
        <_>
          20 6 24 21 -1.</_>
        <_>
          28 6 8 21 3.</_></rects>
      <tilted>0</tilted></_>
    <_>
      <rects>
        <_>
          20 8 9 8 -1.</_>
        <_>
          23 8 3 8 3.</_></rects>
      <tilted>0</tilted></_>
    <_>
      <rects>
        <_>
          20 8 26 28 -1.</_>
        <_>
          20 8 13 14 2.</_>
        <_>
          33 22 13 14 2.</_></rects>
      <tilted>0</tilted></_>
    <_>
      <rects>
        <_>
          20 9 2 2 -1.</_>
        <_>
          20 10 2 1 2.</_></rects>
      <tilted>0</tilted></_>
    <_>
      <rects>
        <_>
          20 9 12 15 -1.</_>
        <_>
          24 9 4 15 3.</_></rects>
      <tilted>0</tilted></_>
    <_>
      <rects>
        <_>
          20 9 16 8 -1.</_>
        <_>
          28 9 8 8 2.</_></rects>
      <tilted>0</tilted></_>
    <_>
      <rects>
        <_>
          20 11 9 2 -1.</_>
        <_>
          23 11 3 2 3.</_></rects>
      <tilted>0</tilted></_>
    <_>
      <rects>
        <_>
          20 12 9 5 -1.</_>
        <_>
          23 12 3 5 3.</_></rects>
      <tilted>0</tilted></_>
    <_>
      <rects>
        <_>
          20 12 9 6 -1.</_>
        <_>
          23 12 3 6 3.</_></rects>
      <tilted>0</tilted></_>
    <_>
      <rects>
        <_>
          20 12 9 10 -1.</_>
        <_>
          23 12 3 10 3.</_></rects>
      <tilted>0</tilted></_>
    <_>
      <rects>
        <_>
          20 24 4 12 -1.</_>
        <_>
          20 30 4 6 2.</_></rects>
      <tilted>0</tilted></_>
    <_>
      <rects>
        <_>
          20 38 8 2 -1.</_>
        <_>
          20 39 8 1 2.</_></rects>
      <tilted>0</tilted></_>
    <_>
      <rects>
        <_>
          21 0 12 39 -1.</_>
        <_>
          25 0 4 39 3.</_></rects>
      <tilted>0</tilted></_>
    <_>
      <rects>
        <_>
          21 8 16 11 -1.</_>
        <_>
          29 8 8 11 2.</_></rects>
      <tilted>0</tilted></_>
    <_>
      <rects>
        <_>
          21 12 17 28 -1.</_>
        <_>
          21 26 17 14 2.</_></rects>
      <tilted>0</tilted></_>
    <_>
      <rects>
        <_>
          21 16 4 2 -1.</_>
        <_>
          21 17 4 1 2.</_></rects>
      <tilted>0</tilted></_>
    <_>
      <rects>
        <_>
          21 16 8 18 -1.</_>
        <_>
          25 16 4 18 2.</_></rects>
      <tilted>0</tilted></_>
    <_>
      <rects>
        <_>
          21 16 27 2 -1.</_>
        <_>
          30 16 9 2 3.</_></rects>
      <tilted>0</tilted></_>
    <_>
      <rects>
        <_>
          21 25 11 6 -1.</_>
        <_>
          21 27 11 2 3.</_></rects>
      <tilted>0</tilted></_>
    <_>
      <rects>
        <_>
          22 2 26 16 -1.</_>
        <_>
          35 2 13 16 2.</_></rects>
      <tilted>0</tilted></_>
    <_>
      <rects>
        <_>
          22 7 8 17 -1.</_>
        <_>
          26 7 4 17 2.</_></rects>
      <tilted>0</tilted></_>
    <_>
      <rects>
        <_>
          22 8 12 9 -1.</_>
        <_>
          28 8 6 9 2.</_></rects>
      <tilted>0</tilted></_>
    <_>
      <rects>
        <_>
          22 13 2 2 -1.</_>
        <_>
          22 13 1 1 2.</_>
        <_>
          23 14 1 1 2.</_></rects>
      <tilted>0</tilted></_>
    <_>
      <rects>
        <_>
          22 13 4 12 -1.</_>
        <_>
          24 13 2 12 2.</_></rects>
      <tilted>0</tilted></_>
    <_>
      <rects>
        <_>
          22 26 5 6 -1.</_>
        <_>
          22 28 5 2 3.</_></rects>
      <tilted>0</tilted></_>
    <_>
      <rects>
        <_>
          22 31 26 16 -1.</_>
        <_>
          22 31 13 8 2.</_>
        <_>
          35 39 13 8 2.</_></rects>
      <tilted>0</tilted></_>
    <_>
      <rects>
        <_>
          22 34 26 6 -1.</_>
        <_>
          22 34 13 3 2.</_>
        <_>
          35 37 13 3 2.</_></rects>
      <tilted>0</tilted></_>
    <_>
      <rects>
        <_>
          22 38 24 10 -1.</_>
        <_>
          22 38 12 5 2.</_>
        <_>
          34 43 12 5 2.</_></rects>
      <tilted>0</tilted></_>
    <_>
      <rects>
        <_>
          23 4 1 36 -1.</_>
        <_>
          23 22 1 18 2.</_></rects>
      <tilted>0</tilted></_>
    <_>
      <rects>
        <_>
          23 4 6 1 -1.</_>
        <_>
          25 4 2 1 3.</_></rects>
      <tilted>0</tilted></_>
    <_>
      <rects>
        <_>
          23 4 12 14 -1.</_>
        <_>
          29 4 6 14 2.</_></rects>
      <tilted>0</tilted></_>
    <_>
      <rects>
        <_>
          23 6 1 32 -1.</_>
        <_>
          23 22 1 16 2.</_></rects>
      <tilted>0</tilted></_>
    <_>
      <rects>
        <_>
          23 9 1 28 -1.</_>
        <_>
          23 23 1 14 2.</_></rects>
      <tilted>0</tilted></_>
    <_>
      <rects>
        <_>
          23 10 10 6 -1.</_>
        <_>
          28 10 5 6 2.</_></rects>
      <tilted>0</tilted></_>
    <_>
      <rects>
        <_>
          23 10 18 7 -1.</_>
        <_>
          29 10 6 7 3.</_></rects>
      <tilted>0</tilted></_>
    <_>
      <rects>
        <_>
          23 13 4 6 -1.</_>
        <_>
          25 13 2 6 2.</_></rects>
      <tilted>0</tilted></_>
    <_>
      <rects>
        <_>
          23 27 22 12 -1.</_>
        <_>
          23 27 11 6 2.</_>
        <_>
          34 33 11 6 2.</_></rects>
      <tilted>0</tilted></_>
    <_>
      <rects>
        <_>
          23 40 5 6 -1.</_>
        <_>
          23 42 5 2 3.</_></rects>
      <tilted>0</tilted></_>
    <_>
      <rects>
        <_>
          24 0 14 18 -1.</_>
        <_>
          24 6 14 6 3.</_></rects>
      <tilted>0</tilted></_>
    <_>
      <rects>
        <_>
          24 1 6 10 -1.</_>
        <_>
          26 1 2 10 3.</_></rects>
      <tilted>0</tilted></_>
    <_>
      <rects>
        <_>
          24 3 2 2 -1.</_>
        <_>
          24 3 1 1 2.</_>
        <_>
          25 4 1 1 2.</_></rects>
      <tilted>0</tilted></_>
    <_>
      <rects>
        <_>
          24 8 1 24 -1.</_>
        <_>
          24 20 1 12 2.</_></rects>
      <tilted>0</tilted></_>
    <_>
      <rects>
        <_>
          24 8 6 8 -1.</_>
        <_>
          24 8 3 4 2.</_>
        <_>
          27 12 3 4 2.</_></rects>
      <tilted>0</tilted></_>
    <_>
      <rects>
        <_>
          24 9 12 5 -1.</_>
        <_>
          28 9 4 5 3.</_></rects>
      <tilted>0</tilted></_>
    <_>
      <rects>
        <_>
          24 21 24 12 -1.</_>
        <_>
          32 21 8 12 3.</_></rects>
      <tilted>0</tilted></_>
    <_>
      <rects>
        <_>
          24 29 12 9 -1.</_>
        <_>
          24 32 12 3 3.</_></rects>
      <tilted>0</tilted></_>
    <_>
      <rects>
        <_>
          24 32 3 14 -1.</_>
        <_>
          24 39 3 7 2.</_></rects>
      <tilted>0</tilted></_>
    <_>
      <rects>
        <_>
          25 2 13 15 -1.</_>
        <_>
          25 7 13 5 3.</_></rects>
      <tilted>0</tilted></_>
    <_>
      <rects>
        <_>
          25 7 9 5 -1.</_>
        <_>
          28 7 3 5 3.</_></rects>
      <tilted>0</tilted></_>
    <_>
      <rects>
        <_>
          25 14 8 7 -1.</_>
        <_>
          29 14 4 7 2.</_></rects>
      <tilted>0</tilted></_>
    <_>
      <rects>
        <_>
          25 33 6 11 -1.</_>
        <_>
          27 33 2 11 3.</_></rects>
      <tilted>0</tilted></_>
    <_>
      <rects>
        <_>
          26 1 20 22 -1.</_>
        <_>
          26 1 10 11 2.</_>
        <_>
          36 12 10 11 2.</_></rects>
      <tilted>0</tilted></_>
    <_>
      <rects>
        <_>
          26 6 2 10 -1.</_>
        <_>
          27 6 1 10 2.</_></rects>
      <tilted>0</tilted></_>
    <_>
      <rects>
        <_>
          26 8 6 24 -1.</_>
        <_>
          26 16 6 8 3.</_></rects>
      <tilted>0</tilted></_>
    <_>
      <rects>
        <_>
          26 20 21 5 -1.</_>
        <_>
          33 20 7 5 3.</_></rects>
      <tilted>0</tilted></_>
    <_>
      <rects>
        <_>
          26 23 22 10 -1.</_>
        <_>
          37 23 11 10 2.</_></rects>
      <tilted>0</tilted></_>
    <_>
      <rects>
        <_>
          26 25 18 5 -1.</_>
        <_>
          35 25 9 5 2.</_></rects>
      <tilted>0</tilted></_>
    <_>
      <rects>
        <_>
          27 0 20 24 -1.</_>
        <_>
          27 0 10 12 2.</_>
        <_>
          37 12 10 12 2.</_></rects>
      <tilted>0</tilted></_>
    <_>
      <rects>
        <_>
          27 1 19 4 -1.</_>
        <_>
          27 3 19 2 2.</_></rects>
      <tilted>0</tilted></_>
    <_>
      <rects>
        <_>
          27 2 3 8 -1.</_>
        <_>
          28 2 1 8 3.</_></rects>
      <tilted>0</tilted></_>
    <_>
      <rects>
        <_>
          27 2 18 2 -1.</_>
        <_>
          36 2 9 2 2.</_></rects>
      <tilted>0</tilted></_>
    <_>
      <rects>
        <_>
          27 44 18 4 -1.</_>
        <_>
          36 44 9 4 2.</_></rects>
      <tilted>0</tilted></_>
    <_>
      <rects>
        <_>
          28 1 20 7 -1.</_>
        <_>
          38 1 10 7 2.</_></rects>
      <tilted>0</tilted></_>
    <_>
      <rects>
        <_>
          28 2 20 6 -1.</_>
        <_>
          38 2 10 6 2.</_></rects>
      <tilted>0</tilted></_>
    <_>
      <rects>
        <_>
          28 3 16 12 -1.</_>
        <_>
          28 3 8 6 2.</_>
        <_>
          36 9 8 6 2.</_></rects>
      <tilted>0</tilted></_>
    <_>
      <rects>
        <_>
          28 4 18 12 -1.</_>
        <_>
          34 4 6 12 3.</_></rects>
      <tilted>0</tilted></_>
    <_>
      <rects>
        <_>
          28 4 20 12 -1.</_>
        <_>
          28 4 10 6 2.</_>
        <_>
          38 10 10 6 2.</_></rects>
      <tilted>0</tilted></_>
    <_>
      <rects>
        <_>
          28 5 20 24 -1.</_>
        <_>
          38 5 10 24 2.</_></rects>
      <tilted>0</tilted></_>
    <_>
      <rects>
        <_>
          28 25 16 14 -1.</_>
        <_>
          28 25 8 7 2.</_>
        <_>
          36 32 8 7 2.</_></rects>
      <tilted>0</tilted></_>
    <_>
      <rects>
        <_>
          29 6 12 15 -1.</_>
        <_>
          29 11 12 5 3.</_></rects>
      <tilted>0</tilted></_>
    <_>
      <rects>
        <_>
          29 11 11 21 -1.</_>
        <_>
          29 18 11 7 3.</_></rects>
      <tilted>0</tilted></_>
    <_>
      <rects>
        <_>
          30 1 2 3 -1.</_>
        <_>
          31 1 1 3 2.</_></rects>
      <tilted>0</tilted></_>
    <_>
      <rects>
        <_>
          30 1 4 19 -1.</_>
        <_>
          32 1 2 19 2.</_></rects>
      <tilted>0</tilted></_>
    <_>
      <rects>
        <_>
          30 3 18 5 -1.</_>
        <_>
          39 3 9 5 2.</_></rects>
      <tilted>0</tilted></_>
    <_>
      <rects>
        <_>
          30 5 3 4 -1.</_>
        <_>
          31 5 1 4 3.</_></rects>
      <tilted>0</tilted></_>
    <_>
      <rects>
        <_>
          30 6 14 14 -1.</_>
        <_>
          30 6 7 7 2.</_>
        <_>
          37 13 7 7 2.</_></rects>
      <tilted>0</tilted></_>
    <_>
      <rects>
        <_>
          31 7 16 41 -1.</_>
        <_>
          39 7 8 41 2.</_></rects>
      <tilted>0</tilted></_>
    <_>
      <rects>
        <_>
          31 9 13 24 -1.</_>
        <_>
          31 17 13 8 3.</_></rects>
      <tilted>0</tilted></_>
    <_>
      <rects>
        <_>
          31 10 3 3 -1.</_>
        <_>
          31 11 3 1 3.</_></rects>
      <tilted>0</tilted></_>
    <_>
      <rects>
        <_>
          31 10 7 3 -1.</_>
        <_>
          31 11 7 1 3.</_></rects>
      <tilted>0</tilted></_>
    <_>
      <rects>
        <_>
          31 13 10 8 -1.</_>
        <_>
          36 13 5 8 2.</_></rects>
      <tilted>0</tilted></_>
    <_>
      <rects>
        <_>
          31 21 16 24 -1.</_>
        <_>
          31 21 8 12 2.</_>
        <_>
          39 33 8 12 2.</_></rects>
      <tilted>0</tilted></_>
    <_>
      <rects>
        <_>
          31 28 14 8 -1.</_>
        <_>
          31 32 14 4 2.</_></rects>
      <tilted>0</tilted></_>
    <_>
      <rects>
        <_>
          31 36 16 6 -1.</_>
        <_>
          31 36 8 3 2.</_>
        <_>
          39 39 8 3 2.</_></rects>
      <tilted>0</tilted></_>
    <_>
      <rects>
        <_>
          32 8 6 6 -1.</_>
        <_>
          32 10 6 2 3.</_></rects>
      <tilted>0</tilted></_>
    <_>
      <rects>
        <_>
          32 9 2 21 -1.</_>
        <_>
          32 16 2 7 3.</_></rects>
      <tilted>0</tilted></_>
    <_>
      <rects>
        <_>
          32 9 5 2 -1.</_>
        <_>
          32 10 5 1 2.</_></rects>
      <tilted>0</tilted></_>
    <_>
      <rects>
        <_>
          32 15 3 12 -1.</_>
        <_>
          32 21 3 6 2.</_></rects>
      <tilted>0</tilted></_>
    <_>
      <rects>
        <_>
          32 16 14 9 -1.</_>
        <_>
          39 16 7 9 2.</_></rects>
      <tilted>0</tilted></_>
    <_>
      <rects>
        <_>
          32 27 12 14 -1.</_>
        <_>
          32 27 6 7 2.</_>
        <_>
          38 34 6 7 2.</_></rects>
      <tilted>0</tilted></_>
    <_>
      <rects>
        <_>
          32 38 12 1 -1.</_>
        <_>
          38 38 6 1 2.</_></rects>
      <tilted>0</tilted></_>
    <_>
      <rects>
        <_>
          32 40 1 8 -1.</_>
        <_>
          32 44 1 4 2.</_></rects>
      <tilted>0</tilted></_>
    <_>
      <rects>
        <_>
          33 4 2 42 -1.</_>
        <_>
          33 18 2 14 3.</_></rects>
      <tilted>0</tilted></_>
    <_>
      <rects>
        <_>
          33 10 10 20 -1.</_>
        <_>
          33 10 5 10 2.</_>
        <_>
          38 20 5 10 2.</_></rects>
      <tilted>0</tilted></_>
    <_>
      <rects>
        <_>
          33 11 1 12 -1.</_>
        <_>
          33 17 1 6 2.</_></rects>
      <tilted>0</tilted></_>
    <_>
      <rects>
        <_>
          33 11 5 4 -1.</_>
        <_>
          33 13 5 2 2.</_></rects>
      <tilted>0</tilted></_>
    <_>
      <rects>
        <_>
          33 12 2 21 -1.</_>
        <_>
          33 19 2 7 3.</_></rects>
      <tilted>0</tilted></_>
    <_>
      <rects>
        <_>
          33 13 4 10 -1.</_>
        <_>
          33 18 4 5 2.</_></rects>
      <tilted>0</tilted></_>
    <_>
      <rects>
        <_>
          34 0 14 42 -1.</_>
        <_>
          41 0 7 42 2.</_></rects>
      <tilted>0</tilted></_>
    <_>
      <rects>
        <_>
          34 1 14 32 -1.</_>
        <_>
          41 1 7 32 2.</_></rects>
      <tilted>0</tilted></_>
    <_>
      <rects>
        <_>
          34 4 2 16 -1.</_>
        <_>
          34 4 1 8 2.</_>
        <_>
          35 12 1 8 2.</_></rects>
      <tilted>0</tilted></_>
    <_>
      <rects>
        <_>
          34 4 10 18 -1.</_>
        <_>
          39 4 5 18 2.</_></rects>
      <tilted>0</tilted></_>
    <_>
      <rects>
        <_>
          34 5 4 1 -1.</_>
        <_>
          36 5 2 1 2.</_></rects>
      <tilted>0</tilted></_>
    <_>
      <rects>
        <_>
          34 7 4 6 -1.</_>
        <_>
          34 7 2 3 2.</_>
        <_>
          36 10 2 3 2.</_></rects>
      <tilted>0</tilted></_>
    <_>
      <rects>
        <_>
          34 10 7 24 -1.</_>
        <_>
          34 18 7 8 3.</_></rects>
      <tilted>0</tilted></_>
    <_>
      <rects>
        <_>
          35 2 13 4 -1.</_>
        <_>
          35 4 13 2 2.</_></rects>
      <tilted>0</tilted></_>
    <_>
      <rects>
        <_>
          35 5 2 28 -1.</_>
        <_>
          35 19 2 14 2.</_></rects>
      <tilted>0</tilted></_>
    <_>
      <rects>
        <_>
          35 6 4 33 -1.</_>
        <_>
          35 17 4 11 3.</_></rects>
      <tilted>0</tilted></_>
    <_>
      <rects>
        <_>
          36 1 12 28 -1.</_>
        <_>
          42 1 6 28 2.</_></rects>
      <tilted>0</tilted></_>
    <_>
      <rects>
        <_>
          36 2 10 8 -1.</_>
        <_>
          36 6 10 4 2.</_></rects>
      <tilted>0</tilted></_>
    <_>
      <rects>
        <_>
          36 8 12 1 -1.</_>
        <_>
          42 8 6 1 2.</_></rects>
      <tilted>0</tilted></_>
    <_>
      <rects>
        <_>
          36 15 10 18 -1.</_>
        <_>
          41 15 5 18 2.</_></rects>
      <tilted>0</tilted></_>
    <_>
      <rects>
        <_>
          36 37 5 10 -1.</_>
        <_>
          36 42 5 5 2.</_></rects>
      <tilted>0</tilted></_>
    <_>
      <rects>
        <_>
          37 1 4 17 -1.</_>
        <_>
          39 1 2 17 2.</_></rects>
      <tilted>0</tilted></_>
    <_>
      <rects>
        <_>
          37 17 8 18 -1.</_>
        <_>
          41 17 4 18 2.</_></rects>
      <tilted>0</tilted></_>
    <_>
      <rects>
        <_>
          38 0 7 42 -1.</_>
        <_>
          38 14 7 14 3.</_></rects>
      <tilted>0</tilted></_>
    <_>
      <rects>
        <_>
          38 29 10 10 -1.</_>
        <_>
          43 29 5 10 2.</_></rects>
      <tilted>0</tilted></_>
    <_>
      <rects>
        <_>
          39 7 8 35 -1.</_>
        <_>
          43 7 4 35 2.</_></rects>
      <tilted>0</tilted></_>
    <_>
      <rects>
        <_>
          39 12 9 11 -1.</_>
        <_>
          42 12 3 11 3.</_></rects>
      <tilted>0</tilted></_>
    <_>
      <rects>
        <_>
          40 4 1 2 -1.</_>
        <_>
          40 5 1 1 2.</_></rects>
      <tilted>0</tilted></_>
    <_>
      <rects>
        <_>
          40 6 8 27 -1.</_>
        <_>
          44 6 4 27 2.</_></rects>
      <tilted>0</tilted></_>
    <_>
      <rects>
        <_>
          40 8 8 3 -1.</_>
        <_>
          44 8 4 3 2.</_></rects>
      <tilted>0</tilted></_>
    <_>
      <rects>
        <_>
          43 19 4 26 -1.</_>
        <_>
          43 19 2 13 2.</_>
        <_>
          45 32 2 13 2.</_></rects>
      <tilted>0</tilted></_>
    <_>
      <rects>
        <_>
          44 9 4 20 -1.</_>
        <_>
          46 9 2 20 2.</_></rects>
      <tilted>0</tilted></_>
    <_>
      <rects>
        <_>
          45 25 2 7 -1.</_>
        <_>
          46 25 1 7 2.</_></rects>
      <tilted>0</tilted></_>
    <_>
      <rects>
        <_>
          47 34 1 14 -1.</_>
        <_>
          47 41 1 7 2.</_></rects>
      <tilted>0</tilted></_></features></cascade>
</opencv_storage>
