<?xml version="1.0"?>
<opencv_storage>
<cascade>
  <stageType>BOOST</stageType>
  <featureType>HAAR</featureType>
  <height>48</height>
  <width>48</width>
  <stageParams>
    <boostType>GAB</boostType>
    <minHitRate>9.9500000476837158e-01</minHitRate>
    <maxFalseAlarm>5.0000000000000000e-01</maxFalseAlarm>
    <weightTrimRate>9.4999999999999996e-01</weightTrimRate>
    <maxDepth>1</maxDepth>
    <maxWeakCount>150</maxWeakCount></stageParams>
  <featureParams>
    <maxCatCount>0</maxCatCount>
    <featSize>1</featSize>
    <mode>BASIC</mode></featureParams>
  <stageNum>10</stageNum>
  <stages>
    <!-- stage 0 -->
    <_>
      <maxWeakCount>3</maxWeakCount>
      <stageThreshold>-1.2504016160964966e+00</stageThreshold>
      <weakClassifiers>
        <_>
          <internalNodes>
            0 -1 47 3.1401282176375389e-03</internalNodes>
          <leafValues>
            -8.8396281003952026e-01 5.2429670095443726e-01</leafValues></_>
        <_>
          <internalNodes>
            0 -1 79 4.2346203699707985e-03</internalNodes>
          <leafValues>
            -7.9112517833709717e-01 4.5795124769210815e-01</leafValues></_>
        <_>
          <internalNodes>
            0 -1 51 -3.2568308524787426e-03</internalNodes>
          <leafValues>
            4.2468631267547607e-01 -6.9651818275451660e-01</leafValues></_></weakClassifiers></_>
    <!-- stage 1 -->
    <_>
      <maxWeakCount>8</maxWeakCount>
      <stageThreshold>-1.6642476320266724e+00</stageThreshold>
      <weakClassifiers>
        <_>
          <internalNodes>
            0 -1 63 1.4591755345463753e-02</internalNodes>
          <leafValues>
            -8.2195848226547241e-01 2.9277566075325012e-01</leafValues></_>
        <_>
          <internalNodes>
            0 -1 29 -9.9203549325466156e-03</internalNodes>
          <leafValues>
            5.0371742248535156e-01 -6.9326096773147583e-01</leafValues></_>
        <_>
          <internalNodes>
            0 -1 25 -5.9951730072498322e-03</internalNodes>
          <leafValues>
            4.2748075723648071e-01 -5.8596909046173096e-01</leafValues></_>
        <_>
          <internalNodes>
            0 -1 14 6.1110244132578373e-03</internalNodes>
          <leafValues>
            -6.6889572143554688e-01 3.6023268103599548e-01</leafValues></_>
        <_>
          <internalNodes>
            0 -1 10 7.7771022915840149e-03</internalNodes>
          <leafValues>
            -3.7395477294921875e-01 5.9332734346389771e-01</leafValues></_>
        <_>
          <internalNodes>
            0 -1 108 -1.4132213254924864e-04</internalNodes>
          <leafValues>
            4.3267562985420227e-01 -4.3384364247322083e-01</leafValues></_>
        <_>
          <internalNodes>
            0 -1 130 -9.0041309595108032e-03</internalNodes>
          <leafValues>
            5.9637737274169922e-01 -3.2423236966133118e-01</leafValues></_>
        <_>
          <internalNodes>
            0 -1 69 -3.2437951304018497e-03</internalNodes>
          <leafValues>
            3.4221971035003662e-01 -4.3244197964668274e-01</leafValues></_></weakClassifiers></_>
    <!-- stage 2 -->
    <_>
      <maxWeakCount>12</maxWeakCount>
      <stageThreshold>-1.8679540157318115e+00</stageThreshold>
      <weakClassifiers>
        <_>
          <internalNodes>
            0 -1 4 9.3549773097038269e-02</internalNodes>
          <leafValues>
            -6.4541649818420410e-01 4.5475912094116211e-01</leafValues></_>
        <_>
          <internalNodes>
            0 -1 74 3.6018055398017168e-03</internalNodes>
          <leafValues>
            -6.6514933109283447e-01 3.8916546106338501e-01</leafValues></_>
        <_>
          <internalNodes>
            0 -1 37 2.9895976185798645e-03</internalNodes>
          <leafValues>
            -5.5136173963546753e-01 4.0052455663681030e-01</leafValues></_>
        <_>
          <internalNodes>
            0 -1 122 2.3182351142168045e-03</internalNodes>
          <leafValues>
            -4.3864119052886963e-01 3.2999721169471741e-01</leafValues></_>
        <_>
          <internalNodes>
            0 -1 97 -4.0997792966663837e-03</internalNodes>
          <leafValues>
            3.6173495650291443e-01 -3.9980223774909973e-01</leafValues></_>
        <_>
          <internalNodes>
            0 -1 0 2.4491613730788231e-02</internalNodes>
          <leafValues>
            -2.1944423019886017e-01 6.2657731771469116e-01</leafValues></_>
        <_>
          <internalNodes>
            0 -1 60 -9.6198826213367283e-05</internalNodes>
          <leafValues>
            -8.3501428365707397e-01 1.4618347585201263e-01</leafValues></_>
        <_>
          <internalNodes>
            0 -1 67 -7.9630277468822896e-05</internalNodes>
          <leafValues>
            2.7197027206420898e-01 -4.1700467467308044e-01</leafValues></_>
        <_>
          <internalNodes>
            0 -1 51 -1.9095973111689091e-03</internalNodes>
          <leafValues>
            2.4904182553291321e-01 -4.7079142928123474e-01</leafValues></_>
        <_>
          <internalNodes>
            0 -1 126 -4.3463476002216339e-02</internalNodes>
          <leafValues>
            5.6835573911666870e-01 -2.2588573396205902e-01</leafValues></_>
        <_>
          <internalNodes>
            0 -1 81 1.6804651750135235e-05</internalNodes>
          <leafValues>
            -4.1606816649436951e-01 2.7803274989128113e-01</leafValues></_>
        <_>
          <internalNodes>
            0 -1 57 3.0108503997325897e-03</internalNodes>
          <leafValues>
            -5.0868207216262817e-01 2.1695585548877716e-01</leafValues></_></weakClassifiers></_>
    <!-- stage 3 -->
    <_>
      <maxWeakCount>9</maxWeakCount>
      <stageThreshold>-1.3765019178390503e+00</stageThreshold>
      <weakClassifiers>
        <_>
          <internalNodes>
            0 -1 52 -2.2570189321413636e-04</internalNodes>
          <leafValues>
            3.2304525375366211e-01 -6.4792901277542114e-01</leafValues></_>
        <_>
          <internalNodes>
            0 -1 98 -2.9991553165018559e-03</internalNodes>
          <leafValues>
            2.7866989374160767e-01 -7.2057640552520752e-01</leafValues></_>
        <_>
          <internalNodes>
            0 -1 35 1.5482685994356871e-03</internalNodes>
          <leafValues>
            -8.3676266670227051e-01 1.9929940998554230e-01</leafValues></_>
        <_>
          <internalNodes>
            0 -1 72 -2.1095984266139567e-04</internalNodes>
          <leafValues>
            3.5637292265892029e-01 -5.1273202896118164e-01</leafValues></_>
        <_>
          <internalNodes>
            0 -1 124 -6.0571916401386261e-02</internalNodes>
          <leafValues>
            6.9057869911193848e-01 -2.6440221071243286e-01</leafValues></_>
        <_>
          <internalNodes>
            0 -1 86 4.8451439943164587e-04</internalNodes>
          <leafValues>
            -5.2293318510055542e-01 3.4376367926597595e-01</leafValues></_>
        <_>
          <internalNodes>
            0 -1 65 5.1557682454586029e-03</internalNodes>
          <leafValues>
            -5.4533112049102783e-01 2.4061046540737152e-01</leafValues></_>
        <_>
          <internalNodes>
            0 -1 9 4.5811630785465240e-02</internalNodes>
          <leafValues>
            -2.5951689481735229e-01 5.6171482801437378e-01</leafValues></_>
        <_>
          <internalNodes>
            0 -1 17 -2.1308063878677785e-05</internalNodes>
          <leafValues>
            2.8836402297019958e-01 -4.0358418226242065e-01</leafValues></_></weakClassifiers></_>
    <!-- stage 4 -->
    <_>
      <maxWeakCount>13</maxWeakCount>
      <stageThreshold>-1.6803309917449951e+00</stageThreshold>
      <weakClassifiers>
        <_>
          <internalNodes>
            0 -1 107 1.4020134694874287e-02</internalNodes>
          <leafValues>
            -6.7113018035888672e-01 2.2330096364021301e-01</leafValues></_>
        <_>
          <internalNodes>
            0 -1 13 3.7842313759028912e-03</internalNodes>
          <leafValues>
            -5.3443408012390137e-01 3.3875390887260437e-01</leafValues></_>
        <_>
          <internalNodes>
            0 -1 28 1.1137073859572411e-02</internalNodes>
          <leafValues>
            -5.8709985017776489e-01 2.4207852780818939e-01</leafValues></_>
        <_>
          <internalNodes>
            0 -1 32 9.9675450474023819e-03</internalNodes>
          <leafValues>
            -5.6301492452621460e-01 2.2596254944801331e-01</leafValues></_>
        <_>
          <internalNodes>
            0 -1 112 2.5444808416068554e-03</internalNodes>
          <leafValues>
            -3.8721051812171936e-01 3.1879386305809021e-01</leafValues></_>
        <_>
          <internalNodes>
            0 -1 82 -1.2838587281294167e-04</internalNodes>
          <leafValues>
            -7.2584164142608643e-01 1.6269154846668243e-01</leafValues></_>
        <_>
          <internalNodes>
            0 -1 6 1.0343171656131744e-02</internalNodes>
          <leafValues>
            -2.4508646130561829e-01 5.1137536764144897e-01</leafValues></_>
        <_>
          <internalNodes>
            0 -1 82 2.6318788877688348e-04</internalNodes>
          <leafValues>
            9.6977271139621735e-02 -8.4881186485290527e-01</leafValues></_>
        <_>
          <internalNodes>
            0 -1 38 5.0906613469123840e-03</internalNodes>
          <leafValues>
            1.7051304876804352e-01 -5.2155667543411255e-01</leafValues></_>
        <_>
          <internalNodes>
            0 -1 92 8.8157161371782422e-05</internalNodes>
          <leafValues>
            -4.3322348594665527e-01 2.4003784358501434e-01</leafValues></_>
        <_>
          <internalNodes>
            0 -1 109 2.0288862287998199e-03</internalNodes>
          <leafValues>
            -3.2993769645690918e-01 2.8937545418739319e-01</leafValues></_>
        <_>
          <internalNodes>
            0 -1 50 3.1789785134606063e-04</internalNodes>
          <leafValues>
            1.2005878239870071e-01 -7.3560851812362671e-01</leafValues></_>
        <_>
          <internalNodes>
            0 -1 119 1.5276373596861959e-04</internalNodes>
          <leafValues>
            8.4938533604145050e-02 -8.6266368627548218e-01</leafValues></_></weakClassifiers></_>
    <!-- stage 5 -->
    <_>
      <maxWeakCount>16</maxWeakCount>
      <stageThreshold>-1.8340369462966919e+00</stageThreshold>
      <weakClassifiers>
        <_>
          <internalNodes>
            0 -1 39 -3.0085747130215168e-03</internalNodes>
          <leafValues>
            1.7335610091686249e-01 -6.5773648023605347e-01</leafValues></_>
        <_>
          <internalNodes>
            0 -1 103 -1.2883807066828012e-03</internalNodes>
          <leafValues>
            2.5715994834899902e-01 -5.4829692840576172e-01</leafValues></_>
        <_>
          <internalNodes>
            0 -1 125 -4.3712528422474861e-03</internalNodes>
          <leafValues>
            4.2203789949417114e-01 -3.4162530303001404e-01</leafValues></_>
        <_>
          <internalNodes>
            0 -1 18 5.2380435168743134e-02</internalNodes>
          <leafValues>
            -4.4236761331558228e-01 2.9923063516616821e-01</leafValues></_>
        <_>
          <internalNodes>
            0 -1 78 3.3240844495594501e-03</internalNodes>
          <leafValues>
            -4.9663710594177246e-01 2.3683011531829834e-01</leafValues></_>
        <_>
          <internalNodes>
            0 -1 27 6.4378296956419945e-03</internalNodes>
          <leafValues>
            -3.3696317672729492e-01 3.2996073365211487e-01</leafValues></_>
        <_>
          <internalNodes>
            0 -1 8 3.5948697477579117e-02</internalNodes>
          <leafValues>
            -2.0631581544876099e-01 4.8455238342285156e-01</leafValues></_>
        <_>
          <internalNodes>
            0 -1 105 -1.4933318016119301e-04</internalNodes>
          <leafValues>
            -7.4820607900619507e-01 1.3691814243793488e-01</leafValues></_>
        <_>
          <internalNodes>
            0 -1 114 -1.5014172822702676e-04</internalNodes>
          <leafValues>
            2.0342810451984406e-01 -3.8146394491195679e-01</leafValues></_>
        <_>
          <internalNodes>
            0 -1 111 1.7698893789201975e-03</internalNodes>
          <leafValues>
            1.0578234493732452e-01 -7.9124927520751953e-01</leafValues></_>
        <_>
          <internalNodes>
            0 -1 118 1.9956729374825954e-03</internalNodes>
          <leafValues>
            -1.7646390199661255e-01 5.1364040374755859e-01</leafValues></_>
        <_>
          <internalNodes>
            0 -1 49 -3.1796455383300781e-02</internalNodes>
          <leafValues>
            -4.8614025115966797e-01 1.8217813968658447e-01</leafValues></_>
        <_>
          <internalNodes>
            0 -1 48 1.6109028365463018e-04</internalNodes>
          <leafValues>
            -5.4265409708023071e-01 1.3424341380596161e-01</leafValues></_>
        <_>
          <internalNodes>
            0 -1 59 2.9978516977280378e-04</internalNodes>
          <leafValues>
            1.4060661196708679e-01 -5.7011991739273071e-01</leafValues></_>
        <_>
          <internalNodes>
            0 -1 45 3.8150494219735265e-04</internalNodes>
          <leafValues>
            8.0443307757377625e-02 -7.4577713012695312e-01</leafValues></_>
        <_>
          <internalNodes>
            0 -1 75 2.9780779033899307e-02</internalNodes>
          <leafValues>
            1.3997709751129150e-01 -4.8880618810653687e-01</leafValues></_></weakClassifiers></_>
    <!-- stage 6 -->
    <_>
      <maxWeakCount>16</maxWeakCount>
      <stageThreshold>-1.4714843034744263e+00</stageThreshold>
      <weakClassifiers>
        <_>
          <internalNodes>
            0 -1 116 3.7370917852967978e-03</internalNodes>
          <leafValues>
            -7.3419541120529175e-01 1.3681592419743538e-02</leafValues></_>
        <_>
          <internalNodes>
            0 -1 54 1.0615652427077293e-03</internalNodes>
          <leafValues>
            -4.6664342284202576e-01 2.9391855001449585e-01</leafValues></_>
        <_>
          <internalNodes>
            0 -1 90 3.5043684765696526e-03</internalNodes>
          <leafValues>
            -4.4814315438270569e-01 2.8390991687774658e-01</leafValues></_>
        <_>
          <internalNodes>
            0 -1 2 2.4602994322776794e-02</internalNodes>
          <leafValues>
            -2.4557431042194366e-01 4.7439038753509521e-01</leafValues></_>
        <_>
          <internalNodes>
            0 -1 121 7.5305653735995293e-03</internalNodes>
          <leafValues>
            -3.6178401112556458e-01 2.5750944018363953e-01</leafValues></_>
        <_>
          <internalNodes>
            0 -1 73 -1.5258316416293383e-03</internalNodes>
          <leafValues>
            -6.9885444641113281e-01 1.2805211544036865e-01</leafValues></_>
        <_>
          <internalNodes>
            0 -1 34 -5.4310653358697891e-03</internalNodes>
          <leafValues>
            1.6014152765274048e-01 -4.7779402136802673e-01</leafValues></_>
        <_>
          <internalNodes>
            0 -1 99 5.7307956740260124e-03</internalNodes>
          <leafValues>
            -2.9983562231063843e-01 2.3774248361587524e-01</leafValues></_>
        <_>
          <internalNodes>
            0 -1 36 -2.0613539963960648e-03</internalNodes>
          <leafValues>
            1.2689852714538574e-01 -4.9518030881881714e-01</leafValues></_>
        <_>
          <internalNodes>
            0 -1 16 -1.1861410737037659e-01</internalNodes>
          <leafValues>
            -6.6866499185562134e-01 1.2347909063100815e-01</leafValues></_>
        <_>
          <internalNodes>
            0 -1 84 -1.0203241836279631e-03</internalNodes>
          <leafValues>
            2.8658831119537354e-01 -2.5342017412185669e-01</leafValues></_>
        <_>
          <internalNodes>
            0 -1 76 2.9546525329351425e-03</internalNodes>
          <leafValues>
            -1.8277275562286377e-01 4.1287529468536377e-01</leafValues></_>
        <_>
          <internalNodes>
            0 -1 58 -1.0991706221830100e-04</internalNodes>
          <leafValues>
            -5.0303417444229126e-01 1.6009154915809631e-01</leafValues></_>
        <_>
          <internalNodes>
            0 -1 102 -2.8105792589485645e-03</internalNodes>
          <leafValues>
            1.7860658466815948e-01 -4.1154241561889648e-01</leafValues></_>
        <_>
          <internalNodes>
            0 -1 15 4.8095438629388809e-02</internalNodes>
          <leafValues>
            9.1389797627925873e-02 -7.9865652322769165e-01</leafValues></_>
        <_>
          <internalNodes>
            0 -1 11 -8.6466455832123756e-04</internalNodes>
          <leafValues>
            -6.8843621015548706e-01 7.5093246996402740e-02</leafValues></_></weakClassifiers></_>
    <!-- stage 7 -->
    <_>
      <maxWeakCount>18</maxWeakCount>
      <stageThreshold>-1.6038982868194580e+00</stageThreshold>
      <weakClassifiers>
        <_>
          <internalNodes>
            0 -1 3 3.5592377185821533e-02</internalNodes>
          <leafValues>
            -5.7685011625289917e-01 2.4215246737003326e-01</leafValues></_>
        <_>
          <internalNodes>
            0 -1 129 -2.3761652410030365e-02</internalNodes>
          <leafValues>
            4.7734668850898743e-01 -2.6699790358543396e-01</leafValues></_>
        <_>
          <internalNodes>
            0 -1 62 -1.1678955052047968e-03</internalNodes>
          <leafValues>
            2.0615254342556000e-01 -5.8797895908355713e-01</leafValues></_>
        <_>
          <internalNodes>
            0 -1 93 6.9895121268928051e-03</internalNodes>
          <leafValues>
            -2.6178324222564697e-01 3.8497957587242126e-01</leafValues></_>
        <_>
          <internalNodes>
            0 -1 55 4.2194122215732932e-04</internalNodes>
          <leafValues>
            -2.7991500496864319e-01 3.2931852340698242e-01</leafValues></_>
        <_>
          <internalNodes>
            0 -1 68 2.0869798026978970e-04</internalNodes>
          <leafValues>
            1.3958838582038879e-01 -6.1355656385421753e-01</leafValues></_>
        <_>
          <internalNodes>
            0 -1 100 2.2505945526063442e-03</internalNodes>
          <leafValues>
            1.2254040688276291e-01 -6.5870505571365356e-01</leafValues></_>
        <_>
          <internalNodes>
            0 -1 12 4.5757234329357743e-04</internalNodes>
          <leafValues>
            -6.2402117252349854e-01 1.1312840878963470e-01</leafValues></_>
        <_>
          <internalNodes>
            0 -1 19 2.3519741371273994e-03</internalNodes>
          <leafValues>
            1.3561250269412994e-01 -5.8604133129119873e-01</leafValues></_>
        <_>
          <internalNodes>
            0 -1 95 -1.9079720368608832e-03</internalNodes>
          <leafValues>
            -7.6442754268646240e-01 8.8128171861171722e-02</leafValues></_>
        <_>
          <internalNodes>
            0 -1 110 -2.8251940384507179e-02</internalNodes>
          <leafValues>
            -5.6868898868560791e-01 1.1646556854248047e-01</leafValues></_>
        <_>
          <internalNodes>
            0 -1 71 -2.0150595810264349e-04</internalNodes>
          <leafValues>
            2.2658929228782654e-01 -3.1180197000503540e-01</leafValues></_>
        <_>
          <internalNodes>
            0 -1 40 7.0834794314578176e-04</internalNodes>
          <leafValues>
            -1.8849806487560272e-01 4.0318417549133301e-01</leafValues></_>
        <_>
          <internalNodes>
            0 -1 106 -3.9615022251382470e-04</internalNodes>
          <leafValues>
            -7.3587530851364136e-01 1.1345366388559341e-01</leafValues></_>
        <_>
          <internalNodes>
            0 -1 64 3.2259202562272549e-03</internalNodes>
          <leafValues>
            -5.6643366813659668e-01 1.1026594787836075e-01</leafValues></_>
        <_>
          <internalNodes>
            0 -1 127 3.9019365794956684e-04</internalNodes>
          <leafValues>
            -3.7440821528434753e-01 1.8633224070072174e-01</leafValues></_>
        <_>
          <internalNodes>
            0 -1 131 -1.0575929656624794e-02</internalNodes>
          <leafValues>
            -5.6481677293777466e-01 1.0765302926301956e-01</leafValues></_>
        <_>
          <internalNodes>
            0 -1 43 1.6487545799463987e-03</internalNodes>
          <leafValues>
            5.9211682528257370e-02 -8.4353005886077881e-01</leafValues></_></weakClassifiers></_>
    <!-- stage 8 -->
    <_>
      <maxWeakCount>17</maxWeakCount>
      <stageThreshold>-1.4204690456390381e+00</stageThreshold>
      <weakClassifiers>
        <_>
          <internalNodes>
            0 -1 30 -1.3882196508347988e-03</internalNodes>
          <leafValues>
            1.9759036600589752e-01 -5.3640550374984741e-01</leafValues></_>
        <_>
          <internalNodes>
            0 -1 1 3.2004070281982422e-01</internalNodes>
          <leafValues>
            -2.8061705827713013e-01 4.6061411499977112e-01</leafValues></_>
        <_>
          <internalNodes>
            0 -1 89 -2.1441545337438583e-02</internalNodes>
          <leafValues>
            3.1695017218589783e-01 -3.6357802152633667e-01</leafValues></_>
        <_>
          <internalNodes>
            0 -1 91 4.7981139505282044e-04</internalNodes>
          <leafValues>
            -4.2995315790176392e-01 2.2385112941265106e-01</leafValues></_>
        <_>
          <internalNodes>
            0 -1 66 -3.1080859480425715e-04</internalNodes>
          <leafValues>
            2.7248173952102661e-01 -2.8119760751724243e-01</leafValues></_>
        <_>
          <internalNodes>
            0 -1 53 2.2196846548467875e-03</internalNodes>
          <leafValues>
            -6.5781676769256592e-01 1.1667796969413757e-01</leafValues></_>
        <_>
          <internalNodes>
            0 -1 46 -2.2729981690645218e-02</internalNodes>
          <leafValues>
            -4.7335788607597351e-01 1.5551719069480896e-01</leafValues></_>
        <_>
          <internalNodes>
            0 -1 22 3.9507791399955750e-02</internalNodes>
          <leafValues>
            9.0178921818733215e-02 -6.7034411430358887e-01</leafValues></_>
        <_>
          <internalNodes>
            0 -1 31 -6.6651506349444389e-03</internalNodes>
          <leafValues>
            -5.8956527709960938e-01 1.0458663105964661e-01</leafValues></_>
        <_>
          <internalNodes>
            0 -1 44 -7.0108821091707796e-05</internalNodes>
          <leafValues>
            1.8111601471900940e-01 -3.4865057468414307e-01</leafValues></_>
        <_>
          <internalNodes>
            0 -1 56 1.7589165363460779e-03</internalNodes>
          <leafValues>
            9.1862171888351440e-02 -6.4385014772415161e-01</leafValues></_>
        <_>
          <internalNodes>
            0 -1 42 2.0038938964717090e-04</internalNodes>
          <leafValues>
            8.9693792164325714e-02 -6.6092652082443237e-01</leafValues></_>
        <_>
          <internalNodes>
            0 -1 23 -4.6603771625086665e-04</internalNodes>
          <leafValues>
            -6.3874149322509766e-01 7.3687180876731873e-02</leafValues></_>
        <_>
          <internalNodes>
            0 -1 101 -1.7110430635511875e-03</internalNodes>
          <leafValues>
            1.1860717833042145e-01 -4.7137722373008728e-01</leafValues></_>
        <_>
          <internalNodes>
            0 -1 77 3.9859376847743988e-03</internalNodes>
          <leafValues>
            1.3417033851146698e-01 -5.0129616260528564e-01</leafValues></_>
        <_>
          <internalNodes>
            0 -1 115 8.1906479317694902e-04</internalNodes>
          <leafValues>
            -1.1963177472352982e-01 5.7353883981704712e-01</leafValues></_>
        <_>
          <internalNodes>
            0 -1 21 1.3861769111827016e-03</internalNodes>
          <leafValues>
            9.5592372119426727e-02 -7.1635371446609497e-01</leafValues></_></weakClassifiers></_>
    <!-- stage 9 -->
    <_>
      <maxWeakCount>22</maxWeakCount>
      <stageThreshold>-1.4006471633911133e+00</stageThreshold>
      <weakClassifiers>
        <_>
          <internalNodes>
            0 -1 5 3.4765396267175674e-02</internalNodes>
          <leafValues>
            -5.4251384735107422e-01 2.0813396573066711e-01</leafValues></_>
        <_>
          <internalNodes>
            0 -1 113 8.7699033319950104e-03</internalNodes>
          <leafValues>
            -4.3577888607978821e-01 2.2239862382411957e-01</leafValues></_>
        <_>
          <internalNodes>
            0 -1 20 -1.0666542220860720e-03</internalNodes>
          <leafValues>
            2.2627265751361847e-01 -3.3958369493484497e-01</leafValues></_>
        <_>
          <internalNodes>
            0 -1 128 6.0784077504649758e-04</internalNodes>
          <leafValues>
            -3.3402961492538452e-01 2.1202079951763153e-01</leafValues></_>
        <_>
          <internalNodes>
            0 -1 80 1.3510235585272312e-03</internalNodes>
          <leafValues>
            -4.7110700607299805e-01 1.5687312185764313e-01</leafValues></_>
        <_>
          <internalNodes>
            0 -1 117 -7.9498916864395142e-02</internalNodes>
          <leafValues>
            4.6985837817192078e-01 -1.3176475465297699e-01</leafValues></_>
        <_>
          <internalNodes>
            0 -1 61 -3.6192516563460231e-04</internalNodes>
          <leafValues>
            2.1159353852272034e-01 -3.1864017248153687e-01</leafValues></_>
        <_>
          <internalNodes>
            0 -1 83 -4.0531735867261887e-03</internalNodes>
          <leafValues>
            4.9265682697296143e-01 -1.1750632524490356e-01</leafValues></_>
        <_>
          <internalNodes>
            0 -1 87 3.6599179729819298e-03</internalNodes>
          <leafValues>
            -2.6004385948181152e-01 3.0588760972023010e-01</leafValues></_>
        <_>
          <internalNodes>
            0 -1 70 -6.1917700804769993e-04</internalNodes>
          <leafValues>
            -6.7046886682510376e-01 9.7135052084922791e-02</leafValues></_>
        <_>
          <internalNodes>
            0 -1 104 -5.3905567619949579e-04</internalNodes>
          <leafValues>
            -7.6285785436630249e-01 7.5625240802764893e-02</leafValues></_>
        <_>
          <internalNodes>
            0 -1 41 -1.5817196108400822e-03</internalNodes>
          <leafValues>
            3.4775507450103760e-01 -1.8331697583198547e-01</leafValues></_>
        <_>
          <internalNodes>
            0 -1 7 -2.0766861736774445e-02</internalNodes>
          <leafValues>
            -7.3761576414108276e-01 6.5214551985263824e-02</leafValues></_>
        <_>
          <internalNodes>
            0 -1 26 -1.6418606042861938e-02</internalNodes>
          <leafValues>
            -6.8334633111953735e-01 7.6158799231052399e-02</leafValues></_>
        <_>
          <internalNodes>
            0 -1 96 1.2999374885112047e-03</internalNodes>
          <leafValues>
            1.3447584211826324e-01 -4.0326485037803650e-01</leafValues></_>
        <_>
          <internalNodes>
            0 -1 94 2.0303118508309126e-03</internalNodes>
          <leafValues>
            8.8272914290428162e-02 -6.3393175601959229e-01</leafValues></_>
        <_>
          <internalNodes>
            0 -1 33 7.0028372108936310e-02</internalNodes>
          <leafValues>
            9.0343229472637177e-02 -5.3492426872253418e-01</leafValues></_>
        <_>
          <internalNodes>
            0 -1 85 -3.4450083971023560e-02</internalNodes>
          <leafValues>
            -5.4457879066467285e-01 9.8904289305210114e-02</leafValues></_>
        <_>
          <internalNodes>
            0 -1 123 2.7977733407169580e-03</internalNodes>
          <leafValues>
            4.6852059662342072e-02 -9.1098147630691528e-01</leafValues></_>
        <_>
          <internalNodes>
            0 -1 88 -2.5418121367692947e-03</internalNodes>
          <leafValues>
            -7.4041569232940674e-01 5.5089607834815979e-02</leafValues></_>
        <_>
          <internalNodes>
            0 -1 120 4.7367502702400088e-04</internalNodes>
          <leafValues>
            -1.1539109051227570e-01 4.9720540642738342e-01</leafValues></_>
        <_>
          <internalNodes>
            0 -1 24 -1.5109825879335403e-02</internalNodes>
          <leafValues>
            -7.4093264341354370e-01 8.2704797387123108e-02</leafValues></_></weakClassifiers></_></stages>
  <features>
    <_>
      <rects>
        <_>
          0 0 12 21 -1.</_>
        <_>
          6 0 6 21 2.</_></rects>
      <tilted>0</tilted></_>
    <_>
      <rects>
        <_>
          0 0 48 48 -1.</_>
        <_>
          16 0 16 48 3.</_></rects>
      <tilted>0</tilted></_>
    <_>
      <rects>
        <_>
          0 1 16 12 -1.</_>
        <_>
          8 1 8 12 2.</_></rects>
      <tilted>0</tilted></_>
    <_>
      <rects>
        <_>
          0 1 22 7 -1.</_>
        <_>
          11 1 11 7 2.</_></rects>
      <tilted>0</tilted></_>
    <_>
      <rects>
        <_>
          0 1 48 9 -1.</_>
        <_>
          16 1 16 9 3.</_></rects>
      <tilted>0</tilted></_>
    <_>
      <rects>
        <_>
          0 2 12 23 -1.</_>
        <_>
          6 2 6 23 2.</_></rects>
      <tilted>0</tilted></_>
    <_>
      <rects>
        <_>
          0 3 8 17 -1.</_>
        <_>
          4 3 4 17 2.</_></rects>
      <tilted>0</tilted></_>
    <_>
      <rects>
        <_>
          0 5 10 12 -1.</_>
        <_>
          0 9 10 4 3.</_></rects>
      <tilted>0</tilted></_>
    <_>
      <rects>
        <_>
          0 16 14 18 -1.</_>
        <_>
          7 16 7 18 2.</_></rects>
      <tilted>0</tilted></_>
    <_>
      <rects>
        <_>
          1 3 14 29 -1.</_>
        <_>
          8 3 7 29 2.</_></rects>
      <tilted>0</tilted></_>
    <_>
      <rects>
        <_>
          1 3 16 5 -1.</_>
        <_>
          9 3 8 5 2.</_></rects>
      <tilted>0</tilted></_>
    <_>
      <rects>
        <_>
          1 3 13 3 -1.</_>
        <_>
          1 4 13 1 3.</_></rects>
      <tilted>0</tilted></_>
    <_>
      <rects>
        <_>
          1 14 12 6 -1.</_>
        <_>
          1 17 12 3 2.</_></rects>
      <tilted>0</tilted></_>
    <_>
      <rects>
        <_>
          1 14 16 4 -1.</_>
        <_>
          1 16 16 2 2.</_></rects>
      <tilted>0</tilted></_>
    <_>
      <rects>
        <_>
          2 11 15 12 -1.</_>
        <_>
          2 17 15 6 2.</_></rects>
      <tilted>0</tilted></_>
    <_>
      <rects>
        <_>
          2 13 39 5 -1.</_>
        <_>
          15 13 13 5 3.</_></rects>
      <tilted>0</tilted></_>
    <_>
      <rects>
        <_>
          3 0 20 36 -1.</_>
        <_>
          3 12 20 12 3.</_></rects>
      <tilted>0</tilted></_>
    <_>
      <rects>
        <_>
          3 3 22 14 -1.</_>
        <_>
          3 3 11 7 2.</_>
        <_>
          14 10 11 7 2.</_></rects>
      <tilted>0</tilted></_>
    <_>
      <rects>
        <_>
          3 11 45 21 -1.</_>
        <_>
          3 18 45 7 3.</_></rects>
      <tilted>0</tilted></_>
    <_>
      <rects>
        <_>
          3 15 3 6 -1.</_>
        <_>
          3 18 3 3 2.</_></rects>
      <tilted>0</tilted></_>
    <_>
      <rects>
        <_>
          4 11 12 4 -1.</_>
        <_>
          4 11 6 2 2.</_>
        <_>
          10 13 6 2 2.</_></rects>
      <tilted>0</tilted></_>
    <_>
      <rects>
        <_>
          4 15 22 2 -1.</_>
        <_>
          4 15 11 1 2.</_>
        <_>
          15 16 11 1 2.</_></rects>
      <tilted>0</tilted></_>
    <_>
      <rects>
        <_>
          5 7 36 24 -1.</_>
        <_>
          5 7 18 12 2.</_>
        <_>
          23 19 18 12 2.</_></rects>
      <tilted>0</tilted></_>
    <_>
      <rects>
        <_>
          5 18 7 3 -1.</_>
        <_>
          5 19 7 1 3.</_></rects>
      <tilted>0</tilted></_>
    <_>
      <rects>
        <_>
          6 15 36 4 -1.</_>
        <_>
          18 15 12 4 3.</_></rects>
      <tilted>0</tilted></_>
    <_>
      <rects>
        <_>
          6 20 41 12 -1.</_>
        <_>
          6 26 41 6 2.</_></rects>
      <tilted>0</tilted></_>
    <_>
      <rects>
        <_>
          7 6 16 20 -1.</_>
        <_>
          7 16 16 10 2.</_></rects>
      <tilted>0</tilted></_>
    <_>
      <rects>
        <_>
          9 1 11 12 -1.</_>
        <_>
          9 5 11 4 3.</_></rects>
      <tilted>0</tilted></_>
    <_>
      <rects>
        <_>
          9 9 30 10 -1.</_>
        <_>
          19 9 10 10 3.</_></rects>
      <tilted>0</tilted></_>
    <_>
      <rects>
        <_>
          9 10 21 9 -1.</_>
        <_>
          9 13 21 3 3.</_></rects>
      <tilted>0</tilted></_>
    <_>
      <rects>
        <_>
          9 13 7 3 -1.</_>
        <_>
          9 14 7 1 3.</_></rects>
      <tilted>0</tilted></_>
    <_>
      <rects>
        <_>
          9 13 16 9 -1.</_>
        <_>
          17 13 8 9 2.</_></rects>
      <tilted>0</tilted></_>
    <_>
      <rects>
        <_>
          9 13 16 18 -1.</_>
        <_>
          9 19 16 6 3.</_></rects>
      <tilted>0</tilted></_>
    <_>
      <rects>
        <_>
          10 8 23 34 -1.</_>
        <_>
          10 25 23 17 2.</_></rects>
      <tilted>0</tilted></_>
    <_>
      <rects>
        <_>
          10 10 16 18 -1.</_>
        <_>
          10 10 8 9 2.</_>
        <_>
          18 19 8 9 2.</_></rects>
      <tilted>0</tilted></_>
    <_>
      <rects>
        <_>
          10 11 6 12 -1.</_>
        <_>
          10 17 6 6 2.</_></rects>
      <tilted>0</tilted></_>
    <_>
      <rects>
        <_>
          10 11 16 9 -1.</_>
        <_>
          10 14 16 3 3.</_></rects>
      <tilted>0</tilted></_>
    <_>
      <rects>
        <_>
          10 14 5 6 -1.</_>
        <_>
          10 17 5 3 2.</_></rects>
      <tilted>0</tilted></_>
    <_>
      <rects>
        <_>
          11 6 12 14 -1.</_>
        <_>
          11 13 12 7 2.</_></rects>
      <tilted>0</tilted></_>
    <_>
      <rects>
        <_>
          11 11 5 6 -1.</_>
        <_>
          11 13 5 2 3.</_></rects>
      <tilted>0</tilted></_>
    <_>
      <rects>
        <_>
          11 11 6 3 -1.</_>
        <_>
          11 12 6 1 3.</_></rects>
      <tilted>0</tilted></_>
    <_>
      <rects>
        <_>
          11 13 9 3 -1.</_>
        <_>
          11 14 9 1 3.</_></rects>
      <tilted>0</tilted></_>
    <_>
      <rects>
        <_>
          11 17 3 2 -1.</_>
        <_>
          12 17 1 2 3.</_></rects>
      <tilted>0</tilted></_>
    <_>
      <rects>
        <_>
          11 18 6 3 -1.</_>
        <_>
          13 18 2 3 3.</_></rects>
      <tilted>0</tilted></_>
    <_>
      <rects>
        <_>
          12 0 2 20 -1.</_>
        <_>
          12 0 1 10 2.</_>
        <_>
          13 10 1 10 2.</_></rects>
      <tilted>0</tilted></_>
    <_>
      <rects>
        <_>
          12 5 3 6 -1.</_>
        <_>
          13 5 1 6 3.</_></rects>
      <tilted>0</tilted></_>
    <_>
      <rects>
        <_>
          12 9 28 24 -1.</_>
        <_>
          12 9 14 12 2.</_>
        <_>
          26 21 14 12 2.</_></rects>
      <tilted>0</tilted></_>
    <_>
      <rects>
        <_>
          12 13 4 8 -1.</_>
        <_>
          12 17 4 4 2.</_></rects>
      <tilted>0</tilted></_>
    <_>
      <rects>
        <_>
          12 15 1 8 -1.</_>
        <_>
          12 19 1 4 2.</_></rects>
      <tilted>0</tilted></_>
    <_>
      <rects>
        <_>
          13 1 28 30 -1.</_>
        <_>
          13 1 14 15 2.</_>
        <_>
          27 16 14 15 2.</_></rects>
      <tilted>0</tilted></_>
    <_>
      <rects>
        <_>
          13 5 3 6 -1.</_>
        <_>
          14 5 1 6 3.</_></rects>
      <tilted>0</tilted></_>
    <_>
      <rects>
        <_>
          13 7 9 10 -1.</_>
        <_>
          13 12 9 5 2.</_></rects>
      <tilted>0</tilted></_>
    <_>
      <rects>
        <_>
          13 12 2 2 -1.</_>
        <_>
          13 13 2 1 2.</_></rects>
      <tilted>0</tilted></_>
    <_>
      <rects>
        <_>
          13 13 9 18 -1.</_>
        <_>
          13 19 9 6 3.</_></rects>
      <tilted>0</tilted></_>
    <_>
      <rects>
        <_>
          13 14 2 4 -1.</_>
        <_>
          13 16 2 2 2.</_></rects>
      <tilted>0</tilted></_>
    <_>
      <rects>
        <_>
          13 14 6 2 -1.</_>
        <_>
          13 15 6 1 2.</_></rects>
      <tilted>0</tilted></_>
    <_>
      <rects>
        <_>
          14 0 6 13 -1.</_>
        <_>
          16 0 2 13 3.</_></rects>
      <tilted>0</tilted></_>
    <_>
      <rects>
        <_>
          14 1 12 18 -1.</_>
        <_>
          20 1 6 18 2.</_></rects>
      <tilted>0</tilted></_>
    <_>
      <rects>
        <_>
          14 3 3 3 -1.</_>
        <_>
          15 3 1 3 3.</_></rects>
      <tilted>0</tilted></_>
    <_>
      <rects>
        <_>
          14 5 3 9 -1.</_>
        <_>
          15 5 1 9 3.</_></rects>
      <tilted>0</tilted></_>
    <_>
      <rects>
        <_>
          14 6 3 1 -1.</_>
        <_>
          15 6 1 1 3.</_></rects>
      <tilted>0</tilted></_>
    <_>
      <rects>
        <_>
          14 6 1 6 -1.</_>
        <_>
          14 9 1 3 2.</_></rects>
      <tilted>0</tilted></_>
    <_>
      <rects>
        <_>
          14 8 1 15 -1.</_>
        <_>
          14 13 1 5 3.</_></rects>
      <tilted>0</tilted></_>
    <_>
      <rects>
        <_>
          14 8 21 8 -1.</_>
        <_>
          21 8 7 8 3.</_></rects>
      <tilted>0</tilted></_>
    <_>
      <rects>
        <_>
          14 9 12 7 -1.</_>
        <_>
          20 9 6 7 2.</_></rects>
      <tilted>0</tilted></_>
    <_>
      <rects>
        <_>
          14 13 23 8 -1.</_>
        <_>
          14 17 23 4 2.</_></rects>
      <tilted>0</tilted></_>
    <_>
      <rects>
        <_>
          14 20 4 9 -1.</_>
        <_>
          16 20 2 9 2.</_></rects>
      <tilted>0</tilted></_>
    <_>
      <rects>
        <_>
          14 21 1 12 -1.</_>
        <_>
          14 27 1 6 2.</_></rects>
      <tilted>0</tilted></_>
    <_>
      <rects>
        <_>
          15 5 3 6 -1.</_>
        <_>
          16 5 1 6 3.</_></rects>
      <tilted>0</tilted></_>
    <_>
      <rects>
        <_>
          15 5 14 15 -1.</_>
        <_>
          15 10 14 5 3.</_></rects>
      <tilted>0</tilted></_>
    <_>
      <rects>
        <_>
          15 6 6 2 -1.</_>
        <_>
          17 6 2 2 3.</_></rects>
      <tilted>0</tilted></_>
    <_>
      <rects>
        <_>
          15 9 5 2 -1.</_>
        <_>
          15 10 5 1 2.</_></rects>
      <tilted>0</tilted></_>
    <_>
      <rects>
        <_>
          16 6 1 6 -1.</_>
        <_>
          16 9 1 3 2.</_></rects>
      <tilted>0</tilted></_>
    <_>
      <rects>
        <_>
          16 6 9 3 -1.</_>
        <_>
          19 6 3 3 3.</_></rects>
      <tilted>0</tilted></_>
    <_>
      <rects>
        <_>
          16 11 10 5 -1.</_>
        <_>
          21 11 5 5 2.</_></rects>
      <tilted>0</tilted></_>
    <_>
      <rects>
        <_>
          16 12 20 30 -1.</_>
        <_>
          16 27 20 15 2.</_></rects>
      <tilted>0</tilted></_>
    <_>
      <rects>
        <_>
          16 30 16 6 -1.</_>
        <_>
          16 32 16 2 3.</_></rects>
      <tilted>0</tilted></_>
    <_>
      <rects>
        <_>
          17 3 15 3 -1.</_>
        <_>
          22 3 5 3 3.</_></rects>
      <tilted>0</tilted></_>
    <_>
      <rects>
        <_>
          17 4 8 15 -1.</_>
        <_>
          21 4 4 15 2.</_></rects>
      <tilted>0</tilted></_>
    <_>
      <rects>
        <_>
          17 9 15 6 -1.</_>
        <_>
          22 9 5 6 3.</_></rects>
      <tilted>0</tilted></_>
    <_>
      <rects>
        <_>
          17 10 8 4 -1.</_>
        <_>
          21 10 4 4 2.</_></rects>
      <tilted>0</tilted></_>
    <_>
      <rects>
        <_>
          17 16 9 2 -1.</_>
        <_>
          17 17 9 1 2.</_></rects>
      <tilted>0</tilted></_>
    <_>
      <rects>
        <_>
          18 4 3 2 -1.</_>
        <_>
          19 4 1 2 3.</_></rects>
      <tilted>0</tilted></_>
    <_>
      <rects>
        <_>
          18 12 9 10 -1.</_>
        <_>
          21 12 3 10 3.</_></rects>
      <tilted>0</tilted></_>
    <_>
      <rects>
        <_>
          18 32 26 4 -1.</_>
        <_>
          18 32 13 2 2.</_>
        <_>
          31 34 13 2 2.</_></rects>
      <tilted>0</tilted></_>
    <_>
      <rects>
        <_>
          19 10 5 34 -1.</_>
        <_>
          19 27 5 17 2.</_></rects>
      <tilted>0</tilted></_>
    <_>
      <rects>
        <_>
          19 14 6 2 -1.</_>
        <_>
          22 14 3 2 2.</_></rects>
      <tilted>0</tilted></_>
    <_>
      <rects>
        <_>
          19 14 9 9 -1.</_>
        <_>
          22 14 3 9 3.</_></rects>
      <tilted>0</tilted></_>
    <_>
      <rects>
        <_>
          20 0 12 2 -1.</_>
        <_>
          24 0 4 2 3.</_></rects>
      <tilted>0</tilted></_>
    <_>
      <rects>
        <_>
          20 6 19 15 -1.</_>
        <_>
          20 11 19 5 3.</_></rects>
      <tilted>0</tilted></_>
    <_>
      <rects>
        <_>
          20 9 9 8 -1.</_>
        <_>
          23 9 3 8 3.</_></rects>
      <tilted>0</tilted></_>
    <_>
      <rects>
        <_>
          20 11 4 3 -1.</_>
        <_>
          22 11 2 3 2.</_></rects>
      <tilted>0</tilted></_>
    <_>
      <rects>
        <_>
          20 12 4 1 -1.</_>
        <_>
          22 12 2 1 2.</_></rects>
      <tilted>0</tilted></_>
    <_>
      <rects>
        <_>
          20 13 9 10 -1.</_>
        <_>
          23 13 3 10 3.</_></rects>
      <tilted>0</tilted></_>
    <_>
      <rects>
        <_>
          20 13 5 6 -1.</_>
        <_>
          20 15 5 2 3.</_></rects>
      <tilted>0</tilted></_>
    <_>
      <rects>
        <_>
          21 0 6 10 -1.</_>
        <_>
          23 0 2 10 3.</_></rects>
      <tilted>0</tilted></_>
    <_>
      <rects>
        <_>
          22 5 18 13 -1.</_>
        <_>
          28 5 6 13 3.</_></rects>
      <tilted>0</tilted></_>
    <_>
      <rects>
        <_>
          22 9 18 14 -1.</_>
        <_>
          28 9 6 14 3.</_></rects>
      <tilted>0</tilted></_>
    <_>
      <rects>
        <_>
          22 9 14 7 -1.</_>
        <_>
          29 9 7 7 2.</_></rects>
      <tilted>0</tilted></_>
    <_>
      <rects>
        <_>
          23 0 19 12 -1.</_>
        <_>
          23 4 19 4 3.</_></rects>
      <tilted>0</tilted></_>
    <_>
      <rects>
        <_>
          23 8 1 26 -1.</_>
        <_>
          23 21 1 13 2.</_></rects>
      <tilted>0</tilted></_>
    <_>
      <rects>
        <_>
          24 2 12 14 -1.</_>
        <_>
          30 2 6 14 2.</_></rects>
      <tilted>0</tilted></_>
    <_>
      <rects>
        <_>
          24 6 10 16 -1.</_>
        <_>
          29 6 5 16 2.</_></rects>
      <tilted>0</tilted></_>
    <_>
      <rects>
        <_>
          24 10 6 6 -1.</_>
        <_>
          27 10 3 6 2.</_></rects>
      <tilted>0</tilted></_>
    <_>
      <rects>
        <_>
          24 15 3 3 -1.</_>
        <_>
          24 16 3 1 3.</_></rects>
      <tilted>0</tilted></_>
    <_>
      <rects>
        <_>
          25 4 3 2 -1.</_>
        <_>
          26 4 1 2 3.</_></rects>
      <tilted>0</tilted></_>
    <_>
      <rects>
        <_>
          25 5 3 6 -1.</_>
        <_>
          26 5 1 6 3.</_></rects>
      <tilted>0</tilted></_>
    <_>
      <rects>
        <_>
          26 4 22 12 -1.</_>
        <_>
          26 4 11 6 2.</_>
        <_>
          37 10 11 6 2.</_></rects>
      <tilted>0</tilted></_>
    <_>
      <rects>
        <_>
          26 13 4 4 -1.</_>
        <_>
          28 13 2 4 2.</_></rects>
      <tilted>0</tilted></_>
    <_>
      <rects>
        <_>
          26 14 10 6 -1.</_>
        <_>
          26 17 10 3 2.</_></rects>
      <tilted>0</tilted></_>
    <_>
      <rects>
        <_>
          27 6 13 28 -1.</_>
        <_>
          27 20 13 14 2.</_></rects>
      <tilted>0</tilted></_>
    <_>
      <rects>
        <_>
          29 4 3 41 -1.</_>
        <_>
          30 4 1 41 3.</_></rects>
      <tilted>0</tilted></_>
    <_>
      <rects>
        <_>
          29 18 18 5 -1.</_>
        <_>
          35 18 6 5 3.</_></rects>
      <tilted>0</tilted></_>
    <_>
      <rects>
        <_>
          30 1 14 16 -1.</_>
        <_>
          30 1 7 8 2.</_>
        <_>
          37 9 7 8 2.</_></rects>
      <tilted>0</tilted></_>
    <_>
      <rects>
        <_>
          31 10 6 10 -1.</_>
        <_>
          33 10 2 10 3.</_></rects>
      <tilted>0</tilted></_>
    <_>
      <rects>
        <_>
          31 12 6 3 -1.</_>
        <_>
          31 13 6 1 3.</_></rects>
      <tilted>0</tilted></_>
    <_>
      <rects>
        <_>
          32 0 10 20 -1.</_>
        <_>
          32 0 5 10 2.</_>
        <_>
          37 10 5 10 2.</_></rects>
      <tilted>0</tilted></_>
    <_>
      <rects>
        <_>
          32 3 16 32 -1.</_>
        <_>
          40 3 8 32 2.</_></rects>
      <tilted>0</tilted></_>
    <_>
      <rects>
        <_>
          32 8 4 6 -1.</_>
        <_>
          32 10 4 2 3.</_></rects>
      <tilted>0</tilted></_>
    <_>
      <rects>
        <_>
          33 9 3 1 -1.</_>
        <_>
          34 9 1 1 3.</_></rects>
      <tilted>0</tilted></_>
    <_>
      <rects>
        <_>
          33 10 4 2 -1.</_>
        <_>
          33 11 4 1 2.</_></rects>
      <tilted>0</tilted></_>
    <_>
      <rects>
        <_>
          33 11 6 21 -1.</_>
        <_>
          33 18 6 7 3.</_></rects>
      <tilted>0</tilted></_>
    <_>
      <rects>
        <_>
          33 13 4 10 -1.</_>
        <_>
          33 18 4 5 2.</_></rects>
      <tilted>0</tilted></_>
    <_>
      <rects>
        <_>
          33 18 6 4 -1.</_>
        <_>
          35 18 2 4 3.</_></rects>
      <tilted>0</tilted></_>
    <_>
      <rects>
        <_>
          34 0 14 37 -1.</_>
        <_>
          41 0 7 37 2.</_></rects>
      <tilted>0</tilted></_>
    <_>
      <rects>
        <_>
          34 5 14 3 -1.</_>
        <_>
          41 5 7 3 2.</_></rects>
      <tilted>0</tilted></_>
    <_>
      <rects>
        <_>
          34 11 14 27 -1.</_>
        <_>
          41 11 7 27 2.</_></rects>
      <tilted>0</tilted></_>
    <_>
      <rects>
        <_>
          36 14 1 15 -1.</_>
        <_>
          36 19 1 5 3.</_></rects>
      <tilted>0</tilted></_>
    <_>
      <rects>
        <_>
          37 12 1 10 -1.</_>
        <_>
          37 17 1 5 2.</_></rects>
      <tilted>0</tilted></_>
    <_>
      <rects>
        <_>
          38 5 10 22 -1.</_>
        <_>
          43 5 5 22 2.</_></rects>
      <tilted>0</tilted></_>
    <_>
      <rects>
        <_>
          38 19 10 15 -1.</_>
        <_>
          43 19 5 15 2.</_></rects>
      <tilted>0</tilted></_>
    <_>
      <rects>
        <_>
          42 8 6 18 -1.</_>
        <_>
          42 14 6 6 3.</_></rects>
      <tilted>0</tilted></_></features></cascade>
</opencv_storage>
